{"learner":{"attributes":{"scikit_learn":"{\"_estimator_type\": \"regressor\"}"},"feature_names":[],"feature_types":[],"gradient_booster":{"model":{"cats":{"enc":[],"feature_segments":[],"sorted_idx":[]},"gbtree_model_param":{"num_parallel_tree":"1","num_trees":"500"},"iteration_indptr":[0,1,2,3,4,5,6,7,8,9,10,11,12,13,14,15,16,17,18,19,20,21,22,23,24,25,26,27,28,29,30,31,32,33,34,35,36,37,38,39,40,41,42,43,44,45,46,47,48,49,50,51,52,53,54,55,56,57,58,59,60,61,62,63,64,65,66,67,68,69,70,71,72,73,74,75,76,77,78,79,80,81,82,83,84,85,86,87,88,89,90,91,92,93,94,95,96,97,98,99,100,101,102,103,104,105,106,107,108,109,110,111,112,113,114,115,116,117,118,119,120,121,122,123,124,125,126,127,128,129,130,131,132,133,134,135,136,137,138,139,140,141,142,143,144,145,146,147,148,149,150,151,152,153,154,155,156,157,158,159,160,161,162,163,164,165,166,167,168,169,170,171,172,173,174,175,176,177,178,179,180,181,182,183,184,185,186,187,188,189,190,191,192,193,194,195,196,197,198,199,200,201,202,203,204,205,206,207,208,209,210,211,212,213,214,215,216,217,218,219,220,221,222,223,224,225,226,227,228,229,230,231,232,233,234,235,236,237,238,239,240,241,242,243,244,245,246,247,248,249,250,251,252,253,254,255,256,257,258,259,260,261,262,263,264,265,266,267,268,269,270,271,272,273,274,275,276,277,278,279,280,281,282,283,284,285,286,287,288,289,290,291,292,293,294,295,296,297,298,299,300,301,302,303,304,305,306,307,308,309,310,311,312,313,314,315,316,317,318,319,320,321,322,323,324,325,326,327,328,329,330,331,332,333,334,335,336,337,338,339,340,341,342,343,344,345,346,347,348,349,350,351,352,353,354,355,356,357,358,359,360,361,362,363,364,365,366,367,368,369,370,371,372,373,374,375,376,377,378,379,380,381,382,383,384,385,386,387,388,389,390,391,392,393,394,395,396,397,398,399,400,401,402,403,404,405,406,407,408,409,410,411,412,413,414,415,416,417,418,419,420,421,422,423,424,425,426,427,428,429,430,431,432,433,434,435,436,437,438,439,440,441,442,443,444,445,446,447,448,449,450,451,452,453,454,455,456,457,458,459,460,461,462,463,464,465,466,467,468,469,470,471,472,473,474,475,476,477,478,479,480,481,482,483,484,485,486,487,488,489,490,491,492,493,494,495,496,497,498,499,500],"tree_info":[0,0,0,0,0,0,0,0,0,0,0,0,0,0,0,0,0,0,0,0,0,0,0,0,0,0,0,0,0,0,0,0,0,0,0,0,0,0,0,0,0,0,0,0,0,0,0,0,0,0,0,0,0,0,0,0,0,0,0,0,0,0,0,0,0,0,0,0,0,0,0,0,0,0,0,0,0,0,0,0,0,0,0,0,0,0,0,0,0,0,0,0,0,0,0,0,0,0,0,0,0,0,0,0,0,0,0,0,0,0,0,0,0,0,0,0,0,0,0,0,0,0,0,0,0,0,0,0,0,0,0,0,0,0,0,0,0,0,0,0,0,0,0,0,0,0,0,0,0,0,0,0,0,0,0,0,0,0,0,0,0,0,0,0,0,0,0,0,0,0,0,0,0,0,0,0,0,0,0,0,0,0,0,0,0,0,0,0,0,0,0,0,0,0,0,0,0,0,0,0,0,0,0,0,0,0,0,0,0,0,0,0,0,0,0,0,0,0,0,0,0,0,0,0,0,0,0,0,0,0,0,0,0,0,0,0,0,0,0,0,0,0,0,0,0,0,0,0,0,0,0,0,0,0,0,0,0,0,0,0,0,0,0,0,0,0,0,0,0,0,0,0,0,0,0,0,0,0,0,0,0,0,0,0,0,0,0,0,0,0,0,0,0,0,0,0,0,0,0,0,0,0,0,0,0,0,0,0,0,0,0,0,0,0,0,0,0,0,0,0,0,0,0,0,0,0,0,0,0,0,0,0,0,0,0,0,0,0,0,0,0,0,0,0,0,0,0,0,0,0,0,0,0,0,0,0,0,0,0,0,0,0,0,0,0,0,0,0,0,0,0,0,0,0,0,0,0,0,0,0,0,0,0,0,0,0,0,0,0,0,0,0,0,0,0,0,0,0,0,0,0,0,0,0,0,0,0,0,0,0,0,0,0,0,0,0,0,0,0,0,0,0,0,0,0,0,0,0,0,0,0,0,0,0,0,0,0,0,0,0,0,0,0,0,0,0,0,0,0,0,0,0,0,0,0,0,0,0,0,0,0,0,0,0,0,0,0,0,0,0,0,0,0,0,0,0,0,0,0,0,0,0,0,0,0,0,0,0,0,0,0,0,0,0,0,0,0,0,0,0],"trees":[{"base_weights":[-2.8404425E-4,9.872977E-3,-1.0976912E-1,-1.2909925E-3,-1.429672E-1,-3.6239745E-3,-4.9570794E-3],"categories":[],"categories_nodes":[],"categories_segments":[],"categories_sizes":[],"default_left":[0,0,0,0,0,0,0],"id":0,"left_children":[1,-1,3,-1,5,-1,-1],"loss_changes":[9.2242224E2,0E0,4.250856E1,0E0,6.2796326E0,0E0,0E0],"parents":[2147483647,0,0,2,2,4,4],"right_children":[2,-1,4,-1,6,-1,-1],"split_conditions":[2.0966399E0,9.872977E-3,-1.489953E0,-1.2909925E-3,-2.374608E0,-3.6239745E-3,-4.9570794E-3],"split_indices":[6,0,8,0,0,0,0],"split_type":[0,0,0,0,0,0,0],"sum_hessian":[2.5577E4,6.38E3,1.9197E4,6.379E3,1.2818E4,6.429E3,6.389E3],"tree_param":{"num_deleted":"0","num_feature":"13","num_nodes":"7","size_leaf_vector":"1"}},{"base_weights":[-1.2094873E-4,9.576847E-3,-1.06261835E-1,-1.2522789E-3,-1.3878162E-1,-3.5152696E-3,-4.808399E-3],"categories":[],"categories_nodes":[],"categories_segments":[],"categories_sizes":[],"default_left":[0,0,0,0,0,0,0],"id":1,"left_children":[1,-1,3,-1,5,-1,-1],"loss_changes":[8.726315E2,0E0,4.0518707E1,0E0,5.920349E0,0E0,0E0],"parents":[2147483647,0,0,2,2,4,4],"right_children":[2,-1,4,-1,6,-1,-1],"split_conditions":[2.0966399E0,9.576847E-3,-4.882151E1,-1.2522789E-3,-2.374608E0,-3.5152696E-3,-4.808399E-3],"split_indices":[6,0,9,0,0,0,0],"split_type":[0,0,0,0,0,0,0],"sum_hessian":[2.5743E4,6.421E3,1.9322E4,6.477E3,1.2845E4,6.412E3,6.433E3],"tree_param":{"num_deleted":"0","num_feature":"13","num_nodes":"7","size_leaf_vector":"1"}},{"base_weights":[7.177127E-4,9.289575E-3,-1.0169904E-1,-3.636565E-2,-1.3462564E-1,-1.214706E-3,9.131871E-3,-3.4098236E-3,-4.664165E-3],"categories":[],"categories_nodes":[],"categories_segments":[],"categories_sizes":[],"default_left":[0,0,0,0,0,0,0,0,0],"id":2,"left_children":[1,-1,3,5,7,-1,-1,-1,-1],"loss_changes":[8.1101965E2,0E0,4.138875E1,9.055545E0,5.5487213E0,0E0,0E0,0E0,0E0],"parents":[2147483647,0,0,2,2,3,3,4,4],"right_children":[2,-1,4,6,8,-1,-1,-1,-1],"split_conditions":[-4.1901574E0,9.289575E-3,-4.877044E1,-4.882151E1,-2.374608E0,-1.214706E-3,9.131871E-3,-3.4098236E-3,-4.664165E-3],"split_indices":[5,0,9,9,0,0,0,0,0],"split_type":[0,0,0,0,0,0,0,0,0],"sum_hessian":[2.563E4,6.381E3,1.9249E4,6.452E3,1.2797E4,6.376E3,7.6E1,6.386E3,6.411E3],"tree_param":{"num_deleted":"0","num_feature":"13","num_nodes":"9","size_leaf_vector":"1"}},{"base_weights":[6.125325E-5,9.010999E-3,-1.0011862E-1,-1.1782733E-3,-1.3049598E-1,-3.3075518E-3,-4.524259E-3],"categories":[],"categories_nodes":[],"categories_segments":[],"categories_sizes":[],"default_left":[0,0,0,0,0,0,0],"id":3,"left_children":[1,-1,3,-1,5,-1,-1],"loss_changes":[7.716287E2,0E0,3.5523346E1,0E0,5.2315063E0,0E0,0E0],"parents":[2147483647,0,0,2,2,4,4],"right_children":[2,-1,4,-1,6,-1,-1],"split_conditions":[-1.4923838E0,9.010999E-3,-1.489953E0,-1.1782733E-3,-2.374608E0,-3.3075518E-3,-4.524259E-3],"split_indices":[8,0,8,0,0,0,0],"split_type":[0,0,0,0,0,0,0],"sum_hessian":[2.5646E4,6.415E3,1.9231E4,6.406E3,1.2825E4,6.429E3,6.396E3],"tree_param":{"num_deleted":"0","num_feature":"13","num_nodes":"7","size_leaf_vector":"1"}},{"base_weights":[-1.528594E-5,8.740702E-3,-9.722547E-2,-1.1429281E-3,-1.2667708E-1,-3.2083348E-3,-4.3885564E-3],"categories":[],"categories_nodes":[],"categories_segments":[],"categories_sizes":[],"default_left":[0,0,0,0,0,0,0],"id":4,"left_children":[1,-1,3,-1,5,-1,-1],"loss_changes":[7.2497015E2,0E0,3.340161E1,0E0,4.9154663E0,0E0,0E0],"parents":[2147483647,0,0,2,2,4,4],"right_children":[2,-1,4,-1,6,-1,-1],"split_conditions":[-1.4923838E0,8.740702E-3,-1.489953E0,-1.1429281E-3,-2.374608E0,-3.2083348E-3,-4.3885564E-3],"split_indices":[8,0,8,0,0,0,0],"split_type":[0,0,0,0,0,0,0],"sum_hessian":[2.5594E4,6.402E3,1.9192E4,6.383E3,1.2809E4,6.39E3,6.419E3],"tree_param":{"num_deleted":"0","num_feature":"13","num_nodes":"7","size_leaf_vector":"1"}},{"base_weights":[1.3748137E-4,8.478534E-3,-9.422249E-2,-5.1627148E-2,-1.260819E-1,-1.1085592E-3,-8.3002694E-2,-3.1117208E-3,-4.2569265E-3,-3.1096863E-3,-1.104247E-3],"categories":[],"categories_nodes":[],"categories_segments":[],"categories_sizes":[],"default_left":[0,0,0,0,0,0,0,0,0,0,0],"id":5,"left_children":[1,-1,3,5,7,-1,9,-1,-1,-1,-1],"loss_changes":[6.858478E2,0E0,2.6149384E1,3.7863426E0,3.861679E0,0E0,2.4894562E0,0E0,0E0,0E0,0E0],"parents":[2147483647,0,0,2,2,3,3,4,4,6,6],"right_children":[2,-1,4,6,8,-1,10,-1,-1,-1,-1],"split_conditions":[2.0966399E0,8.478534E-3,-4.1814494E0,-4.184486E0,-2.374608E0,-1.1085592E-3,-4.181866E0,-3.1117208E-3,-4.2569265E-3,-3.1096863E-3,-1.104247E-3],"split_indices":[6,0,5,5,0,0,5,0,0,0,0],"split_type":[0,0,0,0,0,0,0,0,0,0,0],"sum_hessian":[2.5728E4,6.442E3,1.9286E4,8.255E3,1.1031E4,5.628E3,2.627E3,4.576E3,6.455E3,1.813E3,8.14E2],"tree_param":{"num_deleted":"0","num_feature":"13","num_nodes":"11","size_leaf_vector":"1"}},{"base_weights":[-6.2664074E-4,8.224193E-3,-9.1498554E-2,-1.0754092E-3,-1.19220115E-1,-3.0187767E-3,-4.1292314E-3],"categories":[],"categories_nodes":[],"categories_segments":[],"categories_sizes":[],"default_left":[0,0,0,0,0,0,0],"id":6,"left_children":[1,-1,3,-1,5,-1,-1],"loss_changes":[6.363552E2,0E0,2.9528488E1,0E0,4.34079E0,0E0,0E0],"parents":[2147483647,0,0,2,2,4,4],"right_children":[2,-1,4,-1,6,-1,-1],"split_conditions":[2.0966399E0,8.224193E-3,-1.489953E0,-1.0754092E-3,-4.118316E0,-3.0187767E-3,-4.1292314E-3],"split_indices":[6,0,8,0,5,0,0],"split_type":[0,0,0,0,0,0,0],"sum_hessian":[2.5485E4,6.333E3,1.9152E4,6.37E3,1.2782E4,6.367E3,6.415E3],"tree_param":{"num_deleted":"0","num_feature":"13","num_nodes":"7","size_leaf_vector":"1"}},{"base_weights":[-3.4152728E-4,7.977508E-3,-8.832079E-2,-1.0431632E-3,-1.15491144E-1,-2.928235E-3,-4.005364E-3],"categories":[],"categories_nodes":[],"categories_segments":[],"categories_sizes":[],"default_left":[0,0,0,0,0,0,0],"id":7,"left_children":[1,-1,3,-1,5,-1,-1],"loss_changes":[6.002537E2,0E0,2.8004486E1,0E0,4.081253E0,0E0,0E0],"parents":[2147483647,0,0,2,2,4,4],"right_children":[2,-1,4,-1,6,-1,-1],"split_conditions":[2.0966399E0,7.977508E-3,-1.489953E0,-1.0431632E-3,-2.374608E0,-2.928235E-3,-4.005364E-3],"split_indices":[6,0,8,0,0,0,0],"split_type":[0,0,0,0,0,0,0],"sum_hessian":[2.5623E4,6.363E3,1.926E4,6.485E3,1.2775E4,6.418E3,6.357E3],"tree_param":{"num_deleted":"0","num_feature":"13","num_nodes":"7","size_leaf_vector":"1"}},{"base_weights":[-5.7095446E-4,7.7382238E-3,-8.5758336E-2,-1.0118712E-3,-1.1202059E-1,-2.8404035E-3,-3.885224E-3],"categories":[],"categories_nodes":[],"categories_segments":[],"categories_sizes":[],"default_left":[0,0,0,0,0,0,0],"id":8,"left_children":[1,-1,3,-1,5,-1,-1],"loss_changes":[5.6411884E2,0E0,2.630957E1,0E0,3.84758E0,0E0,0E0],"parents":[2147483647,0,0,2,2,4,4],"right_children":[2,-1,4,-1,6,-1,-1],"split_conditions":[2.0966399E0,7.7382238E-3,-4.882151E1,-1.0118712E-3,-2.374608E0,-2.8404035E-3,-3.885224E-3],"split_indices":[6,0,9,0,0,0,0],"split_type":[0,0,0,0,0,0,0],"sum_hessian":[2.5615E4,6.348E3,1.9267E4,6.465E3,1.2802E4,6.434E3,6.368E3],"tree_param":{"num_deleted":"0","num_feature":"13","num_nodes":"7","size_leaf_vector":"1"}},{"base_weights":[2.5963952E-4,7.506124E-3,-8.317597E-2,-9.815186E-4,-1.0876765E-1,-2.755194E-3,-3.768686E-3],"categories":[],"categories_nodes":[],"categories_segments":[],"categories_sizes":[],"default_left":[0,0,0,0,0,0,0],"id":9,"left_children":[1,-1,3,-1,5,-1,-1],"loss_changes":[5.3353156E2,0E0,2.4749863E1,0E0,3.5971527E0,0E0,0E0],"parents":[2147483647,0,0,2,2,4,4],"right_children":[2,-1,4,-1,6,-1,-1],"split_conditions":[2.0966399E0,7.506124E-3,-1.489953E0,-9.815186E-4,-2.374608E0,-2.755194E-3,-3.768686E-3],"split_indices":[6,0,8,0,0,0,0],"split_type":[0,0,0,0,0,0,0],"sum_hessian":[2.5581E4,6.402E3,1.9179E4,6.456E3,1.2723E4,6.354E3,6.369E3],"tree_param":{"num_deleted":"0","num_feature":"13","num_nodes":"7","size_leaf_vector":"1"}},{"base_weights":[-5.768937E-4,7.2809597E-3,-8.091251E-2,-9.520704E-4,-1.05450235E-1,-2.672558E-3,-3.6556448E-3],"categories":[],"categories_nodes":[],"categories_segments":[],"categories_sizes":[],"default_left":[0,0,0,0,0,0,0],"id":10,"left_children":[1,-1,3,-1,5,-1,-1],"loss_changes":[4.9834808E2,0E0,2.3115143E1,0E0,3.4008636E0,0E0,0E0],"parents":[2147483647,0,0,2,2,4,4],"right_children":[2,-1,4,-1,6,-1,-1],"split_conditions":[2.0966399E0,7.2809597E-3,-1.489953E0,-9.520704E-4,-4.118316E0,-2.672558E-3,-3.6556448E-3],"split_indices":[6,0,8,0,5,0,0],"split_type":[0,0,0,0,0,0,0],"sum_hessian":[2.5498E4,6.329E3,1.9169E4,6.383E3,1.2786E4,6.407E3,6.379E3],"tree_param":{"num_deleted":"0","num_feature":"13","num_nodes":"7","size_leaf_vector":"1"}},{"base_weights":[-1.1073967E-5,7.062574E-3,-7.863707E-2,-9.2350674E-4,-1.02343425E-1,-2.5923888E-3,-3.5459935E-3],"categories":[],"categories_nodes":[],"categories_segments":[],"categories_sizes":[],"default_left":[0,0,0,0,0,0,0],"id":11,"left_children":[1,-1,3,-1,5,-1,-1],"loss_changes":[4.7092102E2,0E0,2.161943E1,0E0,3.1904755E0,0E0,0E0],"parents":[2147483647,0,0,2,2,4,4],"right_children":[2,-1,4,-1,6,-1,-1],"split_conditions":[2.0966399E0,7.062574E-3,-4.882151E1,-9.2350674E-4,-4.118316E0,-2.5923888E-3,-3.5459935E-3],"split_indices":[6,0,9,0,5,0,0],"split_type":[0,0,0,0,0,0,0],"sum_hessian":[2.5439E4,6.368E3,1.9071E4,6.32E3,1.2751E4,6.367E3,6.384E3],"tree_param":{"num_deleted":"0","num_feature":"13","num_nodes":"7","size_leaf_vector":"1"}},{"base_weights":[-4.084888E-4,6.850733E-3,-7.628464E-2,-8.9581154E-4,-9.929537E-2,-2.5146352E-3,-3.4396404E-3],"categories":[],"categories_nodes":[],"categories_segments":[],"categories_sizes":[],"default_left":[0,0,0,0,0,0,0],"id":12,"left_children":[1,-1,3,-1,5,-1,-1],"loss_changes":[4.4471173E2,0E0,2.0537361E1,0E0,3.0274887E0,0E0,0E0],"parents":[2147483647,0,0,2,2,4,4],"right_children":[2,-1,4,-1,6,-1,-1],"split_conditions":[2.0966399E0,6.850733E-3,-1.489953E0,-8.9581154E-4,2.1714451E0,-2.5146352E-3,-3.4396404E-3],"split_indices":[6,0,8,0,6,0,0],"split_type":[0,0,0,0,0,0,0],"sum_hessian":[2.5619E4,6.38E3,1.9239E4,6.378E3,1.2861E4,6.413E3,6.448E3],"tree_param":{"num_deleted":"0","num_feature":"13","num_nodes":"7","size_leaf_vector":"1"}},{"base_weights":[-5.028184E-4,6.6452385E-3,-7.4014835E-2,-8.689385E-4,-9.619405E-2,-2.4392158E-3,-3.33646E-3],"categories":[],"categories_nodes":[],"categories_segments":[],"categories_sizes":[],"default_left":[0,0,0,0,0,0,0],"id":13,"left_children":[1,-1,3,-1,5,-1,-1],"loss_changes":[4.17479E2,0E0,1.9186905E1,0E0,2.851036E0,0E0,0E0],"parents":[2147483647,0,0,2,2,4,4],"right_children":[2,-1,4,-1,6,-1,-1],"split_conditions":[2.0966399E0,6.6452385E-3,-1.489953E0,-8.689385E-4,-2.374608E0,-2.4392158E-3,-3.33646E-3],"split_indices":[6,0,8,0,0,0,0],"split_type":[0,0,0,0,0,0,0],"sum_hessian":[2.5579E4,6.362E3,1.9217E4,6.342E3,1.2875E4,6.473E3,6.402E3],"tree_param":{"num_deleted":"0","num_feature":"13","num_nodes":"7","size_leaf_vector":"1"}},{"base_weights":[-3.4248186E-4,6.4459112E-3,-7.1773715E-2,-8.427781E-4,-8.968421E-2,-7.328819E-2,-3.236391E-3,-6.3541785E-2,-2.3656862E-3,-2.363997E-3,-8.38734E-4],"categories":[],"categories_nodes":[],"categories_segments":[],"categories_sizes":[],"default_left":[0,0,0,0,0,0,0,0,0,0,0],"id":14,"left_children":[1,-1,3,-1,5,7,-1,9,-1,-1,-1],"loss_changes":[3.9405832E2,0E0,1.5043594E1,0E0,4.045639E0,3.706665E-1,0E0,1.411808E0,0E0,0E0,0E0],"parents":[2147483647,0,0,2,2,4,4,5,5,7,7],"right_children":[2,-1,4,-1,6,8,-1,10,-1,-1,-1],"split_conditions":[2.0966399E0,6.4459112E-3,-4.184486E0,-8.427781E-4,-2.374608E0,-4.1814494E0,-3.236391E-3,-4.181866E0,-2.3656862E-3,-2.363997E-3,-8.38734E-4],"split_indices":[6,0,5,0,0,5,0,5,0,0,0],"split_type":[0,0,0,0,0,0,0,0,0,0,0],"sum_hessian":[2.5633E4,6.387E3,1.9246E4,5.599E3,1.3647E4,7.184E3,6.463E3,2.623E3,4.561E3,1.833E3,7.9E2],"tree_param":{"num_deleted":"0","num_feature":"13","num_nodes":"11","size_leaf_vector":"1"}},{"base_weights":[1.05867366E-4,6.2525724E-3,-6.953657E-2,-8.1761397E-4,-9.061022E-2,-2.2950945E-3,-3.1393068E-3],"categories":[],"categories_nodes":[],"categories_segments":[],"categories_sizes":[],"default_left":[0,0,0,0,0,0,0],"id":15,"left_children":[1,-1,3,-1,5,-1,-1],"loss_changes":[3.7143338E2,0E0,1.7082367E1,0E0,2.508484E0,0E0,0E0],"parents":[2147483647,0,0,2,2,4,4],"right_children":[2,-1,4,-1,6,-1,-1],"split_conditions":[2.0966399E0,6.2525724E-3,-1.489953E0,-8.1761397E-4,-2.374608E0,-2.2950945E-3,-3.1393068E-3],"split_indices":[6,0,8,0,0,0,0],"split_type":[0,0,0,0,0,0,0],"sum_hessian":[2.56E4,6.414E3,1.9186E4,6.384E3,1.2802E4,6.391E3,6.411E3],"tree_param":{"num_deleted":"0","num_feature":"13","num_nodes":"7","size_leaf_vector":"1"}},{"base_weights":[-8.9871675E-5,6.065024E-3,-6.733527E-2,-7.930949E-4,-8.7952435E-2,-2.226248E-3,-3.0451443E-3],"categories":[],"categories_nodes":[],"categories_segments":[],"categories_sizes":[],"default_left":[0,0,0,0,0,0,0],"id":16,"left_children":[1,-1,3,-1,5,-1,-1],"loss_changes":[3.4826413E2,0E0,1.6191185E1,0E0,2.3544388E0,0E0,0E0],"parents":[2147483647,0,0,2,2,4,4],"right_children":[2,-1,4,-1,6,-1,-1],"split_conditions":[2.0966399E0,6.065024E-3,-1.489953E0,-7.930949E-4,-2.374608E0,-2.226248E-3,-3.0451443E-3],"split_indices":[6,0,8,0,0,0,0],"split_type":[0,0,0,0,0,0,0],"sum_hessian":[2.5605E4,6.388E3,1.9217E4,6.443E3,1.2774E4,6.349E3,6.425E3],"tree_param":{"num_deleted":"0","num_feature":"13","num_nodes":"7","size_leaf_vector":"1"}},{"base_weights":[-2.7647588E-4,5.883092E-3,-6.538265E-2,-7.693016E-4,-8.5312545E-2,-2.1594695E-3,-2.9538022E-3],"categories":[],"categories_nodes":[],"categories_segments":[],"categories_sizes":[],"default_left":[0,0,0,0,0,0,0],"id":17,"left_children":[1,-1,3,-1,5,-1,-1],"loss_changes":[3.2603055E2,0E0,1.5155083E1,0E0,2.2109528E0,0E0,0E0],"parents":[2147483647,0,0,2,2,4,4],"right_children":[2,-1,4,-1,6,-1,-1],"split_conditions":[2.0966399E0,5.883092E-3,-1.489953E0,-7.693016E-4,-2.374608E0,-2.1594695E-3,-2.9538022E-3],"split_indices":[6,0,8,0,0,0,0],"split_type":[0,0,0,0,0,0,0],"sum_hessian":[2.5499E4,6.348E3,1.9151E4,6.399E3,1.2752E4,6.339E3,6.413E3],"tree_param":{"num_deleted":"0","num_feature":"13","num_nodes":"7","size_leaf_vector":"1"}},{"base_weights":[2.864415E-4,5.7066525E-3,-6.3371815E-2,-7.4623094E-4,-8.275353E-2,-2.0946993E-3,-2.8652062E-3],"categories":[],"categories_nodes":[],"categories_segments":[],"categories_sizes":[],"default_left":[0,0,0,0,0,0,0],"id":18,"left_children":[1,-1,3,-1,5,-1,-1],"loss_changes":[3.11004E2,0E0,1.4360947E1,0E0,2.0893784E0,0E0,0E0],"parents":[2147483647,0,0,2,2,4,4],"right_children":[2,-1,4,-1,6,-1,-1],"split_conditions":[2.0966399E0,5.7066525E-3,-4.882151E1,-7.4623094E-4,-2.374608E0,-2.0946993E-3,-2.8652062E-3],"split_indices":[6,0,9,0,0,0,0],"split_type":[0,0,0,0,0,0,0],"sum_hessian":[2.5719E4,6.456E3,1.9263E4,6.453E3,1.281E4,6.368E3,6.442E3],"tree_param":{"num_deleted":"0","num_feature":"13","num_nodes":"7","size_leaf_vector":"1"}},{"base_weights":[-7.654281E-4,5.5354484E-3,-6.1616812E-2,-7.238409E-4,-8.0172576E-2,-2.0318786E-3,-2.7792612E-3],"categories":[],"categories_nodes":[],"categories_segments":[],"categories_sizes":[],"default_left":[0,0,0,0,0,0,0],"id":19,"left_children":[1,-1,3,-1,5,-1,-1],"loss_changes":[2.884476E2,0E0,1.3385536E1,0E0,1.9763107E0,0E0,0E0],"parents":[2147483647,0,0,2,2,4,4],"right_children":[2,-1,4,-1,6,-1,-1],"split_conditions":[-1.4923838E0,5.5354484E-3,-1.489953E0,-7.238409E-4,-4.118316E0,-2.0318786E-3,-2.7792612E-3],"split_indices":[8,0,8,0,5,0,0],"split_type":[0,0,0,0,0,0,0],"sum_hessian":[2.5583E4,6.324E3,1.9259E4,6.379E3,1.288E4,6.454E3,6.426E3],"tree_param":{"num_deleted":"0","num_feature":"13","num_nodes":"7","size_leaf_vector":"1"}},{"base_weights":[-6.2935293E-4,5.3694085E-3,-5.985236E-2,-7.021268E-4,-7.786387E-2,-1.970923E-3,-2.6959006E-3],"categories":[],"categories_nodes":[],"categories_segments":[],"categories_sizes":[],"default_left":[0,0,0,0,0,0,0],"id":20,"left_children":[1,-1,3,-1,5,-1,-1],"loss_changes":[2.714131E2,0E0,1.2586021E1,0E0,1.8532028E0,0E0,0E0],"parents":[2147483647,0,0,2,2,4,4],"right_children":[2,-1,4,-1,6,-1,-1],"split_conditions":[2.0966399E0,5.3694085E-3,-4.882151E1,-7.021268E-4,-2.374608E0,-1.970923E-3,-2.6959006E-3],"split_indices":[6,0,9,0,0,0,0],"split_type":[0,0,0,0,0,0,0],"sum_hessian":[2.5515E4,6.326E3,1.9189E4,6.349E3,1.284E4,6.383E3,6.457E3],"tree_param":{"num_deleted":"0","num_feature":"13","num_nodes":"7","size_leaf_vector":"1"}},{"base_weights":[-6.944827E-5,5.208372E-3,-5.7818078E-2,-6.810736E-4,-7.544997E-2,-1.9118077E-3,-2.6150274E-3],"categories":[],"categories_nodes":[],"categories_segments":[],"categories_sizes":[],"default_left":[0,0,0,0,0,0,0],"id":21,"left_children":[1,-1,3,-1,5,-1,-1],"loss_changes":[2.5701434E2,0E0,1.1896057E1,0E0,1.7377853E0,0E0,0E0],"parents":[2147483647,0,0,2,2,4,4],"right_children":[2,-1,4,-1,6,-1,-1],"split_conditions":[2.0966399E0,5.208372E-3,-1.489953E0,-6.810736E-4,-4.118316E0,-1.9118077E-3,-2.6150274E-3],"split_indices":[6,0,8,0,5,0,0],"split_type":[0,0,0,0,0,0,0],"sum_hessian":[2.5624E4,6.393E3,1.9231E4,6.431E3,1.28E4,6.406E3,6.394E3],"tree_param":{"num_deleted":"0","num_feature":"13","num_nodes":"7","size_leaf_vector":"1"}},{"base_weights":[-1.961701E-4,5.052142E-3,-5.613028E-2,-6.606452E-4,-7.321902E-2,-1.8544621E-3,-2.5365932E-3],"categories":[],"categories_nodes":[],"categories_segments":[],"categories_sizes":[],"default_left":[0,0,0,0,0,0,0],"id":22,"left_children":[1,-1,3,-1,5,-1,-1],"loss_changes":[2.4187276E2,0E0,1.1215065E1,0E0,1.6382675E0,0E0,0E0],"parents":[2147483647,0,0,2,2,4,4],"right_children":[2,-1,4,-1,6,-1,-1],"split_conditions":[-1.4923838E0,5.052142E-3,-1.489953E0,-6.606452E-4,-4.118316E0,-1.8544621E-3,-2.5365932E-3],"split_indices":[8,0,8,0,5,0,0],"split_type":[0,0,0,0,0,0,0],"sum_hessian":[2.5647E4,6.388E3,1.9259E4,6.431E3,1.2828E4,6.402E3,6.426E3],"tree_param":{"num_deleted":"0","num_feature":"13","num_nodes":"7","size_leaf_vector":"1"}},{"base_weights":[-1.541351E-4,4.9006008E-3,-5.442975E-2,-6.408274E-4,-7.0976615E-2,-1.7988402E-3,-2.4605037E-3],"categories":[],"categories_nodes":[],"categories_segments":[],"categories_sizes":[],"default_left":[0,0,0,0,0,0,0],"id":23,"left_children":[1,-1,3,-1,5,-1,-1],"loss_changes":[2.276193E2,0E0,1.0526955E1,0E0,1.5415115E0,0E0,0E0],"parents":[2147483647,0,0,2,2,4,4],"right_children":[2,-1,4,-1,6,-1,-1],"split_conditions":[2.0966399E0,4.9006008E-3,-1.489953E0,-6.408274E-4,-2.374608E0,-1.7988402E-3,-2.4605037E-3],"split_indices":[6,0,8,0,0,0,0],"split_type":[0,0,0,0,0,0,0],"sum_hessian":[2.5648E4,6.391E3,1.9257E4,6.425E3,1.2832E4,6.431E3,6.401E3],"tree_param":{"num_deleted":"0","num_feature":"13","num_nodes":"7","size_leaf_vector":"1"}},{"base_weights":[-4.5791217E-5,4.753613E-3,-5.293086E-2,-6.216025E-4,-6.894286E-2,-1.7448774E-3,-2.3867087E-3],"categories":[],"categories_nodes":[],"categories_segments":[],"categories_sizes":[],"default_left":[0,0,0,0,0,0,0],"id":24,"left_children":[1,-1,3,-1,5,-1,-1],"loss_changes":[2.1503632E2,0E0,9.911259E0,0E0,1.4515915E0,0E0,0E0],"parents":[2147483647,0,0,2,2,4,4],"right_children":[2,-1,4,-1,6,-1,-1],"split_conditions":[2.0966399E0,4.753613E-3,-1.489953E0,-6.216025E-4,-2.374608E0,-1.7448774E-3,-2.3867087E-3],"split_indices":[6,0,8,0,0,0,0],"split_type":[0,0,0,0,0,0,0],"sum_hessian":[2.5653E4,6.417E3,1.9236E4,6.39E3,1.2846E4,6.381E3,6.465E3],"tree_param":{"num_deleted":"0","num_feature":"13","num_nodes":"7","size_leaf_vector":"1"}},{"base_weights":[1.628232E-4,4.611025E-3,-5.1174123E-2,-6.0296064E-4,-6.6794984E-2,-1.6925404E-3,-2.3151063E-3],"categories":[],"categories_nodes":[],"categories_segments":[],"categories_sizes":[],"default_left":[0,0,0,0,0,0,0],"id":25,"left_children":[1,-1,3,-1,5,-1,-1],"loss_changes":[2.016914E2,0E0,9.297993E0,0E0,1.3558617E0,0E0,0E0],"parents":[2147483647,0,0,2,2,4,4],"right_children":[2,-1,4,-1,6,-1,-1],"split_conditions":[2.0966399E0,4.611025E-3,-4.882151E1,-6.0296064E-4,-2.374608E0,-1.6925404E-3,-2.3151063E-3],"split_indices":[6,0,9,0,0,0,0],"split_type":[0,0,0,0,0,0,0],"sum_hessian":[2.5585E4,6.411E3,1.9174E4,6.417E3,1.2757E4,6.386E3,6.371E3],"tree_param":{"num_deleted":"0","num_feature":"13","num_nodes":"7","size_leaf_vector":"1"}},{"base_weights":[-1.5965523E-4,4.472705E-3,-4.9720287E-2,-5.848706E-4,-6.4794905E-2,-1.6417736E-3,-2.2456667E-3],"categories":[],"categories_nodes":[],"categories_segments":[],"categories_sizes":[],"default_left":[0,0,0,0,0,0,0],"id":26,"left_children":[1,-1,3,-1,5,-1,-1],"loss_changes":[1.8898866E2,0E0,8.730091E0,0E0,1.2792053E0,0E0,0E0],"parents":[2147483647,0,0,2,2,4,4],"right_children":[2,-1,4,-1,6,-1,-1],"split_conditions":[2.0966399E0,4.472705E-3,-1.489953E0,-5.848706E-4,-2.374608E0,-1.6417736E-3,-2.2456667E-3],"split_indices":[6,0,8,0,0,0,0],"split_type":[0,0,0,0,0,0,0],"sum_hessian":[2.5549E4,6.368E3,1.9181E4,6.386E3,1.2795E4,6.403E3,6.392E3],"tree_param":{"num_deleted":"0","num_feature":"13","num_nodes":"7","size_leaf_vector":"1"}},{"base_weights":[-1.9531173E-4,4.3385536E-3,-4.8095513E-2,-5.673343E-4,-6.281874E-2,-1.5925297E-3,-2.1783041E-3],"categories":[],"categories_nodes":[],"categories_segments":[],"categories_sizes":[],"default_left":[0,0,0,0,0,0,0],"id":27,"left_children":[1,-1,3,-1,5,-1,-1],"loss_changes":[1.7763692E2,0E0,8.2599945E0,0E0,1.2025414E0,0E0,0E0],"parents":[2147483647,0,0,2,2,4,4],"right_children":[2,-1,4,-1,6,-1,-1],"split_conditions":[2.0966399E0,4.3385536E-3,-1.489953E0,-5.673343E-4,-2.374608E0,-1.5925297E-3,-2.1783041E-3],"split_indices":[6,0,8,0,0,0,0],"split_type":[0,0,0,0,0,0,0],"sum_hessian":[2.5608E4,6.364E3,1.9244E4,6.456E3,1.2788E4,6.421E3,6.367E3],"tree_param":{"num_deleted":"0","num_feature":"13","num_nodes":"7","size_leaf_vector":"1"}},{"base_weights":[5.14155E-4,4.2084246E-3,-4.6741918E-2,-5.503099E-4,-6.099104E-2,-1.5447519E-3,-2.1129635E-3],"categories":[],"categories_nodes":[],"categories_segments":[],"categories_sizes":[],"default_left":[0,0,0,0,0,0,0],"id":28,"left_children":[1,-1,3,-1,5,-1,-1],"loss_changes":[1.684125E2,0E0,7.7011566E0,0E0,1.1218147E0,0E0,0E0],"parents":[2147483647,0,0,2,2,4,4],"right_children":[2,-1,4,-1,6,-1,-1],"split_conditions":[2.0966399E0,4.2084246E-3,-1.489953E0,-5.503099E-4,-2.374608E0,-1.5447519E-3,-2.1129635E-3],"split_indices":[6,0,8,0,0,0,0],"split_type":[0,0,0,0,0,0,0],"sum_hessian":[2.5495E4,6.442E3,1.9053E4,6.369E3,1.2684E4,6.331E3,6.353E3],"tree_param":{"num_deleted":"0","num_feature":"13","num_nodes":"7","size_leaf_vector":"1"}},{"base_weights":[1.2684637E-4,4.082118E-3,-4.4621006E-2,-1.5989454E-2,-5.9130203E-2,-5.338061E-4,3.9959135E-3,-1.4984246E-3,-2.049589E-3],"categories":[],"categories_nodes":[],"categories_segments":[],"categories_sizes":[],"default_left":[0,0,0,0,0,0,0,0,0],"id":29,"left_children":[1,-1,3,5,7,-1,-1,-1,-1],"loss_changes":[1.5595175E2,0E0,8.003349E0,1.7375787E0,1.0646172E0,0E0,0E0,0E0,0E0],"parents":[2147483647,0,0,2,2,3,3,4,4],"right_children":[2,-1,4,6,8,-1,-1,-1,-1],"split_conditions":[-4.1901574E0,4.082118E-3,-4.877044E1,-4.882151E1,-2.374608E0,-5.338061E-4,3.9959135E-3,-1.4984246E-3,-2.049589E-3],"split_indices":[5,0,9,9,0,0,0,0,0],"split_type":[0,0,0,0,0,0,0,0,0],"sum_hessian":[2.5633E4,6.348E3,1.9285E4,6.489E3,1.2796E4,6.413E3,7.6E1,6.409E3,6.387E3],"tree_param":{"num_deleted":"0","num_feature":"13","num_nodes":"9","size_leaf_vector":"1"}},{"base_weights":[-2.8796107E-4,3.959754E-3,-4.390765E-2,-5.1779725E-4,-5.738467E-2,-1.4534727E-3,-1.9881087E-3],"categories":[],"categories_nodes":[],"categories_segments":[],"categories_sizes":[],"default_left":[0,0,0,0,0,0,0],"id":30,"left_children":[1,-1,3,-1,5,-1,-1],"loss_changes":[1.4696472E2,0E0,6.8710823E0,0E0,9.9518204E-1,0E0,0E0],"parents":[2147483647,0,0,2,2,4,4],"right_children":[2,-1,4,-1,6,-1,-1],"split_conditions":[2.0966399E0,3.959754E-3,-1.489953E0,-5.1779725E-4,-4.118316E0,-1.4534727E-3,-1.9881087E-3],"split_indices":[6,0,8,0,5,0,0],"split_type":[0,0,0,0,0,0,0],"sum_hessian":[2.547E4,6.315E3,1.9155E4,6.437E3,1.2718E4,6.35E3,6.368E3],"tree_param":{"num_deleted":"0","num_feature":"13","num_nodes":"7","size_leaf_vector":"1"}},{"base_weights":[-1.7890525E-4,3.8409953E-3,-4.261922E-2,-5.0226564E-4,-5.5620402E-2,-1.4098828E-3,-1.9284756E-3],"categories":[],"categories_nodes":[],"categories_segments":[],"categories_sizes":[],"default_left":[0,0,0,0,0,0,0],"id":31,"left_children":[1,-1,3,-1,5,-1,-1],"loss_changes":[1.3926855E2,0E0,6.4617577E0,0E0,9.4184875E-1,0E0,0E0],"parents":[2147483647,0,0,2,2,4,4],"right_children":[2,-1,4,-1,6,-1,-1],"split_conditions":[2.0966399E0,3.8409953E-3,-1.489953E0,-5.0226564E-4,-2.374608E0,-1.4098828E-3,-1.9284756E-3],"split_indices":[6,0,8,0,0,0,0],"split_type":[0,0,0,0,0,0,0],"sum_hessian":[2.5594E4,6.364E3,1.923E4,6.434E3,1.2796E4,6.421E3,6.375E3],"tree_param":{"num_deleted":"0","num_feature":"13","num_nodes":"7","size_leaf_vector":"1"}},{"base_weights":[2.666508E-4,3.7257895E-3,-4.136566E-2,-4.8719672E-4,-5.4043125E-2,-1.3675805E-3,-1.8706324E-3],"categories":[],"categories_nodes":[],"categories_segments":[],"categories_sizes":[],"default_left":[0,0,0,0,0,0,0],"id":32,"left_children":[1,-1,3,-1,5,-1,-1],"loss_changes":[1.3165398E2,0E0,6.0757217E0,0E0,8.784065E-1,0E0,0E0],"parents":[2147483647,0,0,2,2,4,4],"right_children":[2,-1,4,-1,6,-1,-1],"split_conditions":[2.0966399E0,3.7257895E-3,-1.489953E0,-4.8719672E-4,-2.374608E0,-1.3675805E-3,-1.8706324E-3],"split_indices":[6,0,8,0,0,0,0],"split_type":[0,0,0,0,0,0,0],"sum_hessian":[2.5514E4,6.416E3,1.9098E4,6.408E3,1.269E4,6.299E3,6.391E3],"tree_param":{"num_deleted":"0","num_feature":"13","num_nodes":"7","size_leaf_vector":"1"}},{"base_weights":[-2.2297598E-4,3.6140129E-3,-4.017099E-2,-4.725818E-4,-5.2357722E-2,-1.3265696E-3,-1.8145225E-3],"categories":[],"categories_nodes":[],"categories_segments":[],"categories_sizes":[],"default_left":[0,0,0,0,0,0,0],"id":33,"left_children":[1,-1,3,-1,5,-1,-1],"loss_changes":[1.23133545E2,0E0,5.7029057E0,0E0,8.332939E-1,0E0,0E0],"parents":[2147483647,0,0,2,2,4,4],"right_children":[2,-1,4,-1,6,-1,-1],"split_conditions":[2.0966399E0,3.6140129E-3,-1.489953E0,-4.725818E-4,-2.374608E0,-1.3265696E-3,-1.8145225E-3],"split_indices":[6,0,8,0,0,0,0],"split_type":[0,0,0,0,0,0,0],"sum_hessian":[2.5539E4,6.35E3,1.9189E4,6.392E3,1.2797E4,6.403E3,6.394E3],"tree_param":{"num_deleted":"0","num_feature":"13","num_nodes":"7","size_leaf_vector":"1"}},{"base_weights":[-2.0423293E-4,3.5056109E-3,-3.896638E-2,-4.584056E-4,-5.0750542E-2,-1.2867835E-3,-1.7600926E-3],"categories":[],"categories_nodes":[],"categories_segments":[],"categories_sizes":[],"default_left":[0,0,0,0,0,0,0],"id":34,"left_children":[1,-1,3,-1,5,-1,-1],"loss_changes":[1.1586424E2,0E0,5.347578E0,0E0,7.843323E-1,0E0,0E0],"parents":[2147483647,0,0,2,2,4,4],"right_children":[2,-1,4,-1,6,-1,-1],"split_conditions":[2.0966399E0,3.5056109E-3,-1.489953E0,-4.584056E-4,-2.374608E0,-1.2867835E-3,-1.7600926E-3],"split_indices":[6,0,8,0,0,0,0],"split_type":[0,0,0,0,0,0,0],"sum_hessian":[2.5535E4,6.351E3,1.9184E4,6.377E3,1.2807E4,6.438E3,6.369E3],"tree_param":{"num_deleted":"0","num_feature":"13","num_nodes":"7","size_leaf_vector":"1"}},{"base_weights":[-8.479806E-5,3.4004787E-3,-3.7865963E-2,-4.4465568E-4,-4.928227E-2,-1.2481837E-3,-1.7073059E-3],"categories":[],"categories_nodes":[],"categories_segments":[],"categories_sizes":[],"default_left":[0,0,0,0,0,0,0],"id":35,"left_children":[1,-1,3,-1,5,-1,-1],"loss_changes":[1.09834236E2,0E0,5.051077E0,0E0,7.404194E-1,0E0,0E0],"parents":[2147483647,0,0,2,2,4,4],"right_children":[2,-1,4,-1,6,-1,-1],"split_conditions":[2.0966399E0,3.4004787E-3,-1.489953E0,-4.4465568E-4,-2.374608E0,-1.2481837E-3,-1.7073059E-3],"split_indices":[6,0,8,0,0,0,0],"split_type":[0,0,0,0,0,0,0],"sum_hessian":[2.5628E4,6.402E3,1.9226E4,6.373E3,1.2853E4,6.416E3,6.437E3],"tree_param":{"num_deleted":"0","num_feature":"13","num_nodes":"7","size_leaf_vector":"1"}},{"base_weights":[2.7141653E-4,3.298486E-3,-3.6626086E-2,-4.313219E-4,-4.781475E-2,-1.2107373E-3,-1.6560898E-3],"categories":[],"categories_nodes":[],"categories_segments":[],"categories_sizes":[],"default_left":[0,0,0,0,0,0,0],"id":36,"left_children":[1,-1,3,-1,5,-1,-1],"loss_changes":[1.0367138E2,0E0,4.764393E0,0E0,6.9065094E-1,0E0,0E0],"parents":[2147483647,0,0,2,2,4,4],"right_children":[2,-1,4,-1,6,-1,-1],"split_conditions":[2.0966399E0,3.298486E-3,-1.489953E0,-4.313219E-4,-2.374608E0,-1.2107373E-3,-1.6560898E-3],"split_indices":[6,0,8,0,0,0,0],"split_type":[0,0,0,0,0,0,0],"sum_hessian":[2.5614E4,6.448E3,1.9166E4,6.417E3,1.2749E4,6.355E3,6.394E3],"tree_param":{"num_deleted":"0","num_feature":"13","num_nodes":"7","size_leaf_vector":"1"}},{"base_weights":[2.460006E-4,3.1995473E-3,-3.5660617E-2,-4.1837918E-4,-4.6397507E-2,-1.1744244E-3,-1.606422E-3],"categories":[],"categories_nodes":[],"categories_segments":[],"categories_sizes":[],"default_left":[0,0,0,0,0,0,0],"id":37,"left_children":[1,-1,3,-1,5,-1,-1],"loss_changes":[9.813703E1,0E0,4.470455E0,0E0,6.545296E-1,0E0,0E0],"parents":[2147483647,0,0,2,2,4,4],"right_children":[2,-1,4,-1,6,-1,-1],"split_conditions":[-1.4923838E0,3.1995473E-3,-1.489953E0,-4.1837918E-4,-2.374608E0,-1.1744244E-3,-1.606422E-3],"split_indices":[8,0,8,0,0,0,0],"split_type":[0,0,0,0,0,0,0],"sum_hessian":[2.5682E4,6.48E3,1.9202E4,6.357E3,1.2845E4,6.388E3,6.457E3],"tree_param":{"num_deleted":"0","num_feature":"13","num_nodes":"7","size_leaf_vector":"1"}},{"base_weights":[-2.9276486E-4,3.1035573E-3,-3.4502156E-2,-4.058341E-4,-4.4985384E-2,-1.1391988E-3,-1.5582336E-3],"categories":[],"categories_nodes":[],"categories_segments":[],"categories_sizes":[],"default_left":[0,0,0,0,0,0,0],"id":38,"left_children":[1,-1,3,-1,5,-1,-1],"loss_changes":[9.081312E1,0E0,4.225111E0,0E0,6.1471367E-1,0E0,0E0],"parents":[2147483647,0,0,2,2,4,4],"right_children":[2,-1,4,-1,6,-1,-1],"split_conditions":[2.0966399E0,3.1035573E-3,-1.489953E0,-4.058341E-4,-2.374608E0,-1.1391988E-3,-1.5582336E-3],"split_indices":[6,0,8,0,0,0,0],"split_type":[0,0,0,0,0,0,0],"sum_hessian":[2.5588E4,6.344E3,1.9244E4,6.417E3,1.2827E4,6.398E3,6.429E3],"tree_param":{"num_deleted":"0","num_feature":"13","num_nodes":"7","size_leaf_vector":"1"}},{"base_weights":[-5.1993662E-5,3.0104758E-3,-3.347887E-2,-3.936566E-4,-4.3599214E-2,-1.1050298E-3,-1.5114885E-3],"categories":[],"categories_nodes":[],"categories_segments":[],"categories_sizes":[],"default_left":[0,0,0,0,0,0,0],"id":39,"left_children":[1,-1,3,-1,5,-1,-1],"loss_changes":[8.57282E1,0E0,3.9423294E0,0E0,5.7673645E-1,0E0,0E0],"parents":[2147483647,0,0,2,2,4,4],"right_children":[2,-1,4,-1,6,-1,-1],"split_conditions":[2.0966399E0,3.0104758E-3,-1.489953E0,-3.936566E-4,-2.374608E0,-1.1050298E-3,-1.5114885E-3],"split_indices":[6,0,8,0,0,0,0],"split_type":[0,0,0,0,0,0,0],"sum_hessian":[2.5544E4,6.379E3,1.9165E4,6.368E3,1.2797E4,6.418E3,6.379E3],"tree_param":{"num_deleted":"0","num_feature":"13","num_nodes":"7","size_leaf_vector":"1"}},{"base_weights":[-1.2330975E-5,2.9201738E-3,-3.2407302E-2,-3.8185524E-4,-4.2297844E-2,-1.0718835E-3,-1.4661518E-3],"categories":[],"categories_nodes":[],"categories_segments":[],"categories_sizes":[],"default_left":[0,0,0,0,0,0,0],"id":40,"left_children":[1,-1,3,-1,5,-1,-1],"loss_changes":[8.086693E1,0E0,3.7391071E0,0E0,5.4258347E-1,0E0,0E0],"parents":[2147483647,0,0,2,2,4,4],"right_children":[2,-1,4,-1,6,-1,-1],"split_conditions":[2.0966399E0,2.9201738E-3,-1.489953E0,-3.8185524E-4,-2.374608E0,-1.0718835E-3,-1.4661518E-3],"split_indices":[6,0,8,0,0,0,0],"split_type":[0,0,0,0,0,0,0],"sum_hessian":[2.5642E4,6.401E3,1.9241E4,6.44E3,1.2801E4,6.414E3,6.387E3],"tree_param":{"num_deleted":"0","num_feature":"13","num_nodes":"7","size_leaf_vector":"1"}},{"base_weights":[-2.0006968E-4,2.8325804E-3,-3.1489063E-2,-3.7040308E-4,-4.1068573E-2,-1.0397317E-3,-1.422183E-3],"categories":[],"categories_nodes":[],"categories_segments":[],"categories_sizes":[],"default_left":[0,0,0,0,0,0,0],"id":41,"left_children":[1,-1,3,-1,5,-1,-1],"loss_changes":[7.620113E1,0E0,3.5415154E0,0E0,5.1381683E-1,0E0,0E0],"parents":[2147483647,0,0,2,2,4,4],"right_children":[2,-1,4,-1,6,-1,-1],"split_conditions":[-1.4923838E0,2.8325804E-3,-1.489953E0,-3.7040308E-4,-2.374608E0,-1.0397317E-3,-1.422183E-3],"split_indices":[8,0,8,0,0,0,0],"split_type":[0,0,0,0,0,0,0],"sum_hessian":[2.5739E4,6.395E3,1.9344E4,6.456E3,1.2888E4,6.418E3,6.47E3],"tree_param":{"num_deleted":"0","num_feature":"13","num_nodes":"7","size_leaf_vector":"1"}},{"base_weights":[1.6975329E-4,2.747619E-3,-3.0541437E-2,-3.592861E-4,-3.981527E-2,-1.00854E-3,-1.379514E-3],"categories":[],"categories_nodes":[],"categories_segments":[],"categories_sizes":[],"default_left":[0,0,0,0,0,0,0],"id":42,"left_children":[1,-1,3,-1,5,-1,-1],"loss_changes":[7.170791E1,0E0,3.2855625E0,0E0,4.7767258E-1,0E0,0E0],"parents":[2147483647,0,0,2,2,4,4],"right_children":[2,-1,4,-1,6,-1,-1],"split_conditions":[-1.4923838E0,2.747619E-3,-1.489953E0,-3.592861E-4,-2.374608E0,-1.00854E-3,-1.379514E-3],"split_indices":[8,0,8,0,0,0,0],"split_type":[0,0,0,0,0,0,0],"sum_hessian":[2.5537E4,6.422E3,1.9115E4,6.372E3,1.2743E4,6.368E3,6.375E3],"tree_param":{"num_deleted":"0","num_feature":"13","num_nodes":"7","size_leaf_vector":"1"}},{"base_weights":[-2.862375E-4,2.6651889E-3,-2.9604748E-2,-3.485145E-4,-3.8578015E-2,-9.782998E-4,-1.3381377E-3],"categories":[],"categories_nodes":[],"categories_segments":[],"categories_sizes":[],"default_left":[0,0,0,0,0,0,0],"id":43,"left_children":[1,-1,3,-1,5,-1,-1],"loss_changes":[6.706815E1,0E0,3.11228E0,0E0,4.541855E-1,0E0,0E0],"parents":[2147483647,0,0,2,2,4,4],"right_children":[2,-1,4,-1,6,-1,-1],"split_conditions":[2.0966399E0,2.6651889E-3,-1.489953E0,-3.485145E-4,-4.118316E0,-9.782998E-4,-1.3381377E-3],"split_indices":[6,0,8,0,5,0,0],"split_type":[0,0,0,0,0,0,0],"sum_hessian":[2.5667E4,6.352E3,1.9315E4,6.433E3,1.2882E4,6.484E3,6.398E3],"tree_param":{"num_deleted":"0","num_feature":"13","num_nodes":"7","size_leaf_vector":"1"}},{"base_weights":[-4.8763824E-5,2.5852644E-3,-2.8784892E-2,-3.3805333E-4,-3.7443537E-2,-9.4895036E-4,-1.2979988E-3],"categories":[],"categories_nodes":[],"categories_segments":[],"categories_sizes":[],"default_left":[0,0,0,0,0,0,0],"id":44,"left_children":[1,-1,3,-1,5,-1,-1],"loss_changes":[6.3273544E1,0E0,2.9000711E0,0E0,4.2483902E-1,0E0,0E0],"parents":[2147483647,0,0,2,2,4,4],"right_children":[2,-1,4,-1,6,-1,-1],"split_conditions":[2.0966399E0,2.5852644E-3,-4.882151E1,-3.3805333E-4,-2.374608E0,-9.4895036E-4,-1.2979988E-3],"split_indices":[6,0,9,0,0,0,0],"split_type":[0,0,0,0,0,0,0],"sum_hessian":[2.5537E4,6.382E3,1.9155E4,6.341E3,1.2814E4,6.425E3,6.389E3],"tree_param":{"num_deleted":"0","num_feature":"13","num_nodes":"7","size_leaf_vector":"1"}},{"base_weights":[-3.478465E-5,2.5077104E-3,-2.7878778E-2,-3.279194E-4,-3.635146E-2,-9.2048245E-4,-1.2590685E-3],"categories":[],"categories_nodes":[],"categories_segments":[],"categories_sizes":[],"default_left":[0,0,0,0,0,0,0],"id":45,"left_children":[1,-1,3,-1,5,-1,-1],"loss_changes":[5.966116E1,0E0,2.7555103E0,0E0,3.9946365E-1,0E0,0E0],"parents":[2147483647,0,0,2,2,4,4],"right_children":[2,-1,4,-1,6,-1,-1],"split_conditions":[2.0966399E0,2.5077104E-3,-1.489953E0,-3.279194E-4,-2.374608E0,-9.2048245E-4,-1.2590685E-3],"split_indices":[6,0,8,0,0,0,0],"split_type":[0,0,0,0,0,0,0],"sum_hessian":[2.5623E4,6.399E3,1.9224E4,6.412E3,1.2812E4,6.389E3,6.423E3],"tree_param":{"num_deleted":"0","num_feature":"13","num_nodes":"7","size_leaf_vector":"1"}},{"base_weights":[7.906287E-5,2.4324937E-3,-2.7011232E-2,-3.1808598E-4,-3.528449E-2,-8.928679E-4,-1.2213028E-3],"categories":[],"categories_nodes":[],"categories_segments":[],"categories_sizes":[],"default_left":[0,0,0,0,0,0,0],"id":46,"left_children":[1,-1,3,-1,5,-1,-1],"loss_changes":[5.628141E1,0E0,2.603757E0,0E0,3.743801E-1,0E0,0E0],"parents":[2147483647,0,0,2,2,4,4],"right_children":[2,-1,4,-1,6,-1,-1],"split_conditions":[-1.4923838E0,2.4324937E-3,-1.489953E0,-3.1808598E-4,-2.374608E0,-8.928679E-4,-1.2213028E-3],"split_indices":[8,0,8,0,0,0,0],"split_type":[0,0,0,0,0,0,0],"sum_hessian":[2.5643E4,6.427E3,1.9216E4,6.446E3,1.277E4,6.341E3,6.429E3],"tree_param":{"num_deleted":"0","num_feature":"13","num_nodes":"7","size_leaf_vector":"1"}},{"base_weights":[-2.913387E-4,2.3595227E-3,-2.6198868E-2,-3.0854627E-4,-3.419436E-2,-8.6609274E-4,-1.1846692E-3],"categories":[],"categories_nodes":[],"categories_segments":[],"categories_sizes":[],"default_left":[0,0,0,0,0,0,0],"id":47,"left_children":[1,-1,3,-1,5,-1,-1],"loss_changes":[5.2429474E1,0E0,2.4514456E0,0E0,3.5411835E-1,0E0,0E0],"parents":[2147483647,0,0,2,2,4,4],"right_children":[2,-1,4,-1,6,-1,-1],"split_conditions":[2.0966399E0,2.3595227E-3,-1.489953E0,-3.0854627E-4,-2.374608E0,-8.6609274E-4,-1.1846692E-3],"split_indices":[6,0,8,0,0,0,0],"split_type":[0,0,0,0,0,0,0],"sum_hessian":[2.5636E4,6.333E3,1.9303E4,6.46E3,1.2843E4,6.416E3,6.427E3],"tree_param":{"num_deleted":"0","num_feature":"13","num_nodes":"7","size_leaf_vector":"1"}},{"base_weights":[-1.0921943E-4,2.2887439E-3,-2.5451245E-2,-2.9928505E-4,-3.317535E-2,-8.401114E-4,-1.149133E-3],"categories":[],"categories_nodes":[],"categories_segments":[],"categories_sizes":[],"default_left":[0,0,0,0,0,0,0],"id":48,"left_children":[1,-1,3,-1,5,-1,-1],"loss_changes":[4.9463505E1,0E0,2.2887974E0,0E0,3.3166695E-1,0E0,0E0],"parents":[2147483647,0,0,2,2,4,4],"right_children":[2,-1,4,-1,6,-1,-1],"split_conditions":[-1.4923838E0,2.2887439E-3,-1.489953E0,-2.9928505E-4,-2.374608E0,-8.401114E-4,-1.149133E-3],"split_indices":[8,0,8,0,0,0,0],"split_type":[0,0,0,0,0,0,0],"sum_hessian":[2.5548E4,6.362E3,1.9186E4,6.393E3,1.2793E4,6.383E3,6.41E3],"tree_param":{"num_deleted":"0","num_feature":"13","num_nodes":"7","size_leaf_vector":"1"}},{"base_weights":[4.57606E-6,2.2201003E-3,-2.4705337E-2,-2.903058E-4,-3.215942E-2,-8.149153E-4,-1.1146627E-3],"categories":[],"categories_nodes":[],"categories_segments":[],"categories_sizes":[],"default_left":[0,0,0,0,0,0,0],"id":49,"left_children":[1,-1,3,-1,5,-1,-1],"loss_changes":[4.6789017E1,0E0,2.1441174E0,0E0,3.124199E-1,0E0,0E0],"parents":[2147483647,0,0,2,2,4,4],"right_children":[2,-1,4,-1,6,-1,-1],"split_conditions":[2.0966399E0,2.2201003E-3,-1.489953E0,-2.903058E-4,2.1714451E0,-8.149153E-4,-1.1146627E-3],"split_indices":[6,0,8,0,6,0,0],"split_type":[0,0,0,0,0,0,0],"sum_hessian":[2.5584E4,6.405E3,1.9179E4,6.364E3,1.2815E4,6.421E3,6.394E3],"tree_param":{"num_deleted":"0","num_feature":"13","num_nodes":"7","size_leaf_vector":"1"}},{"base_weights":[-1.0764604E-5,2.153507E-3,-2.3977336E-2,-2.8159836E-4,-3.1218091E-2,-7.904693E-4,-1.0812316E-3],"categories":[],"categories_nodes":[],"categories_segments":[],"categories_sizes":[],"default_left":[0,0,0,0,0,0,0],"id":50,"left_children":[1,-1,3,-1,5,-1,-1],"loss_changes":[4.4051098E1,0E0,2.0237684E0,0E0,2.9398727E-1,0E0,0E0],"parents":[2147483647,0,0,2,2,4,4],"right_children":[2,-1,4,-1,6,-1,-1],"split_conditions":[2.0966399E0,2.153507E-3,-1.489953E0,-2.8159836E-4,-2.374608E0,-7.904693E-4,-1.0812316E-3],"split_indices":[6,0,8,0,0,0,0],"split_type":[0,0,0,0,0,0,0],"sum_hessian":[2.5602E4,6.406E3,1.9196E4,6.372E3,1.2824E4,6.395E3,6.429E3],"tree_param":{"num_deleted":"0","num_feature":"13","num_nodes":"7","size_leaf_vector":"1"}},{"base_weights":[-3.126673E-5,2.0889079E-3,-2.3186464E-2,-1.4061012E-2,-3.1564616E-2,-2.729509E-4,-1.9489532E-2,-7.662695E-4,-1.0487915E-3,-7.6537905E-4,-1.504492E-2,-1.7828243E-2,-2.6982796E-4,-2.6954245E-4,-7.6319417E-4],"categories":[],"categories_nodes":[],"categories_segments":[],"categories_sizes":[],"default_left":[0,0,0,0,0,0,0,0,0,0,0,0,0,0,0],"id":51,"left_children":[1,-1,3,5,7,-1,9,-1,-1,-1,11,13,-1,-1,-1],"loss_changes":[4.1021072E1,0E0,1.4545078E0,2.4332857E-1,1.9641685E-1,0E0,1.1219883E-1,0E0,0E0,0E0,3.957969E-2,1.11635804E-1,0E0,0E0,0E0],"parents":[2147483647,0,0,2,2,3,3,4,4,6,6,10,10,11,11],"right_children":[2,-1,4,6,8,-1,10,-1,-1,-1,12,14,-1,-1,-1],"split_conditions":[2.0966399E0,2.0889079E-3,2.1057508E0,2.1015034E0,-2.374608E0,-2.729509E-4,2.1025434E0,-7.662695E-4,-1.0487915E-3,-7.6537905E-4,2.105423E0,2.1043904E0,-2.6982796E-4,-2.6954245E-4,-7.6319417E-4],"split_indices":[6,0,6,6,0,0,6,0,0,0,6,6,0,0,0],"split_type":[0,0,0,0,0,0,0,0,0,0,0,0,0,0,0],"sum_hessian":[2.5432E4,6.343E3,1.9089E4,9.144E3,9.945E3,4.788E3,4.356E3,3.599E3,6.346E3,1.838E3,2.518E3,1.712E3,8.06E2,7.99E2,9.13E2],"tree_param":{"num_deleted":"0","num_feature":"13","num_nodes":"15","size_leaf_vector":"1"}},{"base_weights":[1.09498964E-4,2.026267E-3,-2.2590538E-2,-2.649895E-4,-2.9390369E-2,-7.4379606E-4,-1.0173457E-3],"categories":[],"categories_nodes":[],"categories_segments":[],"categories_sizes":[],"default_left":[0,0,0,0,0,0,0],"id":52,"left_children":[1,-1,3,-1,5,-1,-1],"loss_changes":[3.9400772E1,0E0,1.7971115E0,0E0,2.6099205E-1,0E0,0E0],"parents":[2147483647,0,0,2,2,4,4],"right_children":[2,-1,4,-1,6,-1,-1],"split_conditions":[2.0966399E0,2.026267E-3,-4.882151E1,-2.649895E-4,-2.374608E0,-7.4379606E-4,-1.0173457E-3],"split_indices":[6,0,9,0,0,0,0],"split_type":[0,0,0,0,0,0,0],"sum_hessian":[2.5735E4,6.482E3,1.9253E4,6.374E3,1.2879E4,6.4E3,6.479E3],"tree_param":{"num_deleted":"0","num_feature":"13","num_nodes":"7","size_leaf_vector":"1"}},{"base_weights":[-2.0093533E-4,1.9654776E-3,-2.186278E-2,-2.5704692E-4,-2.847645E-2,-7.214915E-4,-9.868274E-4],"categories":[],"categories_nodes":[],"categories_segments":[],"categories_sizes":[],"default_left":[0,0,0,0,0,0,0],"id":53,"left_children":[1,-1,3,-1,5,-1,-1],"loss_changes":[3.663778E1,0E0,1.6982946E0,0E0,2.4624157E-1,0E0,0E0],"parents":[2147483647,0,0,2,2,4,4],"right_children":[2,-1,4,-1,6,-1,-1],"split_conditions":[2.0966399E0,1.9654776E-3,-1.489953E0,-2.5704692E-4,-2.374608E0,-7.214915E-4,-9.868274E-4],"split_indices":[6,0,8,0,0,0,0],"split_type":[0,0,0,0,0,0,0],"sum_hessian":[2.5738E4,6.379E3,1.9359E4,6.437E3,1.2922E4,6.469E3,6.453E3],"tree_param":{"num_deleted":"0","num_feature":"13","num_nodes":"7","size_leaf_vector":"1"}},{"base_weights":[5.6595738E-5,1.9064285E-3,-2.0859849E-2,-7.341939E-3,-2.651131E-2,-2.0297407E-3,-2.491241E-4,-2.1672426E-2,-9.57222E-4,-2.4578298E-4,1.8506947E-3,-1.876899E-2,-6.9957256E-4,-6.984834E-4,-2.4602524E-4],"categories":[],"categories_nodes":[],"categories_segments":[],"categories_sizes":[],"default_left":[0,0,0,0,0,0,0,0,0,0,0,0,0,0,0],"id":54,"left_children":[1,-1,3,5,7,9,-1,11,-1,-1,-1,13,-1,-1,-1],"loss_changes":[3.396936E1,0E0,1.4660492E0,2.7972192E-2,3.480158E-1,3.4387803E-1,0E0,2.9594898E-2,0E0,0E0,0E0,1.2159324E-1,0E0,0E0,0E0],"parents":[2147483647,0,0,2,2,3,3,4,4,5,5,7,7,11,11],"right_children":[2,-1,4,6,8,10,-1,12,-1,-1,-1,14,-1,-1,-1],"split_conditions":[-4.1901574E0,1.9064285E-3,-4.184486E0,-4.1900744E0,-2.374608E0,-4.190144E0,-2.491241E-4,-4.1814494E0,-9.57222E-4,-2.4578298E-4,1.8506947E-3,-4.181866E0,-6.9957256E-4,-6.984834E-4,-2.4602524E-4],"split_indices":[5,0,5,5,0,5,0,5,0,0,0,5,0,0,0],"split_type":[0,0,0,0,0,0,0,0,0,0,0,0,0,0,0],"sum_hessian":[2.5574E4,6.338E3,1.9236E4,5.677E3,1.3559E4,8.87E2,4.79E3,7.161E3,6.398E3,8.11E2,7.6E1,2.618E3,4.543E3,1.827E3,7.91E2],"tree_param":{"num_deleted":"0","num_feature":"13","num_nodes":"15","size_leaf_vector":"1"}},{"base_weights":[-2.658666E-4,1.8493428E-3,-2.0582361E-2,-2.4188367E-4,-2.6804432E-2,-6.788689E-4,-9.2851184E-4],"categories":[],"categories_nodes":[],"categories_segments":[],"categories_sizes":[],"default_left":[0,0,0,0,0,0,0],"id":55,"left_children":[1,-1,3,-1,5,-1,-1],"loss_changes":[3.2078785E1,0E0,1.4923992E0,0E0,2.1594143E-1,0E0,0E0],"parents":[2147483647,0,0,2,2,4,4],"right_children":[2,-1,4,-1,6,-1,-1],"split_conditions":[2.0966399E0,1.8493428E-3,-1.489953E0,-2.4188367E-4,-2.374608E0,-6.788689E-4,-9.2851184E-4],"split_indices":[6,0,8,0,0,0,0],"split_type":[0,0,0,0,0,0,0],"sum_hessian":[2.5505E4,6.3E3,1.9205E4,6.382E3,1.2823E4,6.404E3,6.419E3],"tree_param":{"num_deleted":"0","num_feature":"13","num_nodes":"7","size_leaf_vector":"1"}},{"base_weights":[-6.6326225E-5,1.7938819E-3,-1.9927086E-2,-2.3463301E-4,-2.6001919E-2,-6.585052E-4,-9.006599E-4],"categories":[],"categories_nodes":[],"categories_segments":[],"categories_sizes":[],"default_left":[0,0,0,0,0,0,0],"id":56,"left_children":[1,-1,3,-1,5,-1,-1],"loss_changes":[3.0445253E1,0E0,1.4107709E0,0E0,2.0263386E-1,0E0,0E0],"parents":[2147483647,0,0,2,2,4,4],"right_children":[2,-1,4,-1,6,-1,-1],"split_conditions":[2.0966399E0,1.7938819E-3,-1.489953E0,-2.3463301E-4,-4.118316E0,-6.585052E-4,-9.006599E-4],"split_indices":[6,0,8,0,5,0,0],"split_type":[0,0,0,0,0,0,0],"sum_hessian":[2.5609E4,6.378E3,1.9231E4,6.432E3,1.2799E4,6.39E3,6.409E3],"tree_param":{"num_deleted":"0","num_feature":"13","num_nodes":"7","size_leaf_vector":"1"}},{"base_weights":[-2.8568587E-5,1.7399593E-3,-1.9063802E-2,-6.80785E-3,-2.523479E-2,-2.2758811E-4,1.688017E-3,-6.387498E-4,-8.736444E-4],"categories":[],"categories_nodes":[],"categories_segments":[],"categories_sizes":[],"default_left":[0,0,0,0,0,0,0,0,0],"id":57,"left_children":[1,-1,3,5,7,-1,-1,-1,-1],"loss_changes":[2.8151382E1,0E0,1.4483666E0,3.115103E-1,1.8990993E-1,0E0,0E0,0E0,0E0],"parents":[2147483647,0,0,2,2,3,3,4,4],"right_children":[2,-1,4,6,8,-1,-1,-1,-1],"split_conditions":[-4.1901574E0,1.7399593E-3,-4.877044E1,-4.882151E1,-2.374608E0,-2.2758811E-4,1.688017E-3,-6.387498E-4,-8.736444E-4],"split_indices":[5,0,9,9,0,0,0,0,0],"split_type":[0,0,0,0,0,0,0,0,0],"sum_hessian":[2.5488E4,6.294E3,1.9194E4,6.434E3,1.276E4,6.358E3,7.6E1,6.35E3,6.41E3],"tree_param":{"num_deleted":"0","num_feature":"13","num_nodes":"9","size_leaf_vector":"1"}},{"base_weights":[-2.2893253E-5,1.6879082E-3,-1.8747345E-2,-2.207687E-4,-2.446028E-2,-6.195952E-4,-8.4743847E-4],"categories":[],"categories_nodes":[],"categories_segments":[],"categories_sizes":[],"default_left":[0,0,0,0,0,0,0],"id":58,"left_children":[1,-1,3,-1,5,-1,-1],"loss_changes":[2.7014898E1,0E0,1.2482839E0,0E0,1.7917585E-1,0E0,0E0],"parents":[2147483647,0,0,2,2,4,4],"right_children":[2,-1,4,-1,6,-1,-1],"split_conditions":[2.0966399E0,1.6879082E-3,-1.489953E0,-2.207687E-4,-4.118316E0,-6.195952E-4,-8.4743847E-4],"split_indices":[6,0,8,0,5,0,0],"split_type":[0,0,0,0,0,0,0],"sum_hessian":[2.5634E4,6.397E3,1.9237E4,6.433E3,1.2804E4,6.402E3,6.402E3],"tree_param":{"num_deleted":"0","num_feature":"13","num_nodes":"7","size_leaf_vector":"1"}},{"base_weights":[2.656544E-5,1.6372717E-3,-1.8183403E-2,-2.1414451E-4,-2.3718778E-2,-6.010117E-4,-8.2201866E-4],"categories":[],"categories_nodes":[],"categories_segments":[],"categories_sizes":[],"default_left":[0,0,0,0,0,0,0],"id":59,"left_children":[1,-1,3,-1,5,-1,-1],"loss_changes":[2.551853E1,0E0,1.1740489E0,0E0,1.6866064E-1,0E0,0E0],"parents":[2147483647,0,0,2,2,4,4],"right_children":[2,-1,4,-1,6,-1,-1],"split_conditions":[-1.4923838E0,1.6372717E-3,-1.489953E0,-2.1414451E-4,-2.374608E0,-6.010117E-4,-8.2201866E-4],"split_indices":[8,0,8,0,0,0,0],"split_type":[0,0,0,0,0,0,0],"sum_hessian":[2.5684E4,6.429E3,1.9255E4,6.435E3,1.282E4,6.424E3,6.396E3],"tree_param":{"num_deleted":"0","num_feature":"13","num_nodes":"7","size_leaf_vector":"1"}},{"base_weights":[1.1058877E-4,1.5881726E-3,-1.769475E-2,-2.0771376E-4,-2.3013989E-2,-5.829841E-4,-7.9736364E-4],"categories":[],"categories_nodes":[],"categories_segments":[],"categories_sizes":[],"default_left":[0,0,0,0,0,0,0],"id":60,"left_children":[1,-1,3,-1,5,-1,-1],"loss_changes":[2.4129723E1,0E0,1.0958471E0,0E0,1.5872335E-1,0E0,0E0],"parents":[2147483647,0,0,2,2,4,4],"right_children":[2,-1,4,-1,6,-1,-1],"split_conditions":[-1.4923838E0,1.5881726E-3,-1.489953E0,-2.0771376E-4,-4.118316E0,-5.829841E-4,-7.9736364E-4],"split_indices":[8,0,8,0,5,0,0],"split_type":[0,0,0,0,0,0,0],"sum_hessian":[2.5647E4,6.466E3,1.9181E4,6.348E3,1.2833E4,6.419E3,6.414E3],"tree_param":{"num_deleted":"0","num_feature":"13","num_nodes":"7","size_leaf_vector":"1"}},{"base_weights":[4.860774E-5,1.5405305E-3,-1.7151525E-2,-2.0148593E-4,-2.2331448E-2,-5.6549325E-4,-7.734453E-4],"categories":[],"categories_nodes":[],"categories_segments":[],"categories_sizes":[],"default_left":[0,0,0,0,0,0,0],"id":61,"left_children":[1,-1,3,-1,5,-1,-1],"loss_changes":[2.2553362E1,0E0,1.0313807E0,0E0,1.485877E-1,0E0,0E0],"parents":[2147483647,0,0,2,2,4,4],"right_children":[2,-1,4,-1,6,-1,-1],"split_conditions":[2.0966399E0,1.5405305E-3,-1.489953E0,-2.0148593E-4,-4.118316E0,-5.6549325E-4,-7.734453E-4],"split_indices":[6,0,8,0,5,0,0],"split_type":[0,0,0,0,0,0,0],"sum_hessian":[2.5553E4,6.417E3,1.9136E4,6.355E3,1.2781E4,6.379E3,6.402E3],"tree_param":{"num_deleted":"0","num_feature":"13","num_nodes":"7","size_leaf_vector":"1"}},{"base_weights":[-5.833879E-5,1.4943088E-3,-1.661194E-2,-1.9544765E-4,-2.1660805E-2,-5.485322E-4,-7.5024564E-4],"categories":[],"categories_nodes":[],"categories_segments":[],"categories_sizes":[],"default_left":[0,0,0,0,0,0,0],"id":62,"left_children":[1,-1,3,-1,5,-1,-1],"loss_changes":[2.1098251E1,0E0,9.754715E-1,0E0,1.3974428E-1,0E0,0E0],"parents":[2147483647,0,0,2,2,4,4],"right_children":[2,-1,4,-1,6,-1,-1],"split_conditions":[-1.4923838E0,1.4943088E-3,-1.489953E0,-1.9544765E-4,-2.374608E0,-5.485322E-4,-7.5024564E-4],"split_indices":[8,0,8,0,0,0,0],"split_type":[0,0,0,0,0,0,0],"sum_hessian":[2.556E4,6.368E3,1.9192E4,6.405E3,1.2787E4,6.384E3,6.403E3],"tree_param":{"num_deleted":"0","num_feature":"13","num_nodes":"7","size_leaf_vector":"1"}},{"base_weights":[-2.3846305E-5,1.449362E-3,-1.5859926E-2,-5.612545E-3,-2.1020994E-2,-1.8958184E-4,1.4075121E-3,-5.3207716E-4,-7.2774413E-4],"categories":[],"categories_nodes":[],"categories_segments":[],"categories_sizes":[],"default_left":[0,0,0,0,0,0,0,0,0],"id":63,"left_children":[1,-1,3,5,7,-1,-1,-1,-1],"loss_changes":[1.9567816E1,0E0,1.0158305E0,2.3606302E-1,1.3151073E-1,0E0,0E0,0E0,0E0],"parents":[2147483647,0,0,2,2,3,3,4,4],"right_children":[2,-1,4,6,8,-1,-1,-1,-1],"split_conditions":[-4.1901574E0,1.449362E-3,-4.877044E1,-4.882151E1,-2.374608E0,-1.8958184E-4,1.4075121E-3,-5.3207716E-4,-7.2774413E-4],"split_indices":[5,0,9,9,0,0,0,0,0],"split_type":[0,0,0,0,0,0,0,0,0],"sum_hessian":[2.5566E4,6.307E3,1.9259E4,6.458E3,1.2801E4,6.375E3,8.3E1,6.372E3,6.429E3],"tree_param":{"num_deleted":"0","num_feature":"13","num_nodes":"9","size_leaf_vector":"1"}},{"base_weights":[-6.9276575E-5,1.4060395E-3,-1.5656274E-2,-1.8389973E-4,-2.0395322E-2,-5.161212E-4,-7.059206E-4],"categories":[],"categories_nodes":[],"categories_segments":[],"categories_sizes":[],"default_left":[0,0,0,0,0,0,0],"id":64,"left_children":[1,-1,3,-1,5,-1,-1],"loss_changes":[1.883952E1,0E0,8.701563E-1,0E0,1.2464666E-1,0E0,0E0],"parents":[2147483647,0,0,2,2,4,4],"right_children":[2,-1,4,-1,6,-1,-1],"split_conditions":[2.0966399E0,1.4060395E-3,-1.489953E0,-1.8389973E-4,-2.374608E0,-5.161212E-4,-7.059206E-4],"split_indices":[6,0,8,0,0,0,0],"split_type":[0,0,0,0,0,0,0],"sum_hessian":[2.5753E4,6.418E3,1.9335E4,6.431E3,1.2904E4,6.414E3,6.49E3],"tree_param":{"num_deleted":"0","num_feature":"13","num_nodes":"7","size_leaf_vector":"1"}},{"base_weights":[-4.775717E-6,1.3638627E-3,-1.5183726E-2,-1.7838133E-4,-1.9768065E-2,-5.0064037E-4,-6.847406E-4],"categories":[],"categories_nodes":[],"categories_segments":[],"categories_sizes":[],"default_left":[0,0,0,0,0,0,0],"id":65,"left_children":[1,-1,3,-1,5,-1,-1],"loss_changes":[1.7695595E1,0E0,8.1159115E-1,0E0,1.16579056E-1,0E0,0E0],"parents":[2147483647,0,0,2,2,4,4],"right_children":[2,-1,4,-1,6,-1,-1],"split_conditions":[2.0966399E0,1.3638627E-3,-4.882151E1,-1.7838133E-4,-2.374608E0,-5.0064037E-4,-6.847406E-4],"split_indices":[6,0,9,0,0,0,0],"split_type":[0,0,0,0,0,0,0],"sum_hessian":[2.5643E4,6.416E3,1.9227E4,6.385E3,1.2842E4,6.416E3,6.426E3],"tree_param":{"num_deleted":"0","num_feature":"13","num_nodes":"7","size_leaf_vector":"1"}},{"base_weights":[-1.3616051E-5,1.3229597E-3,-1.4690855E-2,-1.7303374E-4,-1.917023E-2,-4.856235E-4,-6.641999E-4],"categories":[],"categories_nodes":[],"categories_segments":[],"categories_sizes":[],"default_left":[0,0,0,0,0,0,0],"id":66,"left_children":[1,-1,3,-1,5,-1,-1],"loss_changes":[1.6627367E1,0E0,7.678127E-1,0E0,1.0941458E-1,0E0,0E0],"parents":[2147483647,0,0,2,2,4,4],"right_children":[2,-1,4,-1,6,-1,-1],"split_conditions":[-1.4923838E0,1.3229597E-3,-1.489953E0,-1.7303374E-4,-2.374608E0,-4.856235E-4,-6.641999E-4],"split_indices":[8,0,8,0,0,0,0],"split_type":[0,0,0,0,0,0,0],"sum_hessian":[2.5684E4,6.41E3,1.9274E4,6.45E3,1.2824E4,6.418E3,6.406E3],"tree_param":{"num_deleted":"0","num_feature":"13","num_nodes":"7","size_leaf_vector":"1"}},{"base_weights":[-3.7785787E-5,1.2832673E-3,-1.4279153E-2,-1.6783949E-4,-1.8601283E-2,-4.7105463E-4,-6.44277E-4],"categories":[],"categories_nodes":[],"categories_segments":[],"categories_sizes":[],"default_left":[0,0,0,0,0,0,0],"id":67,"left_children":[1,-1,3,-1,5,-1,-1],"loss_changes":[1.5583445E1,0E0,7.175584E-1,0E0,1.026392E-1,0E0,0E0],"parents":[2147483647,0,0,2,2,4,4],"right_children":[2,-1,4,-1,6,-1,-1],"split_conditions":[2.0966399E0,1.2832673E-3,-1.489953E0,-1.6783949E-4,-2.374608E0,-4.7105463E-4,-6.44277E-4],"split_indices":[6,0,8,0,0,0,0],"split_type":[0,0,0,0,0,0,0],"sum_hessian":[2.5561E4,6.378E3,1.9183E4,6.383E3,1.28E4,6.393E3,6.407E3],"tree_param":{"num_deleted":"0","num_feature":"13","num_nodes":"7","size_leaf_vector":"1"}},{"base_weights":[-3.907637E-5,1.2447819E-3,-1.3852304E-2,-1.6280577E-4,-1.8021887E-2,-4.5693328E-4,-6.249514E-4],"categories":[],"categories_nodes":[],"categories_segments":[],"categories_sizes":[],"default_left":[0,0,0,0,0,0,0],"id":68,"left_children":[1,-1,3,-1,5,-1,-1],"loss_changes":[1.473988E1,0E0,6.750858E-1,0E0,9.717846E-2,0E0,0E0],"parents":[2147483647,0,0,2,2,4,4],"right_children":[2,-1,4,-1,6,-1,-1],"split_conditions":[2.0966399E0,1.2447819E-3,-4.882151E1,-1.6280577E-4,-2.374608E0,-4.5693328E-4,-6.249514E-4],"split_indices":[6,0,9,0,0,0,0],"split_type":[0,0,0,0,0,0,0],"sum_hessian":[2.5696E4,6.411E3,1.9285E4,6.393E3,1.2892E4,6.489E3,6.403E3],"tree_param":{"num_deleted":"0","num_feature":"13","num_nodes":"7","size_leaf_vector":"1"}},{"base_weights":[4.3663338E-5,1.2074526E-3,-1.3414178E-2,-1.5792261E-4,-1.7500445E-2,-4.4321932E-4,-6.062044E-4],"categories":[],"categories_nodes":[],"categories_segments":[],"categories_sizes":[],"default_left":[0,0,0,0,0,0,0],"id":69,"left_children":[1,-1,3,-1,5,-1,-1],"loss_changes":[1.3860549E1,0E0,6.366248E-1,0E0,9.043884E-2,0E0,0E0],"parents":[2147483647,0,0,2,2,4,4],"right_children":[2,-1,4,-1,6,-1,-1],"split_conditions":[2.0966399E0,1.2074526E-3,-1.489953E0,-1.5792261E-4,2.1714451E0,-4.4321932E-4,-6.062044E-4],"split_indices":[6,0,8,0,6,0,0],"split_type":[0,0,0,0,0,0,0],"sum_hessian":[2.561E4,6.424E3,1.9186E4,6.416E3,1.277E4,6.383E3,6.387E3],"tree_param":{"num_deleted":"0","num_feature":"13","num_nodes":"7","size_leaf_vector":"1"}},{"base_weights":[-1.6109846E-7,1.1712124E-3,-1.3021613E-2,-1.5318359E-4,-1.6958479E-2,-4.2992938E-4,-5.8801885E-4],"categories":[],"categories_nodes":[],"categories_segments":[],"categories_sizes":[],"default_left":[0,0,0,0,0,0,0],"id":70,"left_children":[1,-1,3,-1,5,-1,-1],"loss_changes":[1.3003408E1,0E0,5.956166E-1,0E0,8.522129E-2,0E0,0E0],"parents":[2147483647,0,0,2,2,4,4],"right_children":[2,-1,4,-1,6,-1,-1],"split_conditions":[2.0966399E0,1.1712124E-3,-1.489953E0,-1.5318359E-4,-2.374608E0,-4.2992938E-4,-5.8801885E-4],"split_indices":[6,0,8,0,0,0,0],"split_type":[0,0,0,0,0,0,0],"sum_hessian":[2.5582E4,6.396E3,1.9186E4,6.382E3,1.2804E4,6.442E3,6.362E3],"tree_param":{"num_deleted":"0","num_feature":"13","num_nodes":"7","size_leaf_vector":"1"}},{"base_weights":[1.3356296E-4,1.1360928E-3,-1.2616864E-2,-1.4859128E-4,-1.6469145E-2,-4.1702483E-4,-5.703816E-4],"categories":[],"categories_nodes":[],"categories_segments":[],"categories_sizes":[],"default_left":[0,0,0,0,0,0,0],"id":71,"left_children":[1,-1,3,-1,5,-1,-1],"loss_changes":[1.2315701E1,0E0,5.624368E-1,0E0,7.9533815E-2,0E0,0E0],"parents":[2147483647,0,0,2,2,4,4],"right_children":[2,-1,4,-1,6,-1,-1],"split_conditions":[-1.4923838E0,1.1360928E-3,-1.489953E0,-1.4859128E-4,-4.118316E0,-4.1702483E-4,-5.703816E-4],"split_indices":[8,0,8,0,5,0,0],"split_type":[0,0,0,0,0,0,0],"sum_hessian":[2.5589E4,6.464E3,1.9125E4,6.407E3,1.2718E4,6.351E3,6.367E3],"tree_param":{"num_deleted":"0","num_feature":"13","num_nodes":"7","size_leaf_vector":"1"}},{"base_weights":[-0E0,1.1020143E-3,-1.2271228E-2,-1.4413212E-4,-1.5965424E-2,-4.0452418E-4,-5.532766E-4],"categories":[],"categories_nodes":[],"categories_segments":[],"categories_sizes":[],"default_left":[0,0,0,0,0,0,0],"id":72,"left_children":[1,-1,3,-1,5,-1,-1],"loss_changes":[1.1570234E1,0E0,5.2842283E-1,0E0,7.5596094E-2,0E0,0E0],"parents":[2147483647,0,0,2,2,4,4],"right_children":[2,-1,4,-1,6,-1,-1],"split_conditions":[2.0966399E0,1.1020143E-3,-1.489953E0,-1.4413212E-4,-2.374608E0,-4.0452418E-4,-5.532766E-4],"split_indices":[6,0,8,0,0,0,0],"split_type":[0,0,0,0,0,0,0],"sum_hessian":[2.5661E4,6.427E3,1.9234E4,6.376E3,1.2858E4,6.447E3,6.411E3],"tree_param":{"num_deleted":"0","num_feature":"13","num_nodes":"7","size_leaf_vector":"1"}},{"base_weights":[-4.2950745E-5,1.068964E-3,-1.1887179E-2,-1.3981028E-4,-1.5504001E-2,-3.9238398E-4,-5.3668144E-4],"categories":[],"categories_nodes":[],"categories_segments":[],"categories_sizes":[],"default_left":[0,0,0,0,0,0,0],"id":73,"left_children":[1,-1,3,-1,5,-1,-1],"loss_changes":[1.079658E1,0E0,4.9947667E-1,0E0,7.0575714E-2,0E0,0E0],"parents":[2147483647,0,0,2,2,4,4],"right_children":[2,-1,4,-1,6,-1,-1],"split_conditions":[2.0966399E0,1.068964E-3,-1.489953E0,-1.3981028E-4,-2.374608E0,-3.9238398E-4,-5.3668144E-4],"split_indices":[6,0,8,0,0,0,0],"split_type":[0,0,0,0,0,0,0],"sum_hessian":[2.5555E4,6.367E3,1.9188E4,6.41E3,1.2778E4,6.361E3,6.417E3],"tree_param":{"num_deleted":"0","num_feature":"13","num_nodes":"7","size_leaf_vector":"1"}},{"base_weights":[-9.114498E-5,1.0368816E-3,-1.1553134E-2,-1.3561368E-4,-1.5021677E-2,-3.8062493E-4,-5.205857E-4],"categories":[],"categories_nodes":[],"categories_segments":[],"categories_sizes":[],"default_left":[0,0,0,0,0,0,0],"id":74,"left_children":[1,-1,3,-1,5,-1,-1],"loss_changes":[1.0208182E1,0E0,4.6922922E-1,0E0,6.712198E-2,0E0,0E0],"parents":[2147483647,0,0,2,2,4,4],"right_children":[2,-1,4,-1,6,-1,-1],"split_conditions":[2.0966399E0,1.0368816E-3,-1.489953E0,-1.3561368E-4,-2.374608E0,-3.8062493E-4,-5.205857E-4],"split_indices":[6,0,8,0,0,0,0],"split_type":[0,0,0,0,0,0,0],"sum_hessian":[2.5704E4,6.386E3,1.9318E4,6.391E3,1.2927E4,6.484E3,6.443E3],"tree_param":{"num_deleted":"0","num_feature":"13","num_nodes":"7","size_leaf_vector":"1"}},{"base_weights":[2.4518047E-5,1.0058051E-3,-1.1186008E-2,-1.3154774E-4,-1.4585301E-2,-3.6919833E-4,-5.04968E-4],"categories":[],"categories_nodes":[],"categories_segments":[],"categories_sizes":[],"default_left":[0,0,0,0,0,0,0],"id":75,"left_children":[1,-1,3,-1,5,-1,-1],"loss_changes":[9.623431E0,0E0,4.4173646E-1,0E0,6.234479E-2,0E0,0E0],"parents":[2147483647,0,0,2,2,4,4],"right_children":[2,-1,4,-1,6,-1,-1],"split_conditions":[2.0966399E0,1.0058051E-3,-1.489953E0,-1.3154774E-4,-2.374608E0,-3.6919833E-4,-5.04968E-4],"split_indices":[6,0,8,0,0,0,0],"split_type":[0,0,0,0,0,0,0],"sum_hessian":[2.5615E4,6.424E3,1.9191E4,6.406E3,1.2785E4,6.373E3,6.412E3],"tree_param":{"num_deleted":"0","num_feature":"13","num_nodes":"7","size_leaf_vector":"1"}},{"base_weights":[1.0775975E-6,9.756255E-4,-1.0855665E-2,-1.2760151E-4,-1.4147883E-2,-3.5812508E-4,-4.898216E-4],"categories":[],"categories_nodes":[],"categories_segments":[],"categories_sizes":[],"default_left":[0,0,0,0,0,0,0],"id":76,"left_children":[1,-1,3,-1,5,-1,-1],"loss_changes":[9.040825E0,0E0,4.1523838E-1,0E0,5.8618784E-2,0E0,0E0],"parents":[2147483647,0,0,2,2,4,4],"right_children":[2,-1,4,-1,6,-1,-1],"split_conditions":[2.0966399E0,9.756255E-4,-1.489953E0,-1.2760151E-4,-2.374608E0,-3.5812508E-4,-4.898216E-4],"split_indices":[6,0,8,0,0,0,0],"split_type":[0,0,0,0,0,0,0],"sum_hessian":[2.5599E4,6.409E3,1.919E4,6.396E3,1.2794E4,6.378E3,6.416E3],"tree_param":{"num_deleted":"0","num_feature":"13","num_nodes":"7","size_leaf_vector":"1"}},{"base_weights":[-5.6868103E-5,9.463514E-4,-1.05105825E-2,-1.2377792E-4,-1.3723234E-2,-3.473819E-4,-4.7512856E-4],"categories":[],"categories_nodes":[],"categories_segments":[],"categories_sizes":[],"default_left":[0,0,0,0,0,0,0],"id":77,"left_children":[1,-1,3,-1,5,-1,-1],"loss_changes":[8.451083E0,0E0,3.9259744E-1,0E0,5.501461E-2,0E0,0E0],"parents":[2147483647,0,0,2,2,4,4],"right_children":[2,-1,4,-1,6,-1,-1],"split_conditions":[2.0966399E0,9.463514E-4,-1.489953E0,-1.2377792E-4,-2.374608E0,-3.473819E-4,-4.7512856E-4],"split_indices":[6,0,8,0,0,0,0],"split_type":[0,0,0,0,0,0,0],"sum_hessian":[2.5586E4,6.357E3,1.9229E4,6.448E3,1.2781E4,6.373E3,6.408E3],"tree_param":{"num_deleted":"0","num_feature":"13","num_nodes":"7","size_leaf_vector":"1"}},{"base_weights":[-1.2606125E-5,9.179793E-4,-1.0220181E-2,-1.2006185E-4,-1.33030275E-2,-3.3696785E-4,-4.6087801E-4],"categories":[],"categories_nodes":[],"categories_segments":[],"categories_sizes":[],"default_left":[0,0,0,0,0,0,0],"id":78,"left_children":[1,-1,3,-1,5,-1,-1],"loss_changes":[8.020718E0,0E0,3.673637E-1,0E0,5.2027225E-2,0E0,0E0],"parents":[2147483647,0,0,2,2,4,4],"right_children":[2,-1,4,-1,6,-1,-1],"split_conditions":[2.0966399E0,9.179793E-4,-1.489953E0,-1.2006185E-4,-4.118316E0,-3.3696785E-4,-4.6087801E-4],"split_indices":[6,0,8,0,5,0,0],"split_type":[0,0,0,0,0,0,0],"sum_hessian":[2.5673E4,6.417E3,1.9256E4,6.394E3,1.2862E4,6.441E3,6.421E3],"tree_param":{"num_deleted":"0","num_feature":"13","num_nodes":"7","size_leaf_vector":"1"}},{"base_weights":[3.6700822E-6,8.9043315E-4,-9.890302E-3,-1.164605E-4,-1.29035E-2,-3.2685616E-4,-4.4704866E-4],"categories":[],"categories_nodes":[],"categories_segments":[],"categories_sizes":[],"default_left":[0,0,0,0,0,0,0],"id":79,"left_children":[1,-1,3,-1,5,-1,-1],"loss_changes":[7.5021114E0,0E0,3.4503853E-1,0E0,4.8401117E-2,0E0,0E0],"parents":[2147483647,0,0,2,2,4,4],"right_children":[2,-1,4,-1,6,-1,-1],"split_conditions":[2.0966399E0,8.9043315E-4,-1.489953E0,-1.164605E-4,-4.118316E0,-3.2685616E-4,-4.4704866E-4],"split_indices":[6,0,8,0,5,0,0],"split_type":[0,0,0,0,0,0,0],"sum_hessian":[2.5541E4,6.388E3,1.9153E4,6.409E3,1.2744E4,6.384E3,6.36E3],"tree_param":{"num_deleted":"0","num_feature":"13","num_nodes":"7","size_leaf_vector":"1"}},{"base_weights":[6.072908E-5,8.6372957E-4,-9.594357E-3,-1.12968686E-4,-1.2523699E-2,-3.1704942E-4,-4.3364053E-4],"categories":[],"categories_nodes":[],"categories_segments":[],"categories_sizes":[],"default_left":[0,0,0,0,0,0,0],"id":80,"left_children":[1,-1,3,-1,5,-1,-1],"loss_changes":[7.0968018E0,0E0,3.2514405E-1,0E0,4.5399904E-2,0E0,0E0],"parents":[2147483647,0,0,2,2,4,4],"right_children":[2,-1,4,-1,6,-1,-1],"split_conditions":[2.0966399E0,8.6372957E-4,-1.489953E0,-1.12968686E-4,-2.374608E0,-3.1704942E-4,-4.3364053E-4],"split_indices":[6,0,8,0,0,0,0],"split_type":[0,0,0,0,0,0,0],"sum_hessian":[2.5575E4,6.435E3,1.914E4,6.414E3,1.2726E4,6.352E3,6.374E3],"tree_param":{"num_deleted":"0","num_feature":"13","num_nodes":"7","size_leaf_vector":"1"}},{"base_weights":[-2.4972776E-5,8.378325E-4,-9.281044E-3,-1.0958569E-4,-1.2137238E-2,-3.0754443E-4,-4.2063234E-4],"categories":[],"categories_nodes":[],"categories_segments":[],"categories_sizes":[],"default_left":[0,0,0,0,0,0,0],"id":81,"left_children":[1,-1,3,-1,5,-1,-1],"loss_changes":[6.6377263E0,0E0,3.0832243E-1,0E0,4.282236E-2,0E0,0E0],"parents":[2147483647,0,0,2,2,4,4],"right_children":[2,-1,4,-1,6,-1,-1],"split_conditions":[2.0966399E0,8.378325E-4,-1.489953E0,-1.0958569E-4,-2.374608E0,-3.0754443E-4,-4.2063234E-4],"split_indices":[6,0,8,0,0,0,0],"split_type":[0,0,0,0,0,0,0],"sum_hessian":[2.566E4,6.38E3,1.928E4,6.503E3,1.2777E4,6.415E3,6.362E3],"tree_param":{"num_deleted":"0","num_feature":"13","num_nodes":"7","size_leaf_vector":"1"}},{"base_weights":[3.747411E-5,8.126946E-4,-9.05653E-3,-1.06285035E-4,-1.1782983E-2,-2.9831554E-4,-4.0801696E-4],"categories":[],"categories_nodes":[],"categories_segments":[],"categories_sizes":[],"default_left":[0,0,0,0,0,0,0],"id":82,"left_children":[1,-1,3,-1,5,-1,-1],"loss_changes":[6.2719655E0,0E0,2.8513193E-1,0E0,4.0127277E-2,0E0,0E0],"parents":[2147483647,0,0,2,2,4,4],"right_children":[2,-1,4,-1,6,-1,-1],"split_conditions":[2.0966399E0,8.126946E-4,-1.489953E0,-1.06285035E-4,-2.374608E0,-2.9831554E-4,-4.0801696E-4],"split_indices":[6,0,8,0,0,0,0],"split_type":[0,0,0,0,0,0,0],"sum_hessian":[2.5485E4,6.414E3,1.9071E4,6.323E3,1.2748E4,6.367E3,6.381E3],"tree_param":{"num_deleted":"0","num_feature":"13","num_nodes":"7","size_leaf_vector":"1"}},{"base_weights":[-1.1406948E-5,7.8830717E-4,-8.769827E-3,-1.0310554E-4,-1.1420218E-2,-2.8937552E-4,-3.9578122E-4],"categories":[],"categories_nodes":[],"categories_segments":[],"categories_sizes":[],"default_left":[0,0,0,0,0,0,0],"id":83,"left_children":[1,-1,3,-1,5,-1,-1],"loss_changes":[5.9249625E0,0E0,2.7142572E-1,0E0,3.8119078E-2,0E0,0E0],"parents":[2147483647,0,0,2,2,4,4],"right_children":[2,-1,4,-1,6,-1,-1],"split_conditions":[-1.4923838E0,7.8830717E-4,-1.489953E0,-1.0310554E-4,-4.118316E0,-2.8937552E-4,-3.9578122E-4],"split_indices":[8,0,8,0,5,0,0],"split_type":[0,0,0,0,0,0,0],"sum_hessian":[2.5739E4,6.429E3,1.931E4,6.424E3,1.2886E4,6.471E3,6.415E3],"tree_param":{"num_deleted":"0","num_feature":"13","num_nodes":"7","size_leaf_vector":"1"}},{"base_weights":[-9.553013E-5,7.646715E-4,-8.522906E-3,-1.0001108E-4,-1.1084197E-2,-2.8069498E-4,-3.8391276E-4],"categories":[],"categories_nodes":[],"categories_segments":[],"categories_sizes":[],"default_left":[0,0,0,0,0,0,0],"id":84,"left_children":[1,-1,3,-1,5,-1,-1],"loss_changes":[5.5326047E0,0E0,2.551849E-1,0E0,3.5888195E-2,0E0,0E0],"parents":[2147483647,0,0,2,2,4,4],"right_children":[2,-1,4,-1,6,-1,-1],"split_conditions":[2.0966399E0,7.646715E-4,-1.489953E0,-1.0001108E-4,-4.118316E0,-2.8069498E-4,-3.8391276E-4],"split_indices":[6,0,8,0,5,0,0],"split_type":[0,0,0,0,0,0,0],"sum_hessian":[2.5666E4,6.356E3,1.931E4,6.395E3,1.2915E4,6.462E3,6.453E3],"tree_param":{"num_deleted":"0","num_feature":"13","num_nodes":"7","size_leaf_vector":"1"}},{"base_weights":[1.8197277E-5,7.4174564E-4,-8.253331E-3,-9.701089E-5,-1.0750971E-2,-2.722721E-4,-3.7239233E-4],"categories":[],"categories_nodes":[],"categories_segments":[],"categories_sizes":[],"default_left":[0,0,0,0,0,0,0],"id":85,"left_children":[1,-1,3,-1,5,-1,-1],"loss_changes":[5.2390313E0,0E0,2.3924422E-1,0E0,3.3392906E-2,0E0,0E0],"parents":[2147483647,0,0,2,2,4,4],"right_children":[2,-1,4,-1,6,-1,-1],"split_conditions":[2.0966399E0,7.4174564E-4,-1.489953E0,-9.701089E-5,-2.374608E0,-2.722721E-4,-3.7239233E-4],"split_indices":[6,0,8,0,0,0,0],"split_type":[0,0,0,0,0,0,0],"sum_hessian":[2.5626E4,6.43E3,1.9196E4,6.392E3,1.2804E4,6.41E3,6.394E3],"tree_param":{"num_deleted":"0","num_feature":"13","num_nodes":"7","size_leaf_vector":"1"}},{"base_weights":[6.4988584E-5,7.1948784E-4,-7.978817E-3,-9.410608E-5,-1.0420933E-2,-2.6410513E-4,-3.612177E-4],"categories":[],"categories_nodes":[],"categories_segments":[],"categories_sizes":[],"default_left":[0,0,0,0,0,0,0],"id":86,"left_children":[1,-1,3,-1,5,-1,-1],"loss_changes":[4.9414377E0,0E0,2.2577405E-1,0E0,3.1226158E-2,0E0,0E0],"parents":[2147483647,0,0,2,2,4,4],"right_children":[2,-1,4,-1,6,-1,-1],"split_conditions":[-1.4923838E0,7.1948784E-4,-1.489953E0,-9.410608E-5,-2.374608E0,-2.6410513E-4,-3.612177E-4],"split_indices":[8,0,8,0,0,0,0],"split_type":[0,0,0,0,0,0,0],"sum_hessian":[2.5674E4,6.464E3,1.921E4,6.455E3,1.2755E4,6.416E3,6.339E3],"tree_param":{"num_deleted":"0","num_feature":"13","num_nodes":"7","size_leaf_vector":"1"}},{"base_weights":[5.3261483E-6,6.9790456E-4,-7.765157E-3,-9.128089E-5,-1.0123876E-2,-2.5618123E-4,-3.503907E-4],"categories":[],"categories_nodes":[],"categories_segments":[],"categories_sizes":[],"default_left":[0,0,0,0,0,0,0],"id":87,"left_children":[1,-1,3,-1,5,-1,-1],"loss_changes":[4.6431646E0,0E0,2.1305525E-1,0E0,2.9487014E-2,0E0,0E0],"parents":[2147483647,0,0,2,2,4,4],"right_children":[2,-1,4,-1,6,-1,-1],"split_conditions":[2.0966399E0,6.9790456E-4,-1.489953E0,-9.128089E-5,-2.374608E0,-2.5618123E-4,-3.503907E-4],"split_indices":[6,0,8,0,0,0,0],"split_type":[0,0,0,0,0,0,0],"sum_hessian":[2.5681E4,6.434E3,1.9247E4,6.426E3,1.2821E4,6.387E3,6.434E3],"tree_param":{"num_deleted":"0","num_feature":"13","num_nodes":"7","size_leaf_vector":"1"}},{"base_weights":[-0E0,6.7697035E-4,-7.5415843E-3,-8.8536384E-5,-9.811162E-3,-2.484997E-4,-3.398767E-4],"categories":[],"categories_nodes":[],"categories_segments":[],"categories_sizes":[],"default_left":[0,0,0,0,0,0,0],"id":88,"left_children":[1,-1,3,-1,5,-1,-1],"loss_changes":[4.3510528E0,0E0,1.9827628E-1,0E0,2.7641892E-2,0E0,0E0],"parents":[2147483647,0,0,2,2,4,4],"right_children":[2,-1,4,-1,6,-1,-1],"split_conditions":[2.0966399E0,6.7697035E-4,-1.489953E0,-8.8536384E-5,-2.374608E0,-2.484997E-4,-3.398767E-4],"split_indices":[6,0,8,0,0,0,0],"split_type":[0,0,0,0,0,0,0],"sum_hessian":[2.556E4,6.404E3,1.9156E4,6.353E3,1.2803E4,6.417E3,6.386E3],"tree_param":{"num_deleted":"0","num_feature":"13","num_nodes":"7","size_leaf_vector":"1"}},{"base_weights":[1.6548353E-5,6.566671E-4,-7.289859E-3,-8.589167E-5,-9.527593E-3,-2.4104065E-4,-3.2968484E-4],"categories":[],"categories_nodes":[],"categories_segments":[],"categories_sizes":[],"default_left":[0,0,0,0,0,0,0],"id":89,"left_children":[1,-1,3,-1,5,-1,-1],"loss_changes":[4.109972E0,0E0,1.896025E-1,0E0,2.5907993E-2,0E0,0E0],"parents":[2147483647,0,0,2,2,4,4],"right_children":[2,-1,4,-1,6,-1,-1],"split_conditions":[2.0966399E0,6.566671E-4,-1.489953E0,-8.589167E-5,-2.374608E0,-2.4104065E-4,-3.2968484E-4],"split_indices":[6,0,8,0,0,0,0],"split_type":[0,0,0,0,0,0,0],"sum_hessian":[2.5707E4,6.44E3,1.9267E4,6.485E3,1.2782E4,6.361E3,6.421E3],"tree_param":{"num_deleted":"0","num_feature":"13","num_nodes":"7","size_leaf_vector":"1"}},{"base_weights":[-1.4455143E-5,6.3695933E-4,-7.0907637E-3,-8.330978E-5,-9.24116E-3,-2.3381335E-4,-3.1979807E-4],"categories":[],"categories_nodes":[],"categories_segments":[],"categories_sizes":[],"default_left":[0,0,0,0,0,0,0],"id":90,"left_children":[1,-1,3,-1,5,-1,-1],"loss_changes":[3.8609827E0,0E0,1.7757356E-1,0E0,2.4453044E-2,0E0,0E0],"parents":[2147483647,0,0,2,2,4,4],"right_children":[2,-1,4,-1,6,-1,-1],"split_conditions":[2.0966399E0,6.3695933E-4,-1.489953E0,-8.330978E-5,-4.118316E0,-2.3381335E-4,-3.1979807E-4],"split_indices":[6,0,8,0,5,0,0],"split_type":[0,0,0,0,0,0,0],"sum_hessian":[2.5688E4,6.414E3,1.9274E4,6.428E3,1.2846E4,6.397E3,6.449E3],"tree_param":{"num_deleted":"0","num_feature":"13","num_nodes":"7","size_leaf_vector":"1"}},{"base_weights":[2.7814034E-5,6.1785977E-4,-6.8787024E-3,-8.08067E-5,-8.959293E-3,-2.2679918E-4,-3.1020044E-4],"categories":[],"categories_nodes":[],"categories_segments":[],"categories_sizes":[],"default_left":[0,0,0,0,0,0,0],"id":91,"left_children":[1,-1,3,-1,5,-1,-1],"loss_changes":[3.6321657E0,0E0,1.653952E-1,0E0,2.2788882E-2,0E0,0E0],"parents":[2147483647,0,0,2,2,4,4],"right_children":[2,-1,4,-1,6,-1,-1],"split_conditions":[2.0966399E0,6.1785977E-4,-1.489953E0,-8.08067E-5,-2.374608E0,-2.2679918E-4,-3.1020044E-4],"split_indices":[6,0,8,0,0,0,0],"split_type":[0,0,0,0,0,0,0],"sum_hessian":[2.5558E4,6.428E3,1.913E4,6.369E3,1.2761E4,6.377E3,6.384E3],"tree_param":{"num_deleted":"0","num_feature":"13","num_nodes":"7","size_leaf_vector":"1"}},{"base_weights":[-0E0,5.993313E-4,-6.672125E-3,-7.8385194E-5,-8.690593E-3,-2.1999722E-4,-3.0089798E-4],"categories":[],"categories_nodes":[],"categories_segments":[],"categories_sizes":[],"default_left":[0,0,0,0,0,0,0],"id":92,"left_children":[1,-1,3,-1,5,-1,-1],"loss_changes":[3.4148395E0,0E0,1.562776E-1,0E0,2.1489084E-2,0E0,0E0],"parents":[2147483647,0,0,2,2,4,4],"right_children":[2,-1,4,-1,6,-1,-1],"split_conditions":[-1.4923838E0,5.993313E-4,-1.489953E0,-7.8385194E-5,-2.374608E0,-2.1999722E-4,-3.0089798E-4],"split_indices":[8,0,8,0,0,0,0],"split_type":[0,0,0,0,0,0,0],"sum_hessian":[2.5625E4,6.412E3,1.9213E4,6.398E3,1.2815E4,6.405E3,6.41E3],"tree_param":{"num_deleted":"0","num_feature":"13","num_nodes":"7","size_leaf_vector":"1"}},{"base_weights":[-6.378885E-5,5.813557E-4,-6.4945533E-3,-7.602694E-5,-8.437812E-3,-2.1339573E-4,-2.918753E-4],"categories":[],"categories_nodes":[],"categories_segments":[],"categories_sizes":[],"default_left":[0,0,0,0,0,0,0],"id":93,"left_children":[1,-1,3,-1,5,-1,-1],"loss_changes":[3.1803238E0,0E0,1.4607382E-1,0E0,2.0163953E-2,0E0,0E0],"parents":[2147483647,0,0,2,2,4,4],"right_children":[2,-1,4,-1,6,-1,-1],"split_conditions":[-1.4923838E0,5.813557E-4,-1.489953E0,-7.602694E-5,-2.374608E0,-2.1339573E-4,-2.918753E-4],"split_indices":[8,0,8,0,0,0,0],"split_type":[0,0,0,0,0,0,0],"sum_hessian":[2.5445E4,6.32E3,1.9125E4,6.313E3,1.2812E4,6.366E3,6.446E3],"tree_param":{"num_deleted":"0","num_feature":"13","num_nodes":"7","size_leaf_vector":"1"}},{"base_weights":[2.7138642E-5,5.63899E-4,-6.2775915E-3,-7.3753916E-5,-8.18079E-3,-2.0699608E-4,-2.831181E-4],"categories":[],"categories_nodes":[],"categories_segments":[],"categories_sizes":[],"default_left":[0,0,0,0,0,0,0],"id":94,"left_children":[1,-1,3,-1,5,-1,-1],"loss_changes":[3.0372956E0,0E0,1.3847953E-1,0E0,1.8897355E-2,0E0,0E0],"parents":[2147483647,0,0,2,2,4,4],"right_children":[2,-1,4,-1,6,-1,-1],"split_conditions":[2.0966399E0,5.63899E-4,-1.489953E0,-7.3753916E-5,-4.118316E0,-2.0699608E-4,-2.831181E-4],"split_indices":[6,0,8,0,5,0,0],"split_type":[0,0,0,0,0,0,0],"sum_hessian":[2.5654E4,6.454E3,1.92E4,6.404E3,1.2796E4,6.379E3,6.417E3],"tree_param":{"num_deleted":"0","num_feature":"13","num_nodes":"7","size_leaf_vector":"1"}},{"base_weights":[2.219866E-5,5.4700323E-4,-6.076245E-3,-7.154308E-5,-7.928285E-3,-2.0078833E-4,-2.746209E-4],"categories":[],"categories_nodes":[],"categories_segments":[],"categories_sizes":[],"default_left":[0,0,0,0,0,0,0],"id":95,"left_children":[1,-1,3,-1,5,-1,-1],"loss_changes":[2.8442464E0,0E0,1.3003099E-1,0E0,1.765877E-2,0E0,0E0],"parents":[2147483647,0,0,2,2,4,4],"right_children":[2,-1,4,-1,6,-1,-1],"split_conditions":[2.0966399E0,5.4700323E-4,-1.489953E0,-7.154308E-5,-2.374608E0,-2.0078833E-4,-2.746209E-4],"split_indices":[6,0,8,0,0,0,0],"split_type":[0,0,0,0,0,0,0],"sum_hessian":[2.5597E4,6.425E3,1.9172E4,6.424E3,1.2748E4,6.393E3,6.355E3],"tree_param":{"num_deleted":"0","num_feature":"13","num_nodes":"7","size_leaf_vector":"1"}},{"base_weights":[2.39694E-6,5.3059414E-4,-5.916586E-3,-6.9391615E-5,-7.695616E-3,-1.9476625E-4,-2.6638852E-4],"categories":[],"categories_nodes":[],"categories_segments":[],"categories_sizes":[],"default_left":[0,0,0,0,0,0,0],"id":96,"left_children":[1,-1,3,-1,5,-1,-1],"loss_changes":[2.6811922E0,0E0,1.2193388E-1,0E0,1.6673028E-2,0E0,0E0],"parents":[2147483647,0,0,2,2,4,4],"right_children":[2,-1,4,-1,6,-1,-1],"split_conditions":[-1.4923838E0,5.3059414E-4,-1.489953E0,-6.9391615E-5,-2.374608E0,-1.9476625E-4,-2.6638852E-4],"split_indices":[8,0,8,0,0,0,0],"split_type":[0,0,0,0,0,0,0],"sum_hessian":[2.5602E4,6.424E3,1.9178E4,6.358E3,1.282E4,6.403E3,6.417E3],"tree_param":{"num_deleted":"0","num_feature":"13","num_nodes":"7","size_leaf_vector":"1"}},{"base_weights":[-2.119594E-5,5.1467656E-4,-5.743762E-3,-6.731412E-5,-7.4714324E-3,-1.889243E-4,-2.5840386E-4],"categories":[],"categories_nodes":[],"categories_segments":[],"categories_sizes":[],"default_left":[0,0,0,0,0,0,0],"id":97,"left_children":[1,-1,3,-1,5,-1,-1],"loss_changes":[2.5266645E0,0E0,1.1567813E-1,0E0,1.5746891E-2,0E0,0E0],"parents":[2147483647,0,0,2,2,4,4],"right_children":[2,-1,4,-1,6,-1,-1],"split_conditions":[2.0966399E0,5.1467656E-4,-1.489953E0,-6.731412E-5,-2.374608E0,-1.889243E-4,-2.5840386E-4],"split_indices":[6,0,8,0,0,0,0],"split_type":[0,0,0,0,0,0,0],"sum_hessian":[2.5714E4,6.421E3,1.9293E4,6.396E3,1.2897E4,6.406E3,6.491E3],"tree_param":{"num_deleted":"0","num_feature":"13","num_nodes":"7","size_leaf_vector":"1"}},{"base_weights":[2.8086129E-6,4.9923273E-4,-5.5426955E-3,-6.529819E-5,-7.2497553E-3,-1.832457E-4,-2.506436E-4],"categories":[],"categories_nodes":[],"categories_segments":[],"categories_sizes":[],"default_left":[0,0,0,0,0,0,0],"id":98,"left_children":[1,-1,3,-1,5,-1,-1],"loss_changes":[2.34803E0,0E0,1.0863721E-1,0E0,1.4441311E-2,0E0,0E0],"parents":[2147483647,0,0,2,2,4,4],"right_children":[2,-1,4,-1,6,-1,-1],"split_conditions":[2.0966399E0,4.9923273E-4,-1.489953E0,-6.529819E-5,-2.374608E0,-1.832457E-4,-2.506436E-4],"split_indices":[6,0,8,0,0,0,0],"split_type":[0,0,0,0,0,0,0],"sum_hessian":[2.5434E4,6.362E3,1.9072E4,6.438E3,1.2634E4,6.262E3,6.372E3],"tree_param":{"num_deleted":"0","num_feature":"13","num_nodes":"7","size_leaf_vector":"1"}},{"base_weights":[1.5669798E-8,4.8411955E-4,-5.2939844E-3,-1.8910973E-3,-7.021112E-3,-6.334015E-5,4.5164584E-4,-1.7776103E-4,-2.4312643E-4],"categories":[],"categories_nodes":[],"categories_segments":[],"categories_sizes":[],"default_left":[0,0,0,0,0,0,0,0,0],"id":99,"left_children":[1,-1,3,5,7,-1,-1,-1,-1],"loss_changes":[2.1931553E0,0E0,1.1261988E-1,2.3086272E-2,1.3731837E-2,0E0,0E0,0E0,0E0],"parents":[2147483647,0,0,2,2,3,3,4,4],"right_children":[2,-1,4,6,8,-1,-1,-1,-1],"split_conditions":[-4.1901574E0,4.8411955E-4,-4.877044E1,-4.882151E1,-2.374608E0,-6.334015E-5,4.5164584E-4,-1.7776103E-4,-2.4312643E-4],"split_indices":[5,0,9,9,0,0,0,0,0],"split_type":[0,0,0,0,0,0,0,0,0],"sum_hessian":[2.5657E4,6.342E3,1.9315E4,6.523E3,1.2792E4,6.446E3,7.7E1,6.408E3,6.384E3],"tree_param":{"num_deleted":"0","num_feature":"13","num_nodes":"9","size_leaf_vector":"1"}},{"base_weights":[-4.5899837E-6,4.6976437E-4,-5.2225185E-3,-6.144091E-5,-6.8102204E-3,-1.7243184E-4,-2.3583537E-4],"categories":[],"categories_nodes":[],"categories_segments":[],"categories_sizes":[],"default_left":[0,0,0,0,0,0,0],"id":100,"left_children":[1,-1,3,-1,5,-1,-1],"loss_changes":[2.1006567E0,0E0,9.634471E-2,0E0,1.2931526E-2,0E0,0E0],"parents":[2147483647,0,0,2,2,4,4],"right_children":[2,-1,4,-1,6,-1,-1],"split_conditions":[2.0966399E0,4.6976437E-4,-1.489953E0,-6.144091E-5,2.1714451E0,-1.7243184E-4,-2.3583537E-4],"split_indices":[6,0,8,0,6,0,0],"split_type":[0,0,0,0,0,0,0],"sum_hessian":[2.5713E4,6.42E3,1.9293E4,6.454E3,1.2839E4,6.435E3,6.404E3],"tree_param":{"num_deleted":"0","num_feature":"13","num_nodes":"7","size_leaf_vector":"1"}},{"base_weights":[3.7141675E-5,4.5568089E-4,-5.0787805E-3,-5.958685E-5,-6.60602E-3,-1.6725609E-4,-2.2875777E-4],"categories":[],"categories_nodes":[],"categories_segments":[],"categories_sizes":[],"default_left":[0,0,0,0,0,0,0],"id":101,"left_children":[1,-1,3,-1,5,-1,-1],"loss_changes":[1.9797246E0,0E0,8.923432E-2,0E0,1.2032151E-2,0E0,0E0],"parents":[2147483647,0,0,2,2,4,4],"right_children":[2,-1,4,-1,6,-1,-1],"split_conditions":[2.0966399E0,4.5568089E-4,-1.489953E0,-5.958685E-5,2.1714451E0,-1.6725609E-4,-2.2875777E-4],"split_indices":[6,0,8,0,6,0,0],"split_type":[0,0,0,0,0,0,0],"sum_hessian":[2.5524E4,6.447E3,1.9077E4,6.329E3,1.2748E4,6.39E3,6.358E3],"tree_param":{"num_deleted":"0","num_feature":"13","num_nodes":"7","size_leaf_vector":"1"}},{"base_weights":[1.9186333E-5,4.4199885E-4,-4.9242983E-3,-5.7805282E-5,-6.4141164E-3,-1.6223706E-4,-2.2190061E-4],"categories":[],"categories_nodes":[],"categories_segments":[],"categories_sizes":[],"default_left":[0,0,0,0,0,0,0],"id":102,"left_children":[1,-1,3,-1,5,-1,-1],"loss_changes":[1.8648442E0,0E0,8.478266E-2,0E0,1.132077E-2,0E0,0E0],"parents":[2147483647,0,0,2,2,4,4],"right_children":[2,-1,4,-1,6,-1,-1],"split_conditions":[2.0966399E0,4.4199885E-4,-4.882151E1,-5.7805282E-5,-2.374608E0,-1.6223706E-4,-2.2190061E-4],"split_indices":[6,0,9,0,0,0,0],"split_type":[0,0,0,0,0,0,0],"sum_hessian":[2.5622E4,6.448E3,1.9174E4,6.389E3,1.2785E4,6.37E3,6.415E3],"tree_param":{"num_deleted":"0","num_feature":"13","num_nodes":"7","size_leaf_vector":"1"}},{"base_weights":[1.7024684E-5,4.2858263E-4,-4.696267E-3,-1.6923413E-3,-6.2153554E-3,-5.6073546E-5,3.927293E-4,-1.5737244E-4,-2.152395E-4],"categories":[],"categories_nodes":[],"categories_segments":[],"categories_sizes":[],"default_left":[0,0,0,0,0,0,0,0,0],"id":103,"left_children":[1,-1,3,5,7,-1,-1,-1,-1],"loss_changes":[1.7211211E0,0E0,8.690852E-2,1.5834171E-2,1.0573059E-2,0E0,0E0,0E0,0E0],"parents":[2147483647,0,0,2,2,3,3,4,4],"right_children":[2,-1,4,6,8,-1,-1,-1,-1],"split_conditions":[-4.1901574E0,4.2858263E-4,-4.877044E1,-4.882151E1,-2.374608E0,-5.6073546E-5,3.927293E-4,-1.5737244E-4,-2.152395E-4],"split_indices":[5,0,9,9,0,0,0,0,0],"split_type":[0,0,0,0,0,0,0,0,0],"sum_hessian":[2.5575E4,6.355E3,1.922E4,6.478E3,1.2742E4,6.409E3,6.9E1,6.392E3,6.35E3],"tree_param":{"num_deleted":"0","num_feature":"13","num_nodes":"9","size_leaf_vector":"1"}},{"base_weights":[-5.8589476E-6,4.157227E-4,-4.552201E-3,-1.6057224E-3,-5.7883756E-3,-3.9602496E-4,-5.4172644E-5,-4.7266176E-3,-2.0878632E-4,-5.1121013E-5,3.831293E-4,-4.0728287E-3,-1.5240684E-4,-1.5151918E-4,-5.1391038E-5],"categories":[],"categories_nodes":[],"categories_segments":[],"categories_sizes":[],"default_left":[0,0,0,0,0,0,0,0,0,0,0,0,0,0,0],"id":104,"left_children":[1,-1,3,5,7,9,-1,11,-1,-1,-1,13,-1,-1,-1],"loss_changes":[1.6096042E0,0E0,6.935948E-2,1.1617746E-3,1.5629232E-2,1.4122586E-2,0E0,7.162988E-4,0E0,0E0,0E0,5.3443015E-3,0E0,0E0,0E0],"parents":[2147483647,0,0,2,2,3,3,4,4,5,5,7,7,11,11],"right_children":[2,-1,4,6,8,10,-1,12,-1,-1,-1,14,-1,-1,-1],"split_conditions":[-4.1901574E0,4.157227E-4,-4.184486E0,-4.1900744E0,-2.374608E0,-4.190144E0,-5.4172644E-5,-4.1814494E0,-2.0878632E-4,-5.1121013E-5,3.831293E-4,-4.181866E0,-1.5240684E-4,-1.5151918E-4,-5.1391038E-5],"split_indices":[5,0,5,5,0,5,0,5,0,0,0,5,0,0,0],"split_type":[0,0,0,0,0,0,0,0,0,0,0,0,0,0,0],"sum_hessian":[2.5551E4,6.304E3,1.9247E4,5.713E3,1.3534E4,8.82E2,4.831E3,7.146E3,6.388E3,8.1E2,7.2E1,2.612E3,4.534E3,1.816E3,7.96E2],"tree_param":{"num_deleted":"0","num_feature":"13","num_nodes":"15","size_leaf_vector":"1"}},{"base_weights":[-1.8949902E-5,4.0342775E-4,-4.5009027E-3,-5.2788422E-5,-5.8515035E-3,-1.4809487E-4,-2.0252983E-4],"categories":[],"categories_nodes":[],"categories_segments":[],"categories_sizes":[],"default_left":[0,0,0,0,0,0,0],"id":105,"left_children":[1,-1,3,-1,5,-1,-1],"loss_changes":[1.5555764E0,0E0,7.0884526E-2,0E0,9.4489455E-3,0E0,0E0],"parents":[2147483647,0,0,2,2,4,4],"right_children":[2,-1,4,-1,6,-1,-1],"split_conditions":[2.0966399E0,4.0342775E-4,-1.489953E0,-5.2788422E-5,-2.374608E0,-1.4809487E-4,-2.0252983E-4],"split_indices":[6,0,8,0,0,0,0],"split_type":[0,0,0,0,0,0,0],"sum_hessian":[2.5786E4,6.433E3,1.9353E4,6.413E3,1.294E4,6.473E3,6.467E3],"tree_param":{"num_deleted":"0","num_feature":"13","num_nodes":"7","size_leaf_vector":"1"}},{"base_weights":[7.753429E-7,3.9134137E-4,-4.349243E-3,-5.1206676E-5,-5.67415E-3,-1.4364607E-4,-1.9644664E-4],"categories":[],"categories_nodes":[],"categories_segments":[],"categories_sizes":[],"default_left":[0,0,0,0,0,0,0],"id":106,"left_children":[1,-1,3,-1,5,-1,-1],"loss_changes":[1.4534483E0,0E0,6.644094E-2,0E0,8.713782E-3,0E0,0E0],"parents":[2147483647,0,0,2,2,4,4],"right_children":[2,-1,4,-1,6,-1,-1],"split_conditions":[2.0966399E0,3.9134137E-4,-1.489953E0,-5.1206676E-5,-2.374608E0,-1.4364607E-4,-1.9644664E-4],"split_indices":[6,0,8,0,0,0,0],"split_type":[0,0,0,0,0,0,0],"sum_hessian":[2.5598E4,6.407E3,1.9191E4,6.435E3,1.2756E4,6.395E3,6.361E3],"tree_param":{"num_deleted":"0","num_feature":"13","num_nodes":"7","size_leaf_vector":"1"}},{"base_weights":[-2.9178887E-6,3.7961232E-4,-4.2307484E-3,-4.9667673E-5,-5.5057746E-3,-1.3933914E-4,-1.9055737E-4],"categories":[],"categories_nodes":[],"categories_segments":[],"categories_sizes":[],"default_left":[0,0,0,0,0,0,0],"id":107,"left_children":[1,-1,3,-1,5,-1,-1],"loss_changes":[1.3693938E0,0E0,6.231919E-2,0E0,8.209109E-3,0E0,0E0],"parents":[2147483647,0,0,2,2,4,4],"right_children":[2,-1,4,-1,6,-1,-1],"split_conditions":[-1.4923838E0,3.7961232E-4,-1.489953E0,-4.9667673E-5,-2.374608E0,-1.3933914E-4,-1.9055737E-4],"split_indices":[8,0,8,0,0,0,0],"split_type":[0,0,0,0,0,0,0],"sum_hessian":[2.5605E4,6.405E3,1.92E4,6.385E3,1.2815E4,6.413E3,6.402E3],"tree_param":{"num_deleted":"0","num_feature":"13","num_nodes":"7","size_leaf_vector":"1"}},{"base_weights":[-2.3774288E-5,3.681999E-4,-4.107299E-3,-4.8177084E-5,-5.3461557E-3,-1.35156E-4,-1.8484434E-4],"categories":[],"categories_nodes":[],"categories_segments":[],"categories_sizes":[],"default_left":[0,0,0,0,0,0,0],"id":108,"left_children":[1,-1,3,-1,5,-1,-1],"loss_changes":[1.2823411E0,0E0,5.8760464E-2,0E0,7.685989E-3,0E0,0E0],"parents":[2147483647,0,0,2,2,4,4],"right_children":[2,-1,4,-1,6,-1,-1],"split_conditions":[2.0966399E0,3.681999E-4,-1.489953E0,-4.8177084E-5,-2.374608E0,-1.35156E-4,-1.8484434E-4],"split_indices":[6,0,8,0,0,0,0],"split_type":[0,0,0,0,0,0,0],"sum_hessian":[2.5551E4,6.363E3,1.9188E4,6.383E3,1.2805E4,6.367E3,6.438E3],"tree_param":{"num_deleted":"0","num_feature":"13","num_nodes":"7","size_leaf_vector":"1"}},{"base_weights":[2.848039E-5,3.571778E-4,-3.9747497E-3,-4.673585E-5,-5.184515E-3,-1.3110174E-4,-1.7929739E-4],"categories":[],"categories_nodes":[],"categories_segments":[],"categories_sizes":[],"default_left":[0,0,0,0,0,0,0],"id":109,"left_children":[1,-1,3,-1,5,-1,-1],"loss_changes":[1.2216867E0,0E0,5.545008E-2,0E0,7.1745813E-3,0E0,0E0],"parents":[2147483647,0,0,2,2,4,4],"right_children":[2,-1,4,-1,6,-1,-1],"split_conditions":[2.0966399E0,3.571778E-4,-1.489953E0,-4.673585E-5,-2.374608E0,-1.3110174E-4,-1.7929739E-4],"split_indices":[6,0,8,0,0,0,0],"split_type":[0,0,0,0,0,0,0],"sum_hessian":[2.5675E4,6.478E3,1.9197E4,6.432E3,1.2765E4,6.359E3,6.406E3],"tree_param":{"num_deleted":"0","num_feature":"13","num_nodes":"7","size_leaf_vector":"1"}},{"base_weights":[-3.0274516E-5,3.4644883E-4,-3.85915E-3,-4.5335462E-5,-5.027516E-3,-1.2717364E-4,-1.7392125E-4],"categories":[],"categories_nodes":[],"categories_segments":[],"categories_sizes":[],"default_left":[0,0,0,0,0,0,0],"id":110,"left_children":[1,-1,3,-1,5,-1,-1],"loss_changes":[1.1362371E0,0E0,5.2229106E-2,0E0,6.768048E-3,0E0,0E0],"parents":[2147483647,0,0,2,2,4,4],"right_children":[2,-1,4,-1,6,-1,-1],"split_conditions":[2.0966399E0,3.4644883E-4,-1.489953E0,-4.5335462E-5,-2.374608E0,-1.2717364E-4,-1.7392125E-4],"split_indices":[6,0,8,0,0,0,0],"split_type":[0,0,0,0,0,0,0],"sum_hessian":[2.5645E4,6.366E3,1.9279E4,6.435E3,1.2844E4,6.413E3,6.431E3],"tree_param":{"num_deleted":"0","num_feature":"13","num_nodes":"7","size_leaf_vector":"1"}},{"base_weights":[-7.341579E-6,3.3607436E-4,-3.7345807E-3,-4.3977318E-5,-4.875892E-3,-1.2335638E-4,-1.6870094E-4],"categories":[],"categories_nodes":[],"categories_segments":[],"categories_sizes":[],"default_left":[0,0,0,0,0,0,0],"id":111,"left_children":[1,-1,3,-1,5,-1,-1],"loss_changes":[1.0701594E0,0E0,4.9181193E-2,0E0,6.297171E-3,0E0,0E0],"parents":[2147483647,0,0,2,2,4,4],"right_children":[2,-1,4,-1,6,-1,-1],"split_conditions":[2.0966399E0,3.3607436E-4,-1.489953E0,-4.3977318E-5,-2.374608E0,-1.2335638E-4,-1.6870094E-4],"split_indices":[6,0,8,0,0,0,0],"split_type":[0,0,0,0,0,0,0],"sum_hessian":[2.5629E4,6.388E3,1.9241E4,6.47E3,1.2771E4,6.385E3,6.386E3],"tree_param":{"num_deleted":"0","num_feature":"13","num_nodes":"7","size_leaf_vector":"1"}},{"base_weights":[-7.002045E-6,3.2597332E-4,-3.632127E-3,-4.2651933E-5,-4.7284677E-3,-1.1965865E-4,-1.6364173E-4],"categories":[],"categories_nodes":[],"categories_segments":[],"categories_sizes":[],"default_left":[0,0,0,0,0,0,0],"id":112,"left_children":[1,-1,3,-1,5,-1,-1],"loss_changes":[1.0095273E0,0E0,4.5976788E-2,0E0,5.9239566E-3,0E0,0E0],"parents":[2147483647,0,0,2,2,4,4],"right_children":[2,-1,4,-1,6,-1,-1],"split_conditions":[2.0966399E0,3.2597332E-4,-1.489953E0,-4.2651933E-5,-2.374608E0,-1.1965865E-4,-1.6364173E-4],"split_indices":[6,0,8,0,0,0,0],"split_type":[0,0,0,0,0,0,0],"sum_hessian":[2.5629E4,6.401E3,1.9228E4,6.406E3,1.2822E4,6.423E3,6.399E3],"tree_param":{"num_deleted":"0","num_feature":"13","num_nodes":"7","size_leaf_vector":"1"}},{"base_weights":[-0E0,3.1619772E-4,-3.5224033E-3,-4.137254E-5,-4.58839E-3,-1.1606639E-4,-1.587323E-4],"categories":[],"categories_nodes":[],"categories_segments":[],"categories_sizes":[],"default_left":[0,0,0,0,0,0,0],"id":113,"left_children":[1,-1,3,-1,5,-1,-1],"loss_changes":[9.488244E-1,0E0,4.319556E-2,0E0,5.520433E-3,0E0,0E0],"parents":[2147483647,0,0,2,2,4,4],"right_children":[2,-1,4,-1,6,-1,-1],"split_conditions":[-1.4923838E0,3.1619772E-4,-1.489953E0,-4.137254E-5,-2.374608E0,-1.1606639E-4,-1.587323E-4],"split_indices":[8,0,8,0,0,0,0],"split_type":[0,0,0,0,0,0,0],"sum_hessian":[2.5568E4,6.399E3,1.9169E4,6.399E3,1.277E4,6.383E3,6.387E3],"tree_param":{"num_deleted":"0","num_feature":"13","num_nodes":"7","size_leaf_vector":"1"}},{"base_weights":[-6.944036E-7,3.067113E-4,-3.4227513E-3,-4.0130057E-5,-4.4508735E-3,-1.1258751E-4,-1.5397252E-4],"categories":[],"categories_nodes":[],"categories_segments":[],"categories_sizes":[],"default_left":[0,0,0,0,0,0,0],"id":114,"left_children":[1,-1,3,-1,5,-1,-1],"loss_changes":[8.945705E-1,0E0,4.0527448E-2,0E0,5.186707E-3,0E0,0E0],"parents":[2147483647,0,0,2,2,4,4],"right_children":[2,-1,4,-1,6,-1,-1],"split_conditions":[2.0966399E0,3.067113E-4,-1.489953E0,-4.0130057E-5,-2.374608E0,-1.1258751E-4,-1.5397252E-4],"split_indices":[6,0,8,0,0,0,0],"split_type":[0,0,0,0,0,0,0],"sum_hessian":[2.5585E4,6.408E3,1.9177E4,6.366E3,1.2811E4,6.405E3,6.406E3],"tree_param":{"num_deleted":"0","num_feature":"13","num_nodes":"7","size_leaf_vector":"1"}},{"base_weights":[-1.0432866E-5,2.9751376E-4,-3.3077789E-3,-3.893325E-5,-4.3159453E-3,-1.09209665E-4,-1.4935122E-4],"categories":[],"categories_nodes":[],"categories_segments":[],"categories_sizes":[],"default_left":[0,0,0,0,0,0,0],"id":115,"left_children":[1,-1,3,-1,5,-1,-1],"loss_changes":[8.3731204E-1,0E0,3.8388893E-2,0E0,4.834801E-3,0E0,0E0],"parents":[2147483647,0,0,2,2,4,4],"right_children":[2,-1,4,-1,6,-1,-1],"split_conditions":[-1.4923838E0,2.9751376E-4,-1.489953E0,-3.893325E-5,-2.374608E0,-1.09209665E-4,-1.4935122E-4],"split_indices":[8,0,8,0,0,0,0],"split_type":[0,0,0,0,0,0,0],"sum_hessian":[2.5597E4,6.374E3,1.9223E4,6.455E3,1.2768E4,6.399E3,6.369E3],"tree_param":{"num_deleted":"0","num_feature":"13","num_nodes":"7","size_leaf_vector":"1"}},{"base_weights":[-3.4242082E-6,2.885926E-4,-3.2140235E-3,-3.7761616E-5,-4.1861194E-3,-1.05934756E-4,-1.4487098E-4],"categories":[],"categories_nodes":[],"categories_segments":[],"categories_sizes":[],"default_left":[0,0,0,0,0,0,0],"id":116,"left_children":[1,-1,3,-1,5,-1,-1],"loss_changes":[7.890037E-1,0E0,3.589128E-2,0E0,4.5245737E-3,0E0,0E0],"parents":[2147483647,0,0,2,2,4,4],"right_children":[2,-1,4,-1,6,-1,-1],"split_conditions":[2.0966399E0,2.885926E-4,-1.489953E0,-3.7761616E-5,-2.374608E0,-1.05934756E-4,-1.4487098E-4],"split_indices":[6,0,8,0,0,0,0],"split_type":[0,0,0,0,0,0,0],"sum_hessian":[2.5556E4,6.385E3,1.9171E4,6.401E3,1.277E4,6.406E3,6.364E3],"tree_param":{"num_deleted":"0","num_feature":"13","num_nodes":"7","size_leaf_vector":"1"}},{"base_weights":[-2.2043048E-5,2.7992929E-4,-3.1176715E-3,-3.663207E-5,-4.0660664E-3,-1.0275332E-4,-1.4053E-4],"categories":[],"categories_nodes":[],"categories_segments":[],"categories_sizes":[],"default_left":[0,0,0,0,0,0,0],"id":117,"left_children":[1,-1,3,-1,5,-1,-1],"loss_changes":[7.398929E-1,0E0,3.4045056E-2,0E0,4.237488E-3,0E0,0E0],"parents":[2147483647,0,0,2,2,4,4],"right_children":[2,-1,4,-1,6,-1,-1],"split_conditions":[2.0966399E0,2.7992929E-4,-1.489953E0,-3.663207E-5,-2.374608E0,-1.0275332E-4,-1.4053E-4],"split_indices":[6,0,8,0,0,0,0],"split_type":[0,0,0,0,0,0,0],"sum_hessian":[2.5574E4,6.351E3,1.9223E4,6.444E3,1.2779E4,6.357E3,6.422E3],"tree_param":{"num_deleted":"0","num_feature":"13","num_nodes":"7","size_leaf_vector":"1"}},{"base_weights":[-0E0,2.7153327E-4,-3.0149282E-3,-3.553881E-5,-3.9407336E-3,-9.967293E-5,-1.3631069E-4],"categories":[],"categories_nodes":[],"categories_segments":[],"categories_sizes":[],"default_left":[0,0,0,0,0,0,0],"id":118,"left_children":[1,-1,3,-1,5,-1,-1],"loss_changes":[6.998837E-1,0E0,3.2107055E-2,0E0,3.9512366E-3,0E0,0E0],"parents":[2147483647,0,0,2,2,4,4],"right_children":[2,-1,4,-1,6,-1,-1],"split_conditions":[2.0966399E0,2.7153327E-4,-1.489953E0,-3.553881E-5,-2.374608E0,-9.967293E-5,-1.3631069E-4],"split_indices":[6,0,8,0,0,0,0],"split_type":[0,0,0,0,0,0,0],"sum_hessian":[2.5658E4,6.406E3,1.9252E4,6.504E3,1.2748E4,6.379E3,6.369E3],"tree_param":{"num_deleted":"0","num_feature":"13","num_nodes":"7","size_leaf_vector":"1"}},{"base_weights":[-9.442768E-6,2.6338923E-4,-2.9321387E-3,-3.4467816E-5,-3.8236436E-3,-9.668222E-5,-1.3222333E-4],"categories":[],"categories_nodes":[],"categories_segments":[],"categories_sizes":[],"default_left":[0,0,0,0,0,0,0],"id":119,"left_children":[1,-1,3,-1,5,-1,-1],"loss_changes":[6.5640706E-1,0E0,3.0024558E-2,0E0,3.7004948E-3,0E0,0E0],"parents":[2147483647,0,0,2,2,4,4],"right_children":[2,-1,4,-1,6,-1,-1],"split_conditions":[2.0966399E0,2.6338923E-4,-1.489953E0,-3.4467816E-5,-4.118316E0,-9.668222E-5,-1.3222333E-4],"split_indices":[6,0,8,0,5,0,0],"split_type":[0,0,0,0,0,0,0],"sum_hessian":[2.5574E4,6.373E3,1.9201E4,6.438E3,1.2763E4,6.377E3,6.386E3],"tree_param":{"num_deleted":"0","num_feature":"13","num_nodes":"7","size_leaf_vector":"1"}},{"base_weights":[-1.5821533E-5,2.5547855E-4,-2.8502776E-3,-3.3428183E-5,-3.7042927E-3,-9.378872E-5,-1.2825493E-4],"categories":[],"categories_nodes":[],"categories_segments":[],"categories_sizes":[],"default_left":[0,0,0,0,0,0,0],"id":120,"left_children":[1,-1,3,-1,5,-1,-1],"loss_changes":[6.1694485E-1,0E0,2.7943864E-2,0E0,3.4746677E-3,0E0,0E0],"parents":[2147483647,0,0,2,2,4,4],"right_children":[2,-1,4,-1,6,-1,-1],"split_conditions":[2.0966399E0,2.5547855E-4,-1.489953E0,-3.3428183E-5,2.1714451E0,-9.378872E-5,-1.2825493E-4],"split_indices":[6,0,8,0,6,0,0],"split_type":[0,0,0,0,0,0,0],"sum_hessian":[2.5533E4,6.358E3,1.9175E4,6.362E3,1.2813E4,6.457E3,6.356E3],"tree_param":{"num_deleted":"0","num_feature":"13","num_nodes":"7","size_leaf_vector":"1"}},{"base_weights":[-3.5464873E-7,2.4783073E-4,-2.7686781E-3,-3.2425236E-5,-3.5991261E-3,-9.0971414E-5,-1.2441346E-4],"categories":[],"categories_nodes":[],"categories_segments":[],"categories_sizes":[],"default_left":[0,0,0,0,0,0,0],"id":121,"left_children":[1,-1,3,-1,5,-1,-1],"loss_changes":[5.8545315E-1,0E0,2.644141E-2,0E0,3.2537729E-3,0E0,0E0],"parents":[2147483647,0,0,2,2,4,4],"right_children":[2,-1,4,-1,6,-1,-1],"split_conditions":[-1.4923838E0,2.4783073E-4,-1.489953E0,-3.2425236E-5,-2.374608E0,-9.0971414E-5,-1.2441346E-4],"split_indices":[8,0,8,0,0,0,0],"split_type":[0,0,0,0,0,0,0],"sum_hessian":[2.5621E4,6.421E3,1.92E4,6.372E3,1.2828E4,6.399E3,6.429E3],"tree_param":{"num_deleted":"0","num_feature":"13","num_nodes":"7","size_leaf_vector":"1"}},{"base_weights":[-7.570709E-6,2.4039415E-4,-2.6799485E-3,-3.1458807E-5,-3.4890173E-3,-8.8245695E-5,-1.2068043E-4],"categories":[],"categories_nodes":[],"categories_segments":[],"categories_sizes":[],"default_left":[0,0,0,0,0,0,0],"id":122,"left_children":[1,-1,3,-1,5,-1,-1],"loss_changes":[5.504585E-1,0E0,2.5003836E-2,0E0,3.0473918E-3,0E0,0E0],"parents":[2147483647,0,0,2,2,4,4],"right_children":[2,-1,4,-1,6,-1,-1],"split_conditions":[2.0966399E0,2.4039415E-4,-4.882151E1,-3.1458807E-5,-2.374608E0,-8.8245695E-5,-1.2068043E-4],"split_indices":[6,0,9,0,0,0,0],"split_type":[0,0,0,0,0,0,0],"sum_hessian":[2.5704E4,6.414E3,1.929E4,6.437E3,1.2853E4,6.44E3,6.413E3],"tree_param":{"num_deleted":"0","num_feature":"13","num_nodes":"7","size_leaf_vector":"1"}},{"base_weights":[1.4803114E-6,2.3319462E-4,-2.5979467E-3,-3.050967E-5,-3.3821028E-3,-8.5595464E-5,-1.17053416E-4],"categories":[],"categories_nodes":[],"categories_segments":[],"categories_sizes":[],"default_left":[0,0,0,0,0,0,0],"id":123,"left_children":[1,-1,3,-1,5,-1,-1],"loss_changes":[5.157468E-1,0E0,2.3237735E-2,0E0,2.8113425E-3,0E0,0E0],"parents":[2147483647,0,0,2,2,4,4],"right_children":[2,-1,4,-1,6,-1,-1],"split_conditions":[2.0966399E0,2.3319462E-4,-1.489953E0,-3.050967E-5,-4.118316E0,-8.5595464E-5,-1.17053416E-4],"split_indices":[6,0,8,0,5,0,0],"split_type":[0,0,0,0,0,0,0],"sum_hessian":[2.5502E4,6.401E3,1.9101E4,6.376E3,1.2725E4,6.405E3,6.32E3],"tree_param":{"num_deleted":"0","num_feature":"13","num_nodes":"7","size_leaf_vector":"1"}},{"base_weights":[-8.920399E-6,2.2618407E-4,-2.522916E-3,-2.959576E-5,-3.2838082E-3,-8.302745E-5,-1.1354708E-4],"categories":[],"categories_nodes":[],"categories_segments":[],"categories_sizes":[],"default_left":[0,0,0,0,0,0,0],"id":124,"left_children":[1,-1,3,-1,5,-1,-1],"loss_changes":[4.8416123E-1,0E0,2.1978825E-2,0E0,2.6391447E-3,0E0,0E0],"parents":[2147483647,0,0,2,2,4,4],"right_children":[2,-1,4,-1,6,-1,-1],"split_conditions":[2.0966399E0,2.2618407E-4,-1.489953E0,-2.959576E-5,-2.374608E0,-8.302745E-5,-1.1354708E-4],"split_indices":[6,0,8,0,0,0,0],"split_type":[0,0,0,0,0,0,0],"sum_hessian":[2.5538E4,6.37E3,1.9168E4,6.393E3,1.2775E4,6.394E3,6.381E3],"tree_param":{"num_deleted":"0","num_feature":"13","num_nodes":"7","size_leaf_vector":"1"}},{"base_weights":[-2.5256215E-6,2.1941937E-4,-2.4491355E-3,-2.8708833E-5,-3.1870755E-3,-8.0534584E-5,-1.1014205E-4],"categories":[],"categories_nodes":[],"categories_segments":[],"categories_sizes":[],"default_left":[0,0,0,0,0,0,0],"id":125,"left_children":[1,-1,3,-1,5,-1,-1],"loss_changes":[4.5633766E-1,0E0,2.0652756E-2,0E0,2.4600923E-3,0E0,0E0],"parents":[2147483647,0,0,2,2,4,4],