{"learner":{"attributes":{"scikit_learn":"{\"_estimator_type\": \"regressor\"}"},"feature_names":[],"feature_types":[],"gradient_booster":{"model":{"cats":{"enc":[],"feature_segments":[],"sorted_idx":[]},"gbtree_model_param":{"num_parallel_tree":"1","num_trees":"300"},"iteration_indptr":[0,1,2,3,4,5,6,7,8,9,10,11,12,13,14,15,16,17,18,19,20,21,22,23,24,25,26,27,28,29,30,31,32,33,34,35,36,37,38,39,40,41,42,43,44,45,46,47,48,49,50,51,52,53,54,55,56,57,58,59,60,61,62,63,64,65,66,67,68,69,70,71,72,73,74,75,76,77,78,79,80,81,82,83,84,85,86,87,88,89,90,91,92,93,94,95,96,97,98,99,100,101,102,103,104,105,106,107,108,109,110,111,112,113,114,115,116,117,118,119,120,121,122,123,124,125,126,127,128,129,130,131,132,133,134,135,136,137,138,139,140,141,142,143,144,145,146,147,148,149,150,151,152,153,154,155,156,157,158,159,160,161,162,163,164,165,166,167,168,169,170,171,172,173,174,175,176,177,178,179,180,181,182,183,184,185,186,187,188,189,190,191,192,193,194,195,196,197,198,199,200,201,202,203,204,205,206,207,208,209,210,211,212,213,214,215,216,217,218,219,220,221,222,223,224,225,226,227,228,229,230,231,232,233,234,235,236,237,238,239,240,241,242,243,244,245,246,247,248,249,250,251,252,253,254,255,256,257,258,259,260,261,262,263,264,265,266,267,268,269,270,271,272,273,274,275,276,277,278,279,280,281,282,283,284,285,286,287,288,289,290,291,292,293,294,295,296,297,298,299,300],"tree_info":[0,0,0,0,0,0,0,0,0,0,0,0,0,0,0,0,0,0,0,0,0,0,0,0,0,0,0,0,0,0,0,0,0,0,0,0,0,0,0,0,0,0,0,0,0,0,0,0,0,0,0,0,0,0,0,0,0,0,0,0,0,0,0,0,0,0,0,0,0,0,0,0,0,0,0,0,0,0,0,0,0,0,0,0,0,0,0,0,0,0,0,0,0,0,0,0,0,0,0,0,0,0,0,0,0,0,0,0,0,0,0,0,0,0,0,0,0,0,0,0,0,0,0,0,0,0,0,0,0,0,0,0,0,0,0,0,0,0,0,0,0,0,0,0,0,0,0,0,0,0,0,0,0,0,0,0,0,0,0,0,0,0,0,0,0,0,0,0,0,0,0,0,0,0,0,0,0,0,0,0,0,0,0,0,0,0,0,0,0,0,0,0,0,0,0,0,0,0,0,0,0,0,0,0,0,0,0,0,0,0,0,0,0,0,0,0,0,0,0,0,0,0,0,0,0,0,0,0,0,0,0,0,0,0,0,0,0,0,0,0,0,0,0,0,0,0,0,0,0,0,0,0,0,0,0,0,0,0,0,0,0,0,0,0,0,0,0,0,0,0,0,0,0,0,0,0,0,0,0,0,0,0,0,0,0,0,0,0,0,0,0,0,0,0,0,0,0,0,0,0],"trees":[{"base_weights":[-2.8404425E-4,1.6454963E-2,-1.0976912E-1,-2.151654E-3,-1.429672E-1,-6.039958E-3,-8.261799E-3],"categories":[],"categories_nodes":[],"categories_segments":[],"categories_sizes":[],"default_left":[0,0,0,0,0,0,0],"id":0,"left_children":[1,-1,3,-1,5,-1,-1],"loss_changes":[9.2242224E2,0E0,4.250856E1,0E0,6.2796326E0,0E0,0E0],"parents":[2147483647,0,0,2,2,4,4],"right_children":[2,-1,4,-1,6,-1,-1],"split_conditions":[1.8652594E-1,1.6454963E-2,9.212598E-1,-2.151654E-3,1.9607325E-1,-6.039958E-3,-8.261799E-3],"split_indices":[6,0,8,0,0,0,0],"split_type":[0,0,0,0,0,0,0],"sum_hessian":[2.5577E4,6.38E3,1.9197E4,6.379E3,1.2818E4,6.429E3,6.389E3],"tree_param":{"num_deleted":"0","num_feature":"13","num_nodes":"7","size_leaf_vector":"1"}},{"base_weights":[-1.1853686E-4,1.5632365E-2,-1.0407144E-1,-2.044105E-3,-1.3592076E-1,-5.7380027E-3,-7.848787E-3],"categories":[],"categories_nodes":[],"categories_segments":[],"categories_sizes":[],"default_left":[0,0,0,0,0,0,0],"id":1,"left_children":[1,-1,3,-1,5,-1,-1],"loss_changes":[8.370241E2,0E0,3.8865036E1,0E0,5.678192E0,0E0,0E0],"parents":[2147483647,0,0,2,2,4,4],"right_children":[2,-1,4,-1,6,-1,-1],"split_conditions":[1.8652594E-1,1.5632365E-2,6.0250753E-1,-2.044105E-3,1.9607325E-1,-5.7380027E-3,-7.848787E-3],"split_indices":[6,0,9,0,0,0,0],"split_type":[0,0,0,0,0,0,0],"sum_hessian":[2.5743E4,6.421E3,1.9322E4,6.477E3,1.2845E4,6.412E3,6.433E3],"tree_param":{"num_deleted":"0","num_feature":"13","num_nodes":"7","size_leaf_vector":"1"}},{"base_weights":[6.879491E-4,1.4850847E-2,-9.754958E-2,-3.488171E-2,-1.291325E-1,-1.9418983E-3,1.4596115E-2,-5.4511405E-3,-7.4564028E-3],"categories":[],"categories_nodes":[],"categories_segments":[],"categories_sizes":[],"default_left":[0,0,0,0,0,0,0,0,0],"id":2,"left_children":[1,-1,3,5,7,-1,-1,-1,-1],"loss_changes":[7.461835E2,0E0,3.8079346E1,8.329237E0,5.1040497E0,0E0,0E0,0E0,0E0],"parents":[2147483647,0,0,2,2,3,3,4,4],"right_children":[2,-1,4,6,8,-1,-1,-1,-1],"split_conditions":[1.918168E-1,1.4850847E-2,6.285218E-1,6.0250753E-1,1.9607325E-1,-1.9418983E-3,1.4596115E-2,-5.4511405E-3,-7.4564028E-3],"split_indices":[5,0,9,9,0,0,0,0,0],"split_type":[0,0,0,0,0,0,0,0,0],"sum_hessian":[2.563E4,6.381E3,1.9249E4,6.452E3,1.2797E4,6.376E3,7.6E1,6.386E3,6.411E3],"tree_param":{"num_deleted":"0","num_feature":"13","num_nodes":"9","size_leaf_vector":"1"}},{"base_weights":[5.716562E-5,1.4108594E-2,-9.405411E-2,-1.8448234E-3,-1.2259106E-1,-5.1786364E-3,-7.083636E-3],"categories":[],"categories_nodes":[],"categories_segments":[],"categories_sizes":[],"default_left":[0,0,0,0,0,0,0],"id":3,"left_children":[1,-1,3,-1,5,-1,-1],"loss_changes":[6.809777E2,0E0,3.1348953E1,0E0,4.6153564E0,0E0,0E0],"parents":[2147483647,0,0,2,2,4,4],"right_children":[2,-1,4,-1,6,-1,-1],"split_conditions":[8.346457E-1,1.4108594E-2,9.212598E-1,-1.8448234E-3,1.9607325E-1,-5.1786364E-3,-7.083636E-3],"split_indices":[8,0,8,0,0,0,0],"split_type":[0,0,0,0,0,0,0],"sum_hessian":[2.5646E4,6.415E3,1.9231E4,6.406E3,1.2825E4,6.429E3,6.396E3],"tree_param":{"num_deleted":"0","num_feature":"13","num_nodes":"7","size_leaf_vector":"1"}},{"base_weights":[-1.4092329E-5,1.3403255E-2,-8.9453526E-2,-1.7525926E-3,-1.16550386E-1,-4.9197357E-3,-6.7295157E-3],"categories":[],"categories_nodes":[],"categories_segments":[],"categories_sizes":[],"default_left":[0,0,0,0,0,0,0],"id":4,"left_children":[1,-1,3,-1,5,-1,-1],"loss_changes":[6.136936E2,0E0,2.8273453E1,0E0,4.1590576E0,0E0,0E0],"parents":[2147483647,0,0,2,2,4,4],"right_children":[2,-1,4,-1,6,-1,-1],"split_conditions":[8.346457E-1,1.3403255E-2,9.212598E-1,-1.7525926E-3,1.9607325E-1,-4.9197357E-3,-6.7295157E-3],"split_indices":[8,0,8,0,0,0,0],"split_type":[0,0,0,0,0,0,0],"sum_hessian":[2.5594E4,6.402E3,1.9192E4,6.383E3,1.2809E4,6.39E3,6.419E3],"tree_param":{"num_deleted":"0","num_feature":"13","num_nodes":"7","size_leaf_vector":"1"}},{"base_weights":[1.2300053E-4,1.2733216E-2,-8.4903695E-2,-4.6520907E-2,-1.136114E-1,-1.6648371E-3,-7.4790426E-2,-4.6731876E-3,-6.3931025E-3,-4.6699676E-3,-1.6578421E-3],"categories":[],"categories_nodes":[],"categories_segments":[],"categories_sizes":[],"default_left":[0,0,0,0,0,0,0,0,0,0,0],"id":5,"left_children":[1,-1,3,5,7,-1,9,-1,-1,-1,-1],"loss_changes":[5.568864E2,0E0,2.1230713E1,3.0731297E0,3.133377E0,0E0,2.0203085E0,0E0,0E0,0E0,0E0],"parents":[2147483647,0,0,2,2,3,3,4,4,6,6],"right_children":[2,-1,4,6,8,-1,10,-1,-1,-1,-1],"split_conditions":[1.8652594E-1,1.2733216E-2,2.7648503E-1,2.4695958E-1,1.9607325E-1,-1.6648371E-3,2.7243206E-1,-4.6731876E-3,-6.3931025E-3,-4.6699676E-3,-1.6578421E-3],"split_indices":[6,0,5,5,0,0,5,0,0,0,0],"split_type":[0,0,0,0,0,0,0,0,0,0,0],"sum_hessian":[2.5728E4,6.442E3,1.9286E4,8.255E3,1.1031E4,5.628E3,2.627E3,4.576E3,6.455E3,1.813E3,8.14E2],"tree_param":{"num_deleted":"0","num_feature":"13","num_nodes":"11","size_leaf_vector":"1"}},{"base_weights":[-5.534789E-4,1.2096623E-2,-8.075007E-2,-1.5817911E-3,-1.0521429E-1,-4.440205E-3,-6.073486E-3],"categories":[],"categories_nodes":[],"categories_segments":[],"categories_sizes":[],"default_left":[0,0,0,0,0,0,0],"id":6,"left_children":[1,-1,3,-1,5,-1,-1],"loss_changes":[4.9561807E2,0E0,2.2996101E1,0E0,3.3781128E0,0E0,0E0],"parents":[2147483647,0,0,2,2,4,4],"right_children":[2,-1,4,-1,6,-1,-1],"split_conditions":[1.8652594E-1,1.2096623E-2,9.212598E-1,-1.5817911E-3,8.903076E-1,-4.440205E-3,-6.073486E-3],"split_indices":[6,0,8,0,5,0,0],"split_type":[0,0,0,0,0,0,0],"sum_hessian":[2.5485E4,6.333E3,1.9152E4,6.37E3,1.2782E4,6.367E3,6.415E3],"tree_param":{"num_deleted":"0","num_feature":"13","num_nodes":"7","size_leaf_vector":"1"}},{"base_weights":[-2.9575723E-4,1.1491885E-2,-7.633901E-2,-1.5027317E-3,-9.982242E-2,-4.218242E-3,-5.7698437E-3],"categories":[],"categories_nodes":[],"categories_segments":[],"categories_sizes":[],"default_left":[0,0,0,0,0,0,0],"id":7,"left_children":[1,-1,3,-1,5,-1,-1],"loss_changes":[4.4842465E2,0E0,2.0919083E1,0E0,3.0460281E0,0E0,0E0],"parents":[2147483647,0,0,2,2,4,4],"right_children":[2,-1,4,-1,6,-1,-1],"split_conditions":[1.8652594E-1,1.1491885E-2,9.212598E-1,-1.5027317E-3,1.9607325E-1,-4.218242E-3,-5.7698437E-3],"split_indices":[6,0,8,0,0,0,0],"split_type":[0,0,0,0,0,0,0],"sum_hessian":[2.5623E4,6.363E3,1.926E4,6.485E3,1.2775E4,6.418E3,6.357E3],"tree_param":{"num_deleted":"0","num_feature":"13","num_nodes":"7","size_leaf_vector":"1"}},{"base_weights":[-4.83905E-4,1.09173935E-2,-7.259634E-2,-1.4276025E-3,-9.482689E-2,-4.007366E-3,-5.4814E-3],"categories":[],"categories_nodes":[],"categories_segments":[],"categories_sizes":[],"default_left":[0,0,0,0,0,0,0],"id":8,"left_children":[1,-1,3,-1,5,-1,-1],"loss_changes":[4.042343E2,0E0,1.8850815E1,0E0,2.7539902E0,0E0,0E0],"parents":[2147483647,0,0,2,2,4,4],"right_children":[2,-1,4,-1,6,-1,-1],"split_conditions":[1.8652594E-1,1.09173935E-2,6.0250753E-1,-1.4276025E-3,1.9607325E-1,-4.007366E-3,-5.4814E-3],"split_indices":[6,0,9,0,0,0,0],"split_type":[0,0,0,0,0,0,0],"sum_hessian":[2.5615E4,6.348E3,1.9267E4,6.465E3,1.2802E4,6.434E3,6.368E3],"tree_param":{"num_deleted":"0","num_feature":"13","num_nodes":"7","size_leaf_vector":"1"}},{"base_weights":[2.1324716E-4,1.0371621E-2,-6.895904E-2,-1.3562317E-3,-9.017531E-2,-3.8070125E-3,-5.2073733E-3],"categories":[],"categories_nodes":[],"categories_segments":[],"categories_sizes":[],"default_left":[0,0,0,0,0,0,0],"id":9,"left_children":[1,-1,3,-1,5,-1,-1],"loss_changes":[3.66716E2,0E0,1.7009415E1,0E0,2.4692154E0,0E0,0E0],"parents":[2147483647,0,0,2,2,4,4],"right_children":[2,-1,4,-1,6,-1,-1],"split_conditions":[1.8652594E-1,1.0371621E-2,9.212598E-1,-1.3562317E-3,1.9607325E-1,-3.8070125E-3,-5.2073733E-3],"split_indices":[6,0,8,0,0,0,0],"split_type":[0,0,0,0,0,0,0],"sum_hessian":[2.5581E4,6.402E3,1.9179E4,6.456E3,1.2723E4,6.354E3,6.369E3],"tree_param":{"num_deleted":"0","num_feature":"13","num_nodes":"7","size_leaf_vector":"1"}},{"base_weights":[-4.691396E-4,9.853101E-3,-6.56998E-2,-1.2884198E-3,-8.562288E-2,-3.6167016E-3,-4.9470477E-3],"categories":[],"categories_nodes":[],"categories_segments":[],"categories_sizes":[],"default_left":[0,0,0,0,0,0,0],"id":10,"left_children":[1,-1,3,-1,5,-1,-1],"loss_changes":[3.2855667E2,0E0,1.5237473E1,0E0,2.2387848E0,0E0,0E0],"parents":[2147483647,0,0,2,2,4,4],"right_children":[2,-1,4,-1,6,-1,-1],"split_conditions":[1.8652594E-1,9.853101E-3,9.212598E-1,-1.2884198E-3,8.903076E-1,-3.6167016E-3,-4.9470477E-3],"split_indices":[6,0,8,0,5,0,0],"split_type":[0,0,0,0,0,0,0],"sum_hessian":[2.5498E4,6.329E3,1.9169E4,6.383E3,1.2786E4,6.407E3,6.379E3],"tree_param":{"num_deleted":"0","num_feature":"13","num_nodes":"7","size_leaf_vector":"1"}},{"base_weights":[-9.593845E-6,9.360533E-3,-6.253611E-2,-1.2239991E-3,-8.13873E-2,-3.4358874E-3,-4.699735E-3],"categories":[],"categories_nodes":[],"categories_segments":[],"categories_sizes":[],"default_left":[0,0,0,0,0,0,0],"id":11,"left_children":[1,-1,3,-1,5,-1,-1],"loss_changes":[2.9780576E2,0E0,1.36697235E1,0E0,2.0141525E0,0E0,0E0],"parents":[2147483647,0,0,2,2,4,4],"right_children":[2,-1,4,-1,6,-1,-1],"split_conditions":[1.8652594E-1,9.360533E-3,6.0250753E-1,-1.2239991E-3,8.903076E-1,-3.4358874E-3,-4.699735E-3],"split_indices":[6,0,9,0,5,0,0],"split_type":[0,0,0,0,0,0,0],"sum_hessian":[2.5439E4,6.368E3,1.9071E4,6.32E3,1.2751E4,6.367E3,6.384E3],"tree_param":{"num_deleted":"0","num_feature":"13","num_nodes":"7","size_leaf_vector":"1"}},{"base_weights":[-3.1899454E-4,8.892586E-3,-5.9414994E-2,-1.1628174E-3,-7.733574E-2,-3.2641285E-3,-4.4648E-3],"categories":[],"categories_nodes":[],"categories_segments":[],"categories_sizes":[],"default_left":[0,0,0,0,0,0,0],"id":12,"left_children":[1,-1,3,-1,5,-1,-1],"loss_changes":[2.6975626E2,0E0,1.2455475E1,0E0,1.8328857E0,0E0,0E0],"parents":[2147483647,0,0,2,2,4,4],"right_children":[2,-1,4,-1,6,-1,-1],"split_conditions":[1.8652594E-1,8.892586E-3,9.212598E-1,-1.1628174E-3,8.903464E-1,-3.2641285E-3,-4.4648E-3],"split_indices":[6,0,8,0,6,0,0],"split_type":[0,0,0,0,0,0,0],"sum_hessian":[2.5619E4,6.38E3,1.9239E4,6.378E3,1.2861E4,6.413E3,6.448E3],"tree_param":{"num_deleted":"0","num_feature":"13","num_nodes":"7","size_leaf_vector":"1"}},{"base_weights":[-3.8447187E-4,8.448017E-3,-5.6459017E-2,-1.1046821E-3,-7.3376E-2,-3.1009587E-3,-4.2415843E-3],"categories":[],"categories_nodes":[],"categories_segments":[],"categories_sizes":[],"default_left":[0,0,0,0,0,0,0],"id":13,"left_children":[1,-1,3,-1,5,-1,-1],"loss_changes":[2.4290424E2,0E0,1.1161373E1,0E0,1.6552277E0,0E0,0E0],"parents":[2147483647,0,0,2,2,4,4],"right_children":[2,-1,4,-1,6,-1,-1],"split_conditions":[1.8652594E-1,8.448017E-3,9.212598E-1,-1.1046821E-3,1.9607325E-1,-3.1009587E-3,-4.2415843E-3],"split_indices":[6,0,8,0,0,0,0],"split_type":[0,0,0,0,0,0,0],"sum_hessian":[2.5579E4,6.362E3,1.9217E4,6.342E3,1.2875E4,6.473E3,6.402E3],"tree_param":{"num_deleted":"0","num_feature":"13","num_nodes":"7","size_leaf_vector":"1"}},{"base_weights":[-2.5688863E-4,8.025672E-3,-5.362108E-2,-1.0492861E-3,-6.700065E-2,-5.47508E-2,-4.0295515E-3,-4.7465134E-2,-2.945375E-3,-2.9429446E-3,-1.0430665E-3],"categories":[],"categories_nodes":[],"categories_segments":[],"categories_sizes":[],"default_left":[0,0,0,0,0,0,0,0,0,0,0],"id":14,"left_children":[1,-1,3,-1,5,7,-1,9,-1,-1,-1],"loss_changes":[2.199217E2,0E0,8.393948E0,0E0,2.2541733E0,2.0415878E-1,0E0,7.8618E-1,0E0,0E0,0E0],"parents":[2147483647,0,0,2,2,4,4,5,5,7,7],"right_children":[2,-1,4,-1,6,8,-1,10,-1,-1,-1],"split_conditions":[1.8652594E-1,8.025672E-3,2.4695958E-1,-1.0492861E-3,1.9607325E-1,2.7648503E-1,-4.0295515E-3,2.7243206E-1,-2.945375E-3,-2.9429446E-3,-1.0430665E-3],"split_indices":[6,0,5,0,0,5,0,5,0,0,0],"split_type":[0,0,0,0,0,0,0,0,0,0,0],"sum_hessian":[2.5633E4,6.387E3,1.9246E4,5.599E3,1.3647E4,7.184E3,6.463E3,2.623E3,4.561E3,1.833E3,7.9E2],"tree_param":{"num_deleted":"0","num_feature":"13","num_nodes":"11","size_leaf_vector":"1"}},{"base_weights":[7.4013E-5,7.6244646E-3,-5.0879452E-2,-9.970446E-4,-6.629708E-2,-2.7987068E-3,-3.828094E-3],"categories":[],"categories_nodes":[],"categories_segments":[],"categories_sizes":[],"default_left":[0,0,0,0,0,0,0],"id":15,"left_children":[1,-1,3,-1,5,-1,-1],"loss_changes":[1.988375E2,0E0,9.142235E0,0E0,1.3391037E0,0E0,0E0],"parents":[2147483647,0,0,2,2,4,4],"right_children":[2,-1,4,-1,6,-1,-1],"split_conditions":[1.8652594E-1,7.6244646E-3,9.212598E-1,-9.970446E-4,1.9607325E-1,-2.7987068E-3,-3.828094E-3],"split_indices":[6,0,8,0,0,0,0],"split_type":[0,0,0,0,0,0,0],"sum_hessian":[2.56E4,6.414E3,1.9186E4,6.384E3,1.2802E4,6.391E3,6.411E3],"tree_param":{"num_deleted":"0","num_feature":"13","num_nodes":"7","size_leaf_vector":"1"}},{"base_weights":[-6.576561E-5,7.243307E-3,-4.82534E-2,-9.4720855E-4,-6.302603E-2,-2.6587876E-3,-3.6367222E-3],"categories":[],"categories_nodes":[],"categories_segments":[],"categories_sizes":[],"default_left":[0,0,0,0,0,0,0],"id":16,"left_children":[1,-1,3,-1,5,-1,-1],"loss_changes":[1.7882773E2,0E0,8.311512E0,0E0,1.2052269E0,0E0,0E0],"parents":[2147483647,0,0,2,2,4,4],"right_children":[2,-1,4,-1,6,-1,-1],"split_conditions":[1.8652594E-1,7.243307E-3,9.212598E-1,-9.4720855E-4,1.9607325E-1,-2.6587876E-3,-3.6367222E-3],"split_indices":[6,0,8,0,0,0,0],"split_type":[0,0,0,0,0,0,0],"sum_hessian":[2.5605E4,6.388E3,1.9217E4,6.443E3,1.2774E4,6.349E3,6.425E3],"tree_param":{"num_deleted":"0","num_feature":"13","num_nodes":"7","size_leaf_vector":"1"}},{"base_weights":[-1.9544936E-4,6.8811844E-3,-4.5888506E-2,-8.9984917E-4,-5.9874225E-2,-2.5258667E-3,-3.4549118E-3],"categories":[],"categories_nodes":[],"categories_segments":[],"categories_sizes":[],"default_left":[0,0,0,0,0,0,0],"id":17,"left_children":[1,-1,3,-1,5,-1,-1],"loss_changes":[1.6058026E2,0E0,7.462002E0,0E0,1.0852356E0,0E0,0E0],"parents":[2147483647,0,0,2,2,4,4],"right_children":[2,-1,4,-1,6,-1,-1],"split_conditions":[1.8652594E-1,6.8811844E-3,9.212598E-1,-8.9984917E-4,1.9607325E-1,-2.5258667E-3,-3.4549118E-3],"split_indices":[6,0,8,0,0,0,0],"split_type":[0,0,0,0,0,0,0],"sum_hessian":[2.5499E4,6.348E3,1.9151E4,6.399E3,1.2752E4,6.339E3,6.413E3],"tree_param":{"num_deleted":"0","num_feature":"13","num_nodes":"7","size_leaf_vector":"1"}},{"base_weights":[1.9301422E-4,6.537217E-3,-4.3560624E-2,-8.5487094E-4,-5.6881204E-2,-2.3995992E-3,-3.2821991E-3],"categories":[],"categories_nodes":[],"categories_segments":[],"categories_sizes":[],"default_left":[0,0,0,0,0,0,0],"id":18,"left_children":[1,-1,3,-1,5,-1,-1],"loss_changes":[1.4692949E2,0E0,6.7822914E0,0E0,9.833908E-1,0E0,0E0],"parents":[2147483647,0,0,2,2,4,4],"right_children":[2,-1,4,-1,6,-1,-1],"split_conditions":[1.8652594E-1,6.537217E-3,6.0250753E-1,-8.5487094E-4,1.9607325E-1,-2.3995992E-3,-3.2821991E-3],"split_indices":[6,0,9,0,0,0,0],"split_type":[0,0,0,0,0,0,0],"sum_hessian":[2.5719E4,6.456E3,1.9263E4,6.453E3,1.281E4,6.368E3,6.442E3],"tree_param":{"num_deleted":"0","num_feature":"13","num_nodes":"7","size_leaf_vector":"1"}},{"base_weights":[-5.168049E-4,6.2103593E-3,-4.148143E-2,-8.1212464E-4,-5.3971373E-2,-2.279653E-3,-3.1181118E-3],"categories":[],"categories_nodes":[],"categories_segments":[],"categories_sizes":[],"default_left":[0,0,0,0,0,0,0],"id":19,"left_children":[1,-1,3,-1,5,-1,-1],"loss_changes":[1.3071248E2,0E0,6.063492E0,0E0,8.9191055E-1,0E0,0E0],"parents":[2147483647,0,0,2,2,4,4],"right_children":[2,-1,4,-1,6,-1,-1],"split_conditions":[8.346457E-1,6.2103593E-3,9.212598E-1,-8.1212464E-4,8.903076E-1,-2.279653E-3,-3.1181118E-3],"split_indices":[8,0,8,0,5,0,0],"split_type":[0,0,0,0,0,0,0],"sum_hessian":[2.5583E4,6.324E3,1.9259E4,6.379E3,1.288E4,6.454E3,6.426E3],"tree_param":{"num_deleted":"0","num_feature":"13","num_nodes":"7","size_leaf_vector":"1"}},{"base_weights":[-4.165203E-4,5.899883E-3,-3.9463215E-2,-7.715215E-4,-5.1336803E-2,-2.1656754E-3,-2.9622363E-3],"categories":[],"categories_nodes":[],"categories_segments":[],"categories_sizes":[],"default_left":[0,0,0,0,0,0,0],"id":20,"left_children":[1,-1,3,-1,5,-1,-1],"loss_changes":[1.1797468E2,0E0,5.4685E0,0E0,8.019104E-1,0E0,0E0],"parents":[2147483647,0,0,2,2,4,4],"right_children":[2,-1,4,-1,6,-1,-1],"split_conditions":[1.8652594E-1,5.899883E-3,6.0250753E-1,-7.715215E-4,1.9607325E-1,-2.1656754E-3,-2.9622363E-3],"split_indices":[6,0,9,0,0,0,0],"split_type":[0,0,0,0,0,0,0],"sum_hessian":[2.5515E4,6.326E3,1.9189E4,6.349E3,1.284E4,6.383E3,6.457E3],"tree_param":{"num_deleted":"0","num_feature":"13","num_nodes":"7","size_leaf_vector":"1"}},{"base_weights":[-4.642318E-5,5.60497E-3,-3.733637E-2,-7.3296257E-4,-4.8720006E-2,-2.0574126E-3,-2.8141355E-3],"categories":[],"categories_nodes":[],"categories_segments":[],"categories_sizes":[],"default_left":[0,0,0,0,0,0,0],"id":21,"left_children":[1,-1,3,-1,5,-1,-1],"loss_changes":[1.07158195E2,0E0,4.957651E0,0E0,7.209625E-1,0E0,0E0],"parents":[2147483647,0,0,2,2,4,4],"right_children":[2,-1,4,-1,6,-1,-1],"split_conditions":[1.8652594E-1,5.60497E-3,9.212598E-1,-7.3296257E-4,8.903076E-1,-2.0574126E-3,-2.8141355E-3],"split_indices":[6,0,8,0,5,0,0],"split_type":[0,0,0,0,0,0,0],"sum_hessian":[2.5624E4,6.393E3,1.9231E4,6.431E3,1.28E4,6.406E3,6.394E3],"tree_param":{"num_deleted":"0","num_feature":"13","num_nodes":"7","size_leaf_vector":"1"}},{"base_weights":[-1.2571034E-4,5.324757E-3,-3.549957E-2,-6.963219E-4,-4.6305E-2,-1.954558E-3,-2.6734567E-3],"categories":[],"categories_nodes":[],"categories_segments":[],"categories_sizes":[],"default_left":[0,0,0,0,0,0,0],"id":22,"left_children":[1,-1,3,-1,5,-1,-1],"loss_changes":[9.6730446E1,0E0,4.482975E0,0E0,6.5166855E-1,0E0,0E0],"parents":[2147483647,0,0,2,2,4,4],"right_children":[2,-1,4,-1,6,-1,-1],"split_conditions":[8.346457E-1,5.324757E-3,9.212598E-1,-6.963219E-4,8.903076E-1,-1.954558E-3,-2.6734567E-3],"split_indices":[8,0,8,0,5,0,0],"split_type":[0,0,0,0,0,0,0],"sum_hessian":[2.5647E4,6.388E3,1.9259E4,6.431E3,1.2828E4,6.402E3,6.426E3],"tree_param":{"num_deleted":"0","num_feature":"13","num_nodes":"7","size_leaf_vector":"1"}},{"base_weights":[-9.715492E-5,5.05856E-3,-3.3714727E-2,-6.615079E-4,-4.396176E-2,-1.8568505E-3,-2.5398E-3],"categories":[],"categories_nodes":[],"categories_segments":[],"categories_sizes":[],"default_left":[0,0,0,0,0,0,0],"id":23,"left_children":[1,-1,3,-1,5,-1,-1],"loss_changes":[8.7316025E1,0E0,4.036068E0,0E0,5.878773E-1,0E0,0E0],"parents":[2147483647,0,0,2,2,4,4],"right_children":[2,-1,4,-1,6,-1,-1],"split_conditions":[1.8652594E-1,5.05856E-3,9.212598E-1,-6.615079E-4,1.9607325E-1,-1.8568505E-3,-2.5398E-3],"split_indices":[6,0,8,0,0,0,0],"split_type":[0,0,0,0,0,0,0],"sum_hessian":[2.5648E4,6.391E3,1.9257E4,6.425E3,1.2832E4,6.431E3,6.401E3],"tree_param":{"num_deleted":"0","num_feature":"13","num_nodes":"7","size_leaf_vector":"1"}},{"base_weights":[-2.9473347E-5,4.8056836E-3,-3.2110702E-2,-6.284328E-4,-4.182201E-2,-1.7640137E-3,-2.4128414E-3],"categories":[],"categories_nodes":[],"categories_segments":[],"categories_sizes":[],"default_left":[0,0,0,0,0,0,0],"id":24,"left_children":[1,-1,3,-1,5,-1,-1],"loss_changes":[7.9123634E1,0E0,3.6448116E0,0E0,5.30735E-1,0E0,0E0],"parents":[2147483647,0,0,2,2,4,4],"right_children":[2,-1,4,-1,6,-1,-1],"split_conditions":[1.8652594E-1,4.8056836E-3,9.212598E-1,-6.284328E-4,1.9607325E-1,-1.7640137E-3,-2.4128414E-3],"split_indices":[6,0,8,0,0,0,0],"split_type":[0,0,0,0,0,0,0],"sum_hessian":[2.5653E4,6.417E3,1.9236E4,6.39E3,1.2846E4,6.381E3,6.465E3],"tree_param":{"num_deleted":"0","num_feature":"13","num_nodes":"7","size_leaf_vector":"1"}},{"base_weights":[9.18143E-5,4.5654355E-3,-3.0405333E-2,-5.970224E-4,-3.9683998E-2,-1.6758284E-3,-2.2922014E-3],"categories":[],"categories_nodes":[],"categories_segments":[],"categories_sizes":[],"default_left":[0,0,0,0,0,0,0],"id":25,"left_children":[1,-1,3,-1,5,-1,-1],"loss_changes":[7.118541E1,0E0,3.2796059E0,0E0,4.7522163E-1,0E0,0E0],"parents":[2147483647,0,0,2,2,4,4],"right_children":[2,-1,4,-1,6,-1,-1],"split_conditions":[1.8652594E-1,4.5654355E-3,6.0250753E-1,-5.970224E-4,1.9607325E-1,-1.6758284E-3,-2.2922014E-3],"split_indices":[6,0,9,0,0,0,0],"split_type":[0,0,0,0,0,0,0],"sum_hessian":[2.5585E4,6.411E3,1.9174E4,6.417E3,1.2757E4,6.386E3,6.371E3],"tree_param":{"num_deleted":"0","num_feature":"13","num_nodes":"7","size_leaf_vector":"1"}},{"base_weights":[-9.4707524E-5,4.33718E-3,-2.893284E-2,-5.671686E-4,-3.7702378E-2,-1.592052E-3,-2.1776129E-3],"categories":[],"categories_nodes":[],"categories_segments":[],"categories_sizes":[],"default_left":[0,0,0,0,0,0,0],"id":26,"left_children":[1,-1,3,-1,5,-1,-1],"loss_changes":[6.3980423E1,0E0,2.9535217E0,0E0,4.2982483E-1,0E0,0E0],"parents":[2147483647,0,0,2,2,4,4],"right_children":[2,-1,4,-1,6,-1,-1],"split_conditions":[1.8652594E-1,4.33718E-3,9.212598E-1,-5.671686E-4,1.9607325E-1,-1.592052E-3,-2.1776129E-3],"split_indices":[6,0,8,0,0,0,0],"split_type":[0,0,0,0,0,0,0],"sum_hessian":[2.5549E4,6.368E3,1.9181E4,6.386E3,1.2795E4,6.403E3,6.392E3],"tree_param":{"num_deleted":"0","num_feature":"13","num_nodes":"7","size_leaf_vector":"1"}},{"base_weights":[-1.1309282E-4,4.1203774E-3,-2.7410768E-2,-5.388267E-4,-3.5799213E-2,-1.5124632E-3,-2.0687452E-3],"categories":[],"categories_nodes":[],"categories_segments":[],"categories_sizes":[],"default_left":[0,0,0,0,0,0,0],"id":27,"left_children":[1,-1,3,-1,5,-1,-1],"loss_changes":[5.7684147E1,0E0,2.680316E0,0E0,3.8733864E-1,0E0,0E0],"parents":[2147483647,0,0,2,2,4,4],"right_children":[2,-1,4,-1,6,-1,-1],"split_conditions":[1.8652594E-1,4.1203774E-3,9.212598E-1,-5.388267E-4,1.9607325E-1,-1.5124632E-3,-2.0687452E-3],"split_indices":[6,0,8,0,0,0,0],"split_type":[0,0,0,0,0,0,0],"sum_hessian":[2.5608E4,6.364E3,1.9244E4,6.456E3,1.2788E4,6.421E3,6.367E3],"tree_param":{"num_deleted":"0","num_feature":"13","num_nodes":"7","size_leaf_vector":"1"}},{"base_weights":[2.8163946E-4,3.9143916E-3,-2.6090471E-2,-5.118789E-4,-3.4041345E-2,-1.4368399E-3,-1.9653216E-3],"categories":[],"categories_nodes":[],"categories_segments":[],"categories_sizes":[],"default_left":[0,0,0,0,0,0,0],"id":28,"left_children":[1,-1,3,-1,5,-1,-1],"loss_changes":[5.245733E1,0E0,2.3968735E0,0E0,3.4634495E-1,0E0,0E0],"parents":[2147483647,0,0,2,2,4,4],"right_children":[2,-1,4,-1,6,-1,-1],"split_conditions":[1.8652594E-1,3.9143916E-3,9.212598E-1,-5.118789E-4,1.9607325E-1,-1.4368399E-3,-1.9653216E-3],"split_indices":[6,0,8,0,0,0,0],"split_type":[0,0,0,0,0,0,0],"sum_hessian":[2.5495E4,6.442E3,1.9053E4,6.369E3,1.2684E4,6.331E3,6.353E3],"tree_param":{"num_deleted":"0","num_feature":"13","num_nodes":"7","size_leaf_vector":"1"}},{"base_weights":[6.388188E-5,3.7185287E-3,-2.4392886E-2,-8.737751E-3,-3.232267E-2,-4.862926E-4,3.6192273E-3,-1.3650194E-3,-1.8670767E-3],"categories":[],"categories_nodes":[],"categories_segments":[],"categories_sizes":[],"default_left":[0,0,0,0,0,0,0,0,0],"id":29,"left_children":[1,-1,3,5,7,-1,-1,-1,-1],"loss_changes":[4.659152E1,0E0,2.3898115E0,5.1465714E-1,3.1507874E-1,0E0,0E0,0E0,0E0],"parents":[2147483647,0,0,2,2,3,3,4,4],"right_children":[2,-1,4,6,8,-1,-1,-1,-1],"split_conditions":[1.918168E-1,3.7185287E-3,6.285218E-1,6.0250753E-1,1.9607325E-1,-4.862926E-4,3.6192273E-3,-1.3650194E-3,-1.8670767E-3],"split_indices":[5,0,9,9,0,0,0,0,0],"split_type":[0,0,0,0,0,0,0,0,0],"sum_hessian":[2.5633E4,6.348E3,1.9285E4,6.489E3,1.2796E4,6.413E3,7.6E1,6.409E3,6.387E3],"tree_param":{"num_deleted":"0","num_feature":"13","num_nodes":"9","size_leaf_vector":"1"}},{"base_weights":[-1.5594771E-4,3.5328323E-3,-2.3509057E-2,-4.6198675E-4,-3.0722074E-2,-1.2967706E-3,-1.7737342E-3],"categories":[],"categories_nodes":[],"categories_segments":[],"categories_sizes":[],"default_left":[0,0,0,0,0,0,0],"id":30,"left_children":[1,-1,3,-1,5,-1,-1],"loss_changes":[4.2118187E1,0E0,1.9673481E0,0E0,2.8228664E-1,0E0,0E0],"parents":[2147483647,0,0,2,2,4,4],"right_children":[2,-1,4,-1,6,-1,-1],"split_conditions":[1.8652594E-1,3.5328323E-3,9.212598E-1,-4.6198675E-4,8.903076E-1,-1.2967706E-3,-1.7737342E-3],"split_indices":[6,0,8,0,5,0,0],"split_type":[0,0,0,0,0,0,0],"sum_hessian":[2.547E4,6.315E3,1.9155E4,6.437E3,1.2718E4,6.35E3,6.368E3],"tree_param":{"num_deleted":"0","num_feature":"13","num_nodes":"7","size_leaf_vector":"1"}},{"base_weights":[-9.559061E-5,3.3562442E-3,-2.2349149E-2,-4.3889144E-4,-2.9163957E-2,-1.2319525E-3,-1.6850627E-3],"categories":[],"categories_nodes":[],"categories_segments":[],"categories_sizes":[],"default_left":[0,0,0,0,0,0,0],"id":31,"left_children":[1,-1,3,-1,5,-1,-1],"loss_changes":[3.8284447E1,0E0,1.7745476E0,0E0,2.5606918E-1,0E0,0E0],"parents":[2147483647,0,0,2,2,4,4],"right_children":[2,-1,4,-1,6,-1,-1],"split_conditions":[1.8652594E-1,3.3562442E-3,9.212598E-1,-4.3889144E-4,1.9607325E-1,-1.2319525E-3,-1.6850627E-3],"split_indices":[6,0,8,0,0,0,0],"split_type":[0,0,0,0,0,0,0],"sum_hessian":[2.5594E4,6.364E3,1.923E4,6.434E3,1.2796E4,6.421E3,6.375E3],"tree_param":{"num_deleted":"0","num_feature":"13","num_nodes":"7","size_leaf_vector":"1"}},{"base_weights":[1.3129672E-4,3.188461E-3,-2.1244936E-2,-4.1694308E-4,-2.7752997E-2,-1.1703476E-3,-1.6008252E-3],"categories":[],"categories_nodes":[],"categories_segments":[],"categories_sizes":[],"default_left":[0,0,0,0,0,0,0],"id":32,"left_children":[1,-1,3,-1,5,-1,-1],"loss_changes":[3.471466E1,0E0,1.6003513E0,0E0,2.2886562E-1,0E0,0E0],"parents":[2147483647,0,0,2,2,4,4],"right_children":[2,-1,4,-1,6,-1,-1],"split_conditions":[1.8652594E-1,3.188461E-3,9.212598E-1,-4.1694308E-4,1.9607325E-1,-1.1703476E-3,-1.6008252E-3],"split_indices":[6,0,8,0,0,0,0],"split_type":[0,0,0,0,0,0,0],"sum_hessian":[2.5514E4,6.416E3,1.9098E4,6.408E3,1.269E4,6.299E3,6.391E3],"tree_param":{"num_deleted":"0","num_feature":"13","num_nodes":"7","size_leaf_vector":"1"}},{"base_weights":[-1.14094364E-4,3.0290268E-3,-2.0206409E-2,-3.960967E-4,-2.6333492E-2,-1.1118528E-3,-1.520797E-3],"categories":[],"categories_nodes":[],"categories_segments":[],"categories_sizes":[],"default_left":[0,0,0,0,0,0,0],"id":33,"left_children":[1,-1,3,-1,5,-1,-1],"loss_changes":[3.1143105E1,0E0,1.4407592E0,0E0,2.0808601E-1,0E0,0E0],"parents":[2147483647,0,0,2,2,4,4],"right_children":[2,-1,4,-1,6,-1,-1],"split_conditions":[1.8652594E-1,3.0290268E-3,9.212598E-1,-3.960967E-4,1.9607325E-1,-1.1118528E-3,-1.520797E-3],"split_indices":[6,0,8,0,0,0,0],"split_type":[0,0,0,0,0,0,0],"sum_hessian":[2.5539E4,6.35E3,1.9189E4,6.392E3,1.2797E4,6.403E3,6.394E3],"tree_param":{"num_deleted":"0","num_feature":"13","num_nodes":"7","size_leaf_vector":"1"}},{"base_weights":[-1.0258733E-4,2.8776028E-3,-1.9196786E-2,-3.762929E-4,-2.4999252E-2,-1.056277E-3,-1.444765E-3],"categories":[],"categories_nodes":[],"categories_segments":[],"categories_sizes":[],"default_left":[0,0,0,0,0,0,0],"id":34,"left_children":[1,-1,3,-1,5,-1,-1],"loss_changes":[2.8109064E1,0E0,1.2957697E0,0E0,1.8768883E-1,0E0,0E0],"parents":[2147483647,0,0,2,2,4,4],"right_children":[2,-1,4,-1,6,-1,-1],"split_conditions":[1.8652594E-1,2.8776028E-3,9.212598E-1,-3.762929E-4,1.9607325E-1,-1.056277E-3,-1.444765E-3],"split_indices":[6,0,8,0,0,0,0],"split_type":[0,0,0,0,0,0,0],"sum_hessian":[2.5535E4,6.351E3,1.9184E4,6.377E3,1.2807E4,6.438E3,6.369E3],"tree_param":{"num_deleted":"0","num_feature":"13","num_nodes":"7","size_leaf_vector":"1"}},{"base_weights":[-4.283216E-5,2.7337845E-3,-1.827046E-2,-3.5748148E-4,-2.3775823E-2,-1.0034678E-3,-1.3725486E-3],"categories":[],"categories_nodes":[],"categories_segments":[],"categories_sizes":[],"default_left":[0,0,0,0,0,0,0],"id":35,"left_children":[1,-1,3,-1,5,-1,-1],"loss_changes":[2.5559439E1,0E0,1.1738949E0,0E0,1.6979218E-1,0E0,0E0],"parents":[2147483647,0,0,2,2,4,4],"right_children":[2,-1,4,-1,6,-1,-1],"split_conditions":[1.8652594E-1,2.7337845E-3,9.212598E-1,-3.5748148E-4,1.9607325E-1,-1.0034678E-3,-1.3725486E-3],"split_indices":[6,0,8,0,0,0,0],"split_type":[0,0,0,0,0,0,0],"sum_hessian":[2.5628E4,6.402E3,1.9226E4,6.373E3,1.2853E4,6.416E3,6.437E3],"tree_param":{"num_deleted":"0","num_feature":"13","num_nodes":"7","size_leaf_vector":"1"}},{"base_weights":[1.2214984E-4,2.5971201E-3,-1.7308272E-2,-3.3961603E-4,-2.2592515E-2,-9.532923E-4,-1.3039253E-3],"categories":[],"categories_nodes":[],"categories_segments":[],"categories_sizes":[],"default_left":[0,0,0,0,0,0,0],"id":36,"left_children":[1,-1,3,-1,5,-1,-1],"loss_changes":[2.3141083E1,0E0,1.0619955E0,0E0,1.5173626E-1,0E0,0E0],"parents":[2147483647,0,0,2,2,4,4],"right_children":[2,-1,4,-1,6,-1,-1],"split_conditions":[1.8652594E-1,2.5971201E-3,9.212598E-1,-3.3961603E-4,1.9607325E-1,-9.532923E-4,-1.3039253E-3],"split_indices":[6,0,8,0,0,0,0],"split_type":[0,0,0,0,0,0,0],"sum_hessian":[2.5614E4,6.448E3,1.9166E4,6.417E3,1.2749E4,6.355E3,6.394E3],"tree_param":{"num_deleted":"0","num_feature":"13","num_nodes":"7","size_leaf_vector":"1"}},{"base_weights":[1.0760978E-4,2.4672805E-3,-1.650498E-2,-3.226306E-4,-2.147123E-2,-9.056399E-4,-1.2387488E-3],"categories":[],"categories_nodes":[],"categories_segments":[],"categories_sizes":[],"default_left":[0,0,0,0,0,0,0],"id":37,"left_children":[1,-1,3,-1,5,-1,-1],"loss_changes":[2.101204E1,0E0,9.5573235E-1,0E0,1.3779402E-1,0E0,0E0],"parents":[2147483647,0,0,2,2,4,4],"right_children":[2,-1,4,-1,6,-1,-1],"split_conditions":[8.346457E-1,2.4672805E-3,9.212598E-1,-3.226306E-4,1.9607325E-1,-9.056399E-4,-1.2387488E-3],"split_indices":[8,0,8,0,0,0,0],"split_type":[0,0,0,0,0,0,0],"sum_hessian":[2.5682E4,6.48E3,1.9202E4,6.357E3,1.2845E4,6.388E3,6.457E3],"tree_param":{"num_deleted":"0","num_feature":"13","num_nodes":"7","size_leaf_vector":"1"}},{"base_weights":[-1.3478257E-4,2.343916E-3,-1.5640004E-2,-3.065079E-4,-2.0388879E-2,-8.603681E-4,-1.1768168E-3],"categories":[],"categories_nodes":[],"categories_segments":[],"categories_sizes":[],"default_left":[0,0,0,0,0,0,0],"id":38,"left_children":[1,-1,3,-1,5,-1,-1],"loss_changes":[1.8650673E1,0E0,8.663478E-1,0E0,1.23975754E-1,0E0,0E0],"parents":[2147483647,0,0,2,2,4,4],"right_children":[2,-1,4,-1,6,-1,-1],"split_conditions":[1.8652594E-1,2.343916E-3,9.212598E-1,-3.065079E-4,1.9607325E-1,-8.603681E-4,-1.1768168E-3],"split_indices":[6,0,8,0,0,0,0],"split_type":[0,0,0,0,0,0,0],"sum_hessian":[2.5588E4,6.344E3,1.9244E4,6.417E3,1.2827E4,6.398E3,6.429E3],"tree_param":{"num_deleted":"0","num_feature":"13","num_nodes":"7","size_leaf_vector":"1"}},{"base_weights":[-2.5149398E-5,2.2267571E-3,-1.4863647E-2,-2.9117797E-4,-1.9353524E-2,-8.1735844E-4,-1.1179775E-3],"categories":[],"categories_nodes":[],"categories_segments":[],"categories_sizes":[],"default_left":[0,0,0,0,0,0,0],"id":39,"left_children":[1,-1,3,-1,5,-1,-1],"loss_changes":[1.6888248E1,0E0,7.7529573E-1,0E0,1.11421585E-1,0E0,0E0],"parents":[2147483647,0,0,2,2,4,4],"right_children":[2,-1,4,-1,6,-1,-1],"split_conditions":[1.8652594E-1,2.2267571E-3,9.212598E-1,-2.9117797E-4,1.9607325E-1,-8.1735844E-4,-1.1179775E-3],"split_indices":[6,0,8,0,0,0,0],"split_type":[0,0,0,0,0,0,0],"sum_hessian":[2.5544E4,6.379E3,1.9165E4,6.368E3,1.2797E4,6.418E3,6.379E3],"tree_param":{"num_deleted":"0","num_feature":"13","num_nodes":"7","size_leaf_vector":"1"}},{"base_weights":[-7.5329763E-6,2.1154282E-3,-1.4091705E-2,-2.7663202E-4,-1.8389069E-2,-7.7649584E-4,-1.0620885E-3],"categories":[],"categories_nodes":[],"categories_segments":[],"categories_sizes":[],"default_left":[0,0,0,0,0,0,0],"id":40,"left_children":[1,-1,3,-1,5,-1,-1],"loss_changes":[1.5280672E1,0E0,7.052541E-1,0E0,1.00409985E-1,0E0,0E0],"parents":[2147483647,0,0,2,2,4,4],"right_children":[2,-1,4,-1,6,-1,-1],"split_conditions":[1.8652594E-1,2.1154282E-3,9.212598E-1,-2.7663202E-4,1.9607325E-1,-7.7649584E-4,-1.0620885E-3],"split_indices":[6,0,8,0,0,0,0],"split_type":[0,0,0,0,0,0,0],"sum_hessian":[2.5642E4,6.401E3,1.9241E4,6.44E3,1.2801E4,6.414E3,6.387E3],"tree_param":{"num_deleted":"0","num_feature":"13","num_nodes":"7","size_leaf_vector":"1"}},{"base_weights":[-8.7415894E-5,2.0096698E-3,-1.3410547E-2,-2.6280616E-4,-1.7486867E-2,-7.3767616E-4,-1.0090045E-3],"categories":[],"categories_nodes":[],"categories_segments":[],"categories_sizes":[],"default_left":[0,0,0,0,0,0,0],"id":41,"left_children":[1,-1,3,-1,5,-1,-1],"loss_changes":[1.3811655E1,0E0,6.4066267E-1,0E0,9.1091394E-2,0E0,0E0],"parents":[2147483647,0,0,2,2,4,4],"right_children":[2,-1,4,-1,6,-1,-1],"split_conditions":[8.346457E-1,2.0096698E-3,9.212598E-1,-2.6280616E-4,1.9607325E-1,-7.3767616E-4,-1.0090045E-3],"split_indices":[8,0,8,0,0,0,0],"split_type":[0,0,0,0,0,0,0],"sum_hessian":[2.5739E4,6.395E3,1.9344E4,6.456E3,1.2888E4,6.418E3,6.47E3],"tree_param":{"num_deleted":"0","num_feature":"13","num_nodes":"7","size_leaf_vector":"1"}},{"base_weights":[6.3997584E-5,1.9092059E-3,-1.2739183E-2,-2.4965705E-4,-1.6603965E-2,-7.007917E-4,-9.585484E-4],"categories":[],"categories_nodes":[],"categories_segments":[],"categories_sizes":[],"default_left":[0,0,0,0,0,0,0],"id":42,"left_children":[1,-1,3,-1,5,-1,-1],"loss_changes":[1.2467076E1,0E0,5.7002854E-1,0E0,8.1080675E-2,0E0,0E0],"parents":[2147483647,0,0,2,2,4,4],"right_children":[2,-1,4,-1,6,-1,-1],"split_conditions":[8.346457E-1,1.9092059E-3,9.212598E-1,-2.4965705E-4,1.9607325E-1,-7.007917E-4,-9.585484E-4],"split_indices":[8,0,8,0,0,0,0],"split_type":[0,0,0,0,0,0,0],"sum_hessian":[2.5537E4,6.422E3,1.9115E4,6.372E3,1.2743E4,6.368E3,6.375E3],"tree_param":{"num_deleted":"0","num_feature":"13","num_nodes":"7","size_leaf_vector":"1"}},{"base_weights":[-1.1924807E-4,1.8137377E-3,-1.2094345E-2,-2.3718465E-4,-1.575669E-2,-6.6577335E-4,-9.1063185E-4],"categories":[],"categories_nodes":[],"categories_segments":[],"categories_sizes":[],"default_left":[0,0,0,0,0,0,0],"id":43,"left_children":[1,-1,3,-1,5,-1,-1],"loss_changes":[1.1184691E1,0E0,5.1787424E-1,0E0,7.384467E-2,0E0,0E0],"parents":[2147483647,0,0,2,2,4,4],"right_children":[2,-1,4,-1,6,-1,-1],"split_conditions":[1.8652594E-1,1.8137377E-3,9.212598E-1,-2.3718465E-4,8.903076E-1,-6.6577335E-4,-9.1063185E-4],"split_indices":[6,0,8,0,5,0,0],"split_type":[0,0,0,0,0,0,0],"sum_hessian":[2.5667E4,6.352E3,1.9315E4,6.433E3,1.2882E4,6.484E3,6.398E3],"tree_param":{"num_deleted":"0","num_feature":"13","num_nodes":"7","size_leaf_vector":"1"}},{"base_weights":[-2.1722255E-5,1.7231051E-3,-1.1517349E-2,-2.253156E-4,-1.4978331E-2,-6.324834E-4,-8.65106E-4],"categories":[],"categories_nodes":[],"categories_segments":[],"categories_sizes":[],"default_left":[0,0,0,0,0,0,0],"id":44,"left_children":[1,-1,3,-1,5,-1,-1],"loss_changes":[1.0121701E1,0E0,4.62806E-1,0E0,6.613231E-2,0E0,0E0],"parents":[2147483647,0,0,2,2,4,4],"right_children":[2,-1,4,-1,6,-1,-1],"split_conditions":[1.8652594E-1,1.7231051E-3,6.0250753E-1,-2.253156E-4,1.9607325E-1,-6.324834E-4,-8.65106E-4],"split_indices":[6,0,9,0,0,0,0],"split_type":[0,0,0,0,0,0,0],"sum_hessian":[2.5537E4,6.382E3,1.9155E4,6.341E3,1.2814E4,6.425E3,6.389E3],"tree_param":{"num_deleted":"0","num_feature":"13","num_nodes":"7","size_leaf_vector":"1"}},{"base_weights":[-1.5985244E-5,1.6369403E-3,-1.0925252E-2,-2.1406075E-4,-1.4241983E-2,-6.0085807E-4,-8.2186237E-4],"categories":[],"categories_nodes":[],"categories_segments":[],"categories_sizes":[],"default_left":[0,0,0,0,0,0,0],"id":45,"left_children":[1,-1,3,-1,5,-1,-1],"loss_changes":[9.154419E0,0E0,4.2173815E-1,0E0,5.9536695E-2,0E0,0E0],"parents":[2147483647,0,0,2,2,4,4],"right_children":[2,-1,4,-1,6,-1,-1],"split_conditions":[1.8652594E-1,1.6369403E-3,9.212598E-1,-2.1406075E-4,1.9607325E-1,-6.0085807E-4,-8.2186237E-4],"split_indices":[6,0,8,0,0,0,0],"split_type":[0,0,0,0,0,0,0],"sum_hessian":[2.5623E4,6.399E3,1.9224E4,6.412E3,1.2812E4,6.389E3,6.423E3],"tree_param":{"num_deleted":"0","num_feature":"13","num_nodes":"7","size_leaf_vector":"1"}},{"base_weights":[2.3135031E-5,1.555109E-3,-1.0367463E-2,-2.0336329E-4,-1.3539259E-2,-5.7081383E-4,-7.8077643E-4],"categories":[],"categories_nodes":[],"categories_segments":[],"categories_sizes":[],"default_left":[0,0,0,0,0,0,0],"id":46,"left_children":[1,-1,3,-1,5,-1,-1],"loss_changes":[8.28361E0,0E0,3.821962E-1,0E0,5.3411722E-2,0E0,0E0],"parents":[2147483647,0,0,2,2,4,4],"right_children":[2,-1,4,-1,6,-1,-1],"split_conditions":[8.346457E-1,1.555109E-3,9.212598E-1,-2.0336329E-4,1.9607325E-1,-5.7081383E-4,-7.8077643E-4],"split_indices":[8,0,8,0,0,0,0],"split_type":[0,0,0,0,0,0,0],"sum_hessian":[2.5643E4,6.427E3,1.9216E4,6.446E3,1.277E4,6.341E3,6.429E3],"tree_param":{"num_deleted":"0","num_feature":"13","num_nodes":"7","size_leaf_vector":"1"}},{"base_weights":[-1.11892674E-4,1.477362E-3,-9.848777E-3,-1.9319903E-4,-1.2850796E-2,-5.422868E-4,-7.417434E-4],"categories":[],"categories_nodes":[],"categories_segments":[],"categories_sizes":[],"default_left":[0,0,0,0,0,0,0],"id":47,"left_children":[1,-1,3,-1,5,-1,-1],"loss_changes":[7.4019675E0,0E0,3.4510362E-1,0E0,4.8366785E-2,0E0,0E0],"parents":[2147483647,0,0,2,2,4,4],"right_children":[2,-1,4,-1,6,-1,-1],"split_conditions":[1.8652594E-1,1.477362E-3,9.212598E-1,-1.9319903E-4,1.9607325E-1,-5.422868E-4,-7.417434E-4],"split_indices":[6,0,8,0,0,0,0],"split_type":[0,0,0,0,0,0,0],"sum_hessian":[2.5636E4,6.333E3,1.9303E4,6.46E3,1.2843E4,6.416E3,6.427E3],"tree_param":{"num_deleted":"0","num_feature":"13","num_nodes":"7","size_leaf_vector":"1"}},{"base_weights":[-4.2682637E-5,1.4034897E-3,-9.370855E-3,-1.835298E-4,-1.2211099E-2,-5.1517336E-4,-7.0465973E-4],"categories":[],"categories_nodes":[],"categories_segments":[],"categories_sizes":[],"default_left":[0,0,0,0,0,0,0],"id":48,"left_children":[1,-1,3,-1,5,-1,-1],"loss_changes":[6.698312E0,0E0,3.0900705E-1,0E0,4.334998E-2,0E0,0E0],"parents":[2147483647,0,0,2,2,4,4],"right_children":[2,-1,4,-1,6,-1,-1],"split_conditions":[8.346457E-1,1.4034897E-3,9.212598E-1,-1.835298E-4,1.9607325E-1,-5.1517336E-4,-7.0465973E-4],"split_indices":[8,0,8,0,0,0,0],"split_type":[0,0,0,0,0,0,0],"sum_hessian":[2.5548E4,6.362E3,1.9186E4,6.393E3,1.2793E4,6.383E3,6.41E3],"tree_param":{"num_deleted":"0","num_feature":"13","num_nodes":"7","size_leaf_vector":"1"}},{"base_weights":[-0E0,1.3333403E-3,-8.909107E-3,-1.7435242E-4,-1.1593447E-2,-4.894232E-4,-6.6943007E-4],"categories":[],"categories_nodes":[],"categories_segments":[],"categories_sizes":[],"default_left":[0,0,0,0,0,0,0],"id":49,"left_children":[1,-1,3,-1,5,-1,-1],"loss_changes":[6.0777836E0,0E0,2.776097E-1,0E0,3.9077878E-2,0E0,0E0],"parents":[2147483647,0,0,2,2,4,4],"right_children":[2,-1,4,-1,6,-1,-1],"split_conditions":[1.8652594E-1,1.3333403E-3,9.212598E-1,-1.7435242E-4,8.903464E-1,-4.894232E-4,-6.6943007E-4],"split_indices":[6,0,8,0,6,0,0],"split_type":[0,0,0,0,0,0,0],"sum_hessian":[2.5584E4,6.405E3,1.9179E4,6.364E3,1.2815E4,6.421E3,6.394E3],"tree_param":{"num_deleted":"0","num_feature":"13","num_nodes":"7","size_leaf_vector":"1"}},{"base_weights":[-6.3131934E-6,1.2666818E-3,-8.468731E-3,-1.6563605E-4,-1.1022399E-2,-4.649524E-4,-6.359685E-4],"categories":[],"categories_nodes":[],"categories_segments":[],"categories_sizes":[],"default_left":[0,0,0,0,0,0,0],"id":50,"left_children":[1,-1,3,-1,5,-1,-1],"loss_changes":[5.488765E0,0E0,2.5129175E-1,0E0,3.518629E-2,0E0,0E0],"parents":[2147483647,0,0,2,2,4,4],"right_children":[2,-1,4,-1,6,-1,-1],"split_conditions":[1.8652594E-1,1.2666818E-3,9.212598E-1,-1.6563605E-4,1.9607325E-1,-4.649524E-4,-6.359685E-4],"split_indices":[6,0,8,0,0,0,0],"split_type":[0,0,0,0,0,0,0],"sum_hessian":[2.5602E4,6.406E3,1.9196E4,6.372E3,1.2824E4,6.395E3,6.429E3],"tree_param":{"num_deleted":"0","num_feature":"13","num_nodes":"7","size_leaf_vector":"1"}},{"base_weights":[-1.3321822E-5,1.203358E-3,-8.020999E-3,-4.863723E-3,-1.0913144E-2,-1.5700636E-4,-6.7341467E-3,-4.4096663E-4,-6.041637E-4,-4.3980154E-4,-5.186493E-3,-1.5163583E-4,-6.1270944E-3,-4.365239E-4,-1.5235107E-4],"categories":[],"categories_nodes":[],"categories_segments":[],"categories_sizes":[],"default_left":[0,0,0,0,0,0,0,0,0,0,0,0,0,0,0],"id":51,"left_children":[1,-1,3,5,7,-1,9,-1,-1,-1,11,-1,13,-1,-1],"loss_changes":[4.902802E0,0E0,1.7268574E-1,2.8473571E-2,2.217102E-2,0E0,1.2459695E-2,0E0,0E0,0E0,4.1685402E-3,0E0,1.2587652E-2,0E0,0E0],"parents":[2147483647,0,0,2,2,3,3,4,4,6,6,10,10,12,12],"right_children":[2,-1,4,6,8,-1,10,-1,-1,-1,12,-1,14,-1,-1],"split_conditions":[1.8652594E-1,1.203358E-3,2.7224824E-1,2.3228495E-1,1.9607325E-1,-1.5700636E-4,2.4206994E-1,-4.4096663E-4,-6.041637E-4,-4.3980154E-4,2.5944865E-1,-1.5163583E-4,2.6916292E-1,-4.365239E-4,-1.5235107E-4],"split_indices":[6,0,6,6,0,0,6,0,0,0,6,0,6,0,0],"split_type":[0,0,0,0,0,0,0,0,0,0,0,0,0,0,0],"sum_hessian":[2.5432E4,6.343E3,1.9089E4,9.144E3,9.945E3,4.788E3,4.356E3,3.599E3,6.346E3,1.838E3,2.518E3,7.99E2,1.719E3,9.13E2,8.06E2],"tree_param":{"num_deleted":"0","num_feature":"13","num_nodes":"15","size_leaf_vector":"1"}},{"base_weights":[2.8763814E-5,1.1432185E-3,-7.6550036E-3,-1.4956984E-4,-9.9549135E-3,-4.1971338E-4,-5.7397824E-4],"categories":[],"categories_nodes":[],"categories_segments":[],"categories_sizes":[],"default_left":[0,0,0,0,0,0,0],"id":52,"left_children":[1,-1,3,-1,5,-1,-1],"loss_changes":[4.517424E0,0E0,2.051915E-1,0E0,2.85635E-2,0E0,0E0],"parents":[2147483647,0,0,2,2,4,4],"right_children":[2,-1,4,-1,6,-1,-1],"split_conditions":[1.8652594E-1,1.1432185E-3,6.0250753E-1,-1.4956984E-4,1.9607325E-1,-4.1971338E-4,-5.7397824E-4],"split_indices":[6,0,9,0,0,0,0],"split_type":[0,0,0,0,0,0,0],"sum_hessian":[2.5735E4,6.482E3,1.9253E4,6.374E3,1.2879E4,6.4E3,6.479E3],"tree_param":{"num_deleted":"0","num_feature":"13","num_nodes":"7","size_leaf_vector":"1"}},{"base_weights":[-6.9864676E-5,1.0860547E-3,-7.2561377E-3,-1.4210281E-4,-9.446852E-3,-3.9873947E-4,-5.4528035E-4],"categories":[],"categories_nodes":[],"categories_segments":[],"categories_sizes":[],"default_left":[0,0,0,0,0,0,0],"id":53,"left_children":[1,-1,3,-1,5,-1,-1],"loss_changes":[4.0293303E0,0E0,1.859554E-1,0E0,2.5775552E-2,0E0,0E0],"parents":[2147483647,0,0,2,2,4,4],"right_children":[2,-1,4,-1,6,-1,-1],"split_conditions":[1.8652594E-1,1.0860547E-3,9.212598E-1,-1.4210281E-4,1.9607325E-1,-3.9873947E-4,-5.4528035E-4],"split_indices":[6,0,8,0,0,0,0],"split_type":[0,0,0,0,0,0,0],"sum_hessian":[2.5738E4,6.379E3,1.9359E4,6.437E3,1.2922E4,6.469E3,6.453E3],"tree_param":{"num_deleted":"0","num_feature":"13","num_nodes":"7","size_leaf_vector":"1"}},{"base_weights":[9.923132E-6,1.0315379E-3,-6.779882E-3,-2.3782232E-3,-8.615121E-3,-5.675102E-4,-1.3462327E-4,-7.04073E-3,-5.180132E-4,-1.2932505E-4,9.716167E-4,-6.0862065E-3,-3.7836636E-4,-3.7690546E-4,-1.3005754E-4],"categories":[],"categories_nodes":[],"categories_segments":[],"categories_sizes":[],"default_left":[0,0,0,0,0,0,0,0,0,0,0,0,0,0,0],"id":54,"left_children":[1,-1,3,5,7,9,-1,11,-1,-1,-1,13,-1,-1,-1],"loss_changes":[3.5823176E0,0E0,1.5427858E-1,2.9032752E-3,3.5443544E-2,3.4222674E-2,0E0,2.1885633E-3,0E0,0E0,0E0,1.2218505E-2,0E0,0E0,0E0],"parents":[2147483647,0,0,2,2,3,3,4,4,5,5,7,7,11,11],"right_children":[2,-1,4,6,8,10,-1,12,-1,-1,-1,14,-1,-1,-1],"split_conditions":[1.918168E-1,1.0315379E-3,2.4695958E-1,1.9262381E-1,1.9607325E-1,1.9195062E-1,-1.3462327E-4,2.7648503E-1,-5.180132E-4,-1.2932505E-4,9.716167E-4,2.7243206E-1,-3.7836636E-4,-3.7690546E-4,-1.3005754E-4],"split_indices":[5,0,5,5,0,5,0,5,0,0,0,5,0,0,0],"split_type":[0,0,0,0,0,0,0,0,0,0,0,0,0,0,0],"sum_hessian":[2.5574E4,6.338E3,1.9236E4,5.677E3,1.3559E4,8.87E2,4.79E3,7.161E3,6.398E3,8.11E2,7.6E1,2.618E3,4.543E3,1.827E3,7.91E2],"tree_param":{"num_deleted":"0","num_feature":"13","num_nodes":"15","size_leaf_vector":"1"}},{"base_weights":[-8.814842E-5,9.801995E-4,-6.55384E-3,-1.2832256E-4,-8.530209E-3,-3.5990056E-4,-4.921194E-4],"categories":[],"categories_nodes":[],"categories_segments":[],"categories_sizes":[],"default_left":[0,0,0,0,0,0,0],"id":55,"left_children":[1,-1,3,-1,5,-1,-1],"loss_changes":[3.2463315E0,0E0,1.5022224E-1,0E0,2.0642519E-2,0E0,0E0],"parents":[2147483647,0,0,2,2,4,4],"right_children":[2,-1,4,-1,6,-1,-1],"split_conditions":[1.8652594E-1,9.801995E-4,9.212598E-1,-1.2832256E-4,1.9607325E-1,-3.5990056E-4,-4.921194E-4],"split_indices":[6,0,8,0,0,0,0],"split_type":[0,0,0,0,0,0,0],"sum_hessian":[2.5505E4,6.3E3,1.9205E4,6.382E3,1.2823E4,6.404E3,6.419E3],"tree_param":{"num_deleted":"0","num_feature":"13","num_nodes":"7","size_leaf_vector":"1"}},{"base_weights":[-2.4200275E-5,9.312124E-4,-6.2148427E-3,-1.2191588E-4,-8.104543E-3,-3.4190738E-4,-4.6751602E-4],"categories":[],"categories_nodes":[],"categories_segments":[],"categories_sizes":[],"default_left":[0,0,0,0,0,0,0],"id":56,"left_children":[1,-1,3,-1,5,-1,-1],"loss_changes":[2.9554436E0,0E0,1.361751E-1,0E0,1.8511176E-2,0E0,0E0],"parents":[2147483647,0,0,2,2,4,4],"right_children":[2,-1,4,-1,6,-1,-1],"split_conditions":[1.8652594E-1,9.312124E-4,9.212598E-1,-1.2191588E-4,8.903076E-1,-3.4190738E-4,-4.6751602E-4],"split_indices":[6,0,8,0,5,0,0],"split_type":[0,0,0,0,0,0,0],"sum_hessian":[2.5609E4,6.378E3,1.9231E4,6.432E3,1.2799E4,6.39E3,6.409E3],"tree_param":{"num_deleted":"0","num_feature":"13","num_nodes":"7","size_leaf_vector":"1"}},{"base_weights":[-1.2162139E-5,8.8440714E-4,-5.822186E-3,-2.0748016E-3,-7.7035897E-3,-1.1580853E-4,8.2933804E-4,-3.2481004E-4,-4.4414398E-4],"categories":[],"categories_nodes":[],"categories_segments":[],"categories_sizes":[],"default_left":[0,0,0,0,0,0,0,0,0],"id":57,"left_children":[1,-1,3,5,7,-1,-1,-1,-1],"loss_changes":[2.6201844E0,0E0,1.3433754E-1,2.7596671E-2,1.6574204E-2,0E0,0E0,0E0,0E0],"parents":[2147483647,0,0,2,2,3,3,4,4],"right_children":[2,-1,4,6,8,-1,-1,-1,-1],"split_conditions":[1.918168E-1,8.8440714E-4,6.285218E-1,6.0250753E-1,1.9607325E-1,-1.1580853E-4,8.2933804E-4,-3.2481004E-4,-4.4414398E-4],"split_indices":[5,0,9,9,0,0,0,0,0],"split_type":[0,0,0,0,0,0,0,0,0],"sum_hessian":[2.5488E4,6.294E3,1.9194E4,6.434E3,1.276E4,6.358E3,7.6E1,6.35E3,6.41E3],"tree_param":{"num_deleted":"0","num_feature":"13","num_nodes":"9","size_leaf_vector":"1"}},{"base_weights":[-1.0137447E-5,8.404907E-4,-5.609162E-3,-1.10031244E-4,-7.313568E-3,-3.0857962E-4,-4.2193918E-4],"categories":[],"categories_nodes":[],"categories_segments":[],"categories_sizes":[],"default_left":[0,0,0,0,0,0,0],"id":58,"left_children":[1,-1,3,-1,5,-1,-1],"loss_changes":[2.4131584E0,0E0,1.1079627E-1,0E0,1.49409175E-2,0E0,0E0],"parents":[2147483647,0,0,2,2,4,4],"right_children":[2,-1,4,-1,6,-1,-1],"split_conditions":[1.8652594E-1,8.404907E-4,9.212598E-1,-1.10031244E-4,8.903076E-1,-3.0857962E-4,-4.2193918E-4],"split_indices":[6,0,8,0,5,0,0],"split_type":[0,0,0,0,0,0,0],"sum_hessian":[2.5634E4,6.397E3,1.9237E4,6.433E3,1.2804E4,6.402E3,6.402E3],"tree_param":{"num_deleted":"0","num_feature":"13","num_nodes":"7","size_leaf_vector":"1"}},{"base_weights":[-0E0,7.984542E-4,-5.328676E-3,-1.0452547E-4,-6.9459844E-3,-2.9315482E-4,-4.008447E-4],"categories":[],"categories_nodes":[],"categories_segments":[],"categories_sizes":[],"default_left":[0,0,0,0,0,0,0],"id":59,"left_children":[1,-1,3,-1,5,-1,-1],"loss_changes":[2.1864948E0,0E0,9.992772E-2,0E0,1.3433158E-2,0E0,0E0],"parents":[2147483647,0,0,2,2,4,4],"right_children":[2,-1,4,-1,6,-1,-1],"split_conditions":[8.346457E-1,7.984542E-4,9.212598E-1,-1.0452547E-4,1.9607325E-1,-2.9315482E-4,-4.008447E-4],"split_indices":[8,0,8,0,0,0,0],"split_type":[0,0,0,0,0,0,0],"sum_hessian":[2.5684E4,6.429E3,1.9255E4,6.435E3,1.282E4,6.424E3,6.396E3],"tree_param":{"num_deleted":"0","num_feature":"13","num_nodes":"7","size_leaf_vector":"1"}},{"base_weights":[2.2906013E-5,7.58559E-4,-5.0789556E-3,-9.928735E-5,-6.600983E-3,-2.7849965E-4,-3.80808E-4],"categories":[],"categories_nodes":[],"categories_segments":[],"categories_sizes":[],"default_left":[0,0,0,0,0,0,0],"id":60,"left_children":[1,-1,3,-1,5,-1,-1],"loss_changes":[1.9832764E0,0E0,8.9436084E-2,0E0,1.207155E-2,0E0,0E0],"parents":[2147483647,0,0,2,2,4,4],"right_children":[2,-1,4,-1,6,-1,-1],"split_conditions":[8.346457E-1,7.58559E-4,9.212598E-1,-9.928735E-5,8.903076E-1,-2.7849965E-4,-3.80808E-4],"split_indices":[8,0,8,0,5,0,0],"split_type":[0,0,0,0,0,0,0],"sum_hessian":[2.5647E4,6.466E3,1.9181E4,6.348E3,1.2833E4,6.419E3,6.414E3],"tree_param":{"num_deleted":"0","num_feature":"13","num_nodes":"7","size_leaf_vector":"1"}},{"base_weights":[4.770639E-6,7.2063226E-4,-4.8219915E-3,-9.432939E-5,-6.2734545E-3,-2.645702E-4,-3.61769E-4],"categories":[],"categories_nodes":[],"categories_segments":[],"categories_sizes":[],"default_left":[0,0,0,0,0,0,0],"id":61,"left_children":[1,-1,3,-1,5,-1,-1],"loss_changes":[1.7781402E0,0E0,8.070779E-2,0E0,1.0783732E-2,0E0,0E0],"parents":[2147483647,0,0,2,2,4,4],"right_children":[2,-1,4,-1,6,-1,-1],"split_conditions":[1.8652594E-1,7.2063226E-4,9.212598E-1,-9.432939E-5,8.903076E-1,-2.645702E-4,-3.61769E-4],"split_indices":[6,0,8,0,5,0,0],"split_type":[0,0,0,0,0,0,0],"sum_hessian":[2.5553E4,6.417E3,1.9136E4,6.355E3,1.2781E4,6.379E3,6.402E3],"tree_param":{"num_deleted":"0","num_feature":"13","num_nodes":"7","size_leaf_vector":"1"}},{"base_weights":[-1.9408433E-5,6.845838E-4,-4.5745E-3,-8.962327E-5,-5.959951E-3,-2.513459E-4,-3.436835E-4],"categories":[],"categories_nodes":[],"categories_segments":[],"categories_sizes":[],"default_left":[0,0,0,0,0,0,0],"id":62,"left_children":[1,-1,3,-1,5,-1,-1],"loss_changes":[1.5955695E0,0E0,7.319102E-2,0E0,9.677559E-3,0E0,0E0],"parents":[2147483647,0,0,2,2,4,4],"right_children":[2,-1,4,-1,6,-1,-1],"split_conditions":[8.346457E-1,6.845838E-4,9.212598E-1,-8.962327E-5,1.9607325E-1,-2.513459E-4,-3.436835E-4],"split_indices":[8,0,8,0,0,0,0],"split_type":[0,0,0,0,0,0,0],"sum_hessian":[2.556E4,6.368E3,1.9192E4,6.405E3,1.2787E4,6.384E3,6.403E3],"tree_param":{"num_deleted":"0","num_feature":"13","num_nodes":"7","size_leaf_vector":"1"}},{"base_weights":[-9.5774885E-6,6.500897E-4,-4.2762295E-3,-1.507505E-3,-5.6649907E-3,-8.513597E-5,6.068842E-4,-2.3877782E-4,-3.2650537E-4],"categories":[],"categories_nodes":[],"categories_segments":[],"categories_sizes":[],"default_left":[0,0,0,0,0,0,0,0,0],"id":63,"left_children":[1,-1,3,5,7,-1,-1,-1,-1],"loss_changes":[1.418535E0,0E0,7.333076E-2,1.6182266E-2,8.6889565E-3,0E0,0E0,0E0,0E0],"parents":[2147483647,0,0,2,2,3,3,4,4],"right_children":[2,-1,4,6,8,-1,-1,-1,-1],"split_conditions":[1.918168E-1,6.500897E-4,6.285218E-1,6.0250753E-1,1.9607325E-1,-8.513597E-5,6.068842E-4,-2.3877782E-4,-3.2650537E-4],"split_indices":[5,0,9,9,0,0,0,0,0],"split_type":[0,0,0,0,0,0,0,0,0],"sum_hessian":[2.5566E4,6.307E3,1.9259E4,6.458E3,1.2801E4,6.375E3,8.3E1,6.372E3,6.429E3],"tree_param":{"num_deleted":"0","num_feature":"13","num_nodes":"9","size_leaf_vector":"1"}},{"base_weights":[-2.1414731E-5,6.179096E-4,-4.136261E-3,-8.0887716E-5,-5.3834445E-3,-2.2684669E-4,-3.1019043E-4],"categories":[],"categories_nodes":[],"categories_segments":[],"categories_sizes":[],"default_left":[0,0,0,0,0,0,0],"id":64,"left_children":[1,-1,3,-1,5,-1,-1],"loss_changes":[1.3111423E0,0E0,6.0026318E-2,0E0,7.859647E-3,0E0,0E0],"parents":[2147483647,0,0,2,2,4,4],"right_children":[2,-1,4,-1,6,-1,-1],"split_conditions":[1.8652594E-1,6.179096E-4,9.212598E-1,-8.0887716E-5,1.9607325E-1,-2.2684669E-4,-3.1019043E-4],"split_indices":[6,0,8,0,0,0,0],"split_type":[0,0,0,0,0,0,0],"sum_hessian":[2.5753E4,6.418E3,1.9335E4,6.431E3,1.2904E4,6.414E3,6.49E3],"tree_param":{"num_deleted":"0","num_feature":"13","num_nodes":"7","size_leaf_vector":"1"}},{"base_weights":[-4.38811E-6,5.870142E-4,-3.929162E-3,-7.6841505E-5,-5.110623E-3,-2.155071E-4,-2.946752E-4],"categories":[],"categories_nodes":[],"categories_segments":[],"categories_sizes":[],"default_left":[0,0,0,0,0,0,0],"id":65,"left_children":[1,-1,3,-1,5,-1,-1],"loss_changes":[1.1813297E0,0E0,5.367431E-2,0E0,7.0026815E-3,0E0,0E0],"parents":[2147483647,0,0,2,2,4,4],"right_children":[2,-1,4,-1,6,-1,-1],"split_conditions":[1.8652594E-1,5.870142E-4,6.0250753E-1,-7.6841505E-5,1.9607325E-1,-2.155071E-4,-2.946752E-4],"split_indices":[6,0,9,0,0,0,0],"split_type":[0,0,0,0,0,0,0],"sum_hessian":[2.5643E4,6.416E3,1.9227E4,6.385E3,1.2842E4,6.416E3,6.426E3],"tree_param":{"num_deleted":"0","num_feature":"13","num_nodes":"7","size_leaf_vector":"1"}},{"base_weights":[-6.5397185E-6,5.5768335E-4,-3.7236905E-3,-7.300274E-5,-4.854216E-3,-2.047333E-4,-2.7994116E-4],"categories":[],"categories_nodes":[],"categories_segments":[],"categories_sizes":[],"default_left":[0,0,0,0,0,0,0],"id":66,"left_children":[1,-1,3,-1,5,-1,-1],"loss_changes":[1.0648195E0,0E0,4.8688114E-2,0E0,6.26114E-3,0E0,0E0],"parents":[2147483647,0,0,2,2,4,4],"right_children":[2,-1,4,-1,6,-1,-1],"split_conditions":[8.346457E-1,5.5768335E-4,9.212598E-1,-7.300274E-5,1.9607325E-1,-2.047333E-4,-2.7994116E-4],"split_indices":[8,0,8,0,0,0,0],"split_type":[0,0,0,0,0,0,0],"sum_hessian":[2.5684E4,6.41E3,1.9274E4,6.45E3,1.2824E4,6.418E3,6.406E3],"tree_param":{"num_deleted":"0","num_feature":"13","num_nodes":"7","size_leaf_vector":"1"}},{"base_weights":[-1.2519674E-5,5.2978436E-4,-3.5451374E-3,-6.9347785E-5,-4.6133576E-3,-1.9449407E-4,-2.6594638E-4],"categories":[],"categories_nodes":[],"categories_segments":[],"categories_sizes":[],"default_left":[0,0,0,0,0,0,0],"id":67,"left_children":[1,-1,3,-1,5,-1,-1],"loss_changes":[9.572618E-1,0E0,4.362063E-2,0E0,5.5928826E-3,0E0,0E0],"parents":[2147483647,0,0,2,2,4,4],"right_children":[2,-1,4,-1,6,-1,-1],"split_conditions":[1.8652594E-1,5.2978436E-4,9.212598E-1,-6.9347785E-5,1.9607325E-1,-1.9449407E-4,-2.6594638E-4],"split_indices":[6,0,8,0,0,0,0],"split_type":[0,0,0,0,0,0,0],"sum_hessian":[2.5561E4,6.378E3,1.9183E4,6.383E3,1.28E4,6.393E3,6.407E3],"tree_param":{"num_deleted":"0","num_feature":"13","num_nodes":"7","size_leaf_vector":"1"}},{"base_weights":[-1.2646077E-5,5.033096E-4,-3.3687332E-3,-6.588235E-5,-4.377907E-3,-1.8478323E-4,-2.5265064E-4],"categories":[],"categories_nodes":[],"categories_segments":[],"categories_sizes":[],"default_left":[0,0,0,0,0,0,0],"id":68,"left_children":[1,-1,3,-1,5,-1,-1],"loss_changes":[8.68577E-1,0E0,3.9344802E-2,0E0,5.044788E-3,0E0,0E0],"parents":[2147483647,0,0,2,2,4,4],"right_children":[2,-1,4,-1,6,-1,-1],"split_conditions":[1.8652594E-1,5.033096E-4,6.0250753E-1,-6.588235E-5,1.9607325E-1,-1.8478323E-4,-2.5265064E-4],"split_indices":[6,0,9,0,0,0,0],"split_type":[0,0,0,0,0,0,0],"sum_hessian":[2.5696E4,6.411E3,1.9285E4,6.393E3,1.2892E4,6.489E3,6.403E3],"tree_param":{"num_deleted":"0","num_feature":"13","num_nodes":"7","size_leaf_vector":"1"}},{"base_weights":[1.3578193E-6,4.7816552E-4,-3.1953661E-3,-6.258821E-5,-4.163881E-3,-1.7553433E-4,-2.40018E-4],"categories":[],"categories_nodes":[],"categories_segments":[],"categories_sizes":[],"default_left":[0,0,0,0,0,0,0],"id":69,"left_children":[1,-1,3,-1,5,-1,-1],"loss_changes":[7.8351676E-1,0E0,3.557098E-2,0E0,4.461512E-3,0E0,0E0],"parents":[2147483647,0,0,2,2,4,4],"right_children":[2,-1,4,-1,6,-1,-1],"split_conditions":[1.8652594E-1,4.7816552E-4,9.212598E-1,-6.258821E-5,8.903464E-1,-1.7553433E-4,-2.40018E-4],"split_indices":[6,0,8,0,6,0,0],"split_type":[0,0,0,0,0,0,0],"sum_hessian":[2.561E4,6.424E3,1.9186E4,6.416E3,1.277E4,6.383E3,6.387E3],"tree_param":{"num_deleted":"0","num_feature":"13","num_nodes":"7","size_leaf_vector":"1"}},{"base_weights":[-3.314247E-6,4.5421394E-4,-3.0383551E-3,-5.945666E-5,-3.9521037E-3,-1.6676546E-4,-2.2801578E-4],"categories":[],"categories_nodes":[],"categories_segments":[],"categories_sizes":[],"default_left":[0,0,0,0,0,0,0],"id":70,"left_children":[1,-1,3,-1,5,-1,-1],"loss_changes":[7.050333E-1,0E0,3.190191E-2,0E0,3.9988905E-3,0E0,0E0],"parents":[2147483647,0,0,2,2,4,4],"right_children":[2,-1,4,-1,6,-1,-1],"split_conditions":[1.8652594E-1,4.5421394E-4,9.212598E-1,-5.945666E-5,1.9607325E-1,-1.6676546E-4,-2.2801578E-4],"split_indices":[6,0,8,0,0,0,0],"split_type":[0,0,0,0,0,0,0],"sum_hessian":[2.5582E4,6.396E3,1.9186E4,6.382E3,1.2804E4,6.442E3,6.362E3],"tree_param":{"num_deleted":"0","num_feature":"13","num_nodes":"7","size_leaf_vector":"1"}},{"base_weights":[2.1225598E-5,4.315245E-4,-2.8836639E-3,-5.6488872E-5,-3.7592063E-3,-1.5841427E-4,-2.1661741E-4],"categories":[],"categories_nodes":[],"categories_segments":[],"categories_sizes":[],"default_left":[0,0,0,0,0,0,0],"id":71,"left_children":[1,-1,3,-1,5,-1,-1],"loss_changes":[6.40579E-1,0E0,2.8876767E-2,0E0,3.5438985E-3,0E0,0E0],"parents":[2147483647,0,0,2,2,4,4],"right_children":[2,-1,4,-1,6,-1,-1],"split_conditions":[8.346457E-1,4.315245E-4,9.212598E-1,-5.6488872E-5,8.903076E-1,-1.5841427E-4,-2.1661741E-4],"split_indices":[8,0,8,0,5,0,0],"split_type":[0,0,0,0,0,0,0],"sum_hessian":[2.5589E4,6.464E3,1.9125E4,6.407E3,1.2718E4,6.351E3,6.367E3],"tree_param":{"num_deleted":"0","num_feature":"13","num_nodes":"7","size_leaf_vector":"1"}},{"base_weights":[-1.5993271E-6,4.099518E-4,-2.7473068E-3,-5.3661854E-5,-3.5695166E-3,-1.5050719E-4,-2.0579387E-4],"categories":[],"categories_nodes":[],"categories_segments":[],"categories_sizes":[],"default_left":[0,0,0,0,0,0,0],"id":72,"left_children":[1,-1,3,-1,5,-1,-1],"loss_changes":[5.772969E-1,0E0,2.6007652E-2,0E0,3.2049716E-3,0E0,0E0],"parents":[2147483647,0,0,2,2,4,4],"right_children":[2,-1,4,-1,6,-1,-1],"split_conditions":[1.8652594E-1,4.099518E-4,9.212598E-1,-5.3661854E-5,1.9607325E-1,-1.5050719E-4,-2.0579387E-4],"split_indices":[6,0,8,0,0,0,0],"split_type":[0,0,0,0,0,0,0],"sum_hessian":[2.5661E4,6.427E3,1.9234E4,6.376E3,1.2858E4,6.447E3,6.411E3],"tree_param":{"num_deleted":"0","num_feature":"13","num_nodes":"7","size_leaf_vector":"1"}},{"base_weights":[-1.255596E-5,3.8947197E-4,-2.6069116E-3,-5.098111E-5,-3.3951974E-3,-1.4297395E-4,-1.9550657E-4],"categories":[],"categories_nodes":[],"categories_segments":[],"categories_sizes":[],"default_left":[0,0,0,0,0,0,0],"id":73,"left_children":[1,-1,3,-1,5,-1,-1],"loss_changes":[5.1678485E-1,0E0,2.3565054E-2,0E0,2.8370768E-3,0E0,0E0],"parents":[2147483647,0,0,2,2,4,4],"right_children":[2,-1,4,-1,6,-1,-1],"split_conditions":[1.8652594E-1,3.8947197E-4,9.212598E-1,-5.098111E-5,1.9607325E-1,-1.4297395E-4,-1.9550657E-4],"split_indices":[6,0,8,0,0,0,0],"split_type":[0,0,0,0,0,0,0],"sum_hessian":[2.5555E4,6.367E3,1.9188E4,6.41E3,1.2778E4,6.361E3,6.417E3],"tree_param":{"num_deleted":"0","num_feature":"13","num_nodes":"7","size_leaf_vector":"1"}},{"base_weights":[-2.2912378E-5,3.6995814E-4,-2.4818787E-3,-4.8426995E-5,-3.2221926E-3,-1.358431E-4,-1.85736E-4],"categories":[],"categories_nodes":[],"categories_segments":[],"categories_sizes":[],"default_left":[0,0,0,0,0,0,0],"id":74,"left_children":[1,-1,3,-1,5,-1,-1],"loss_changes":[4.6865913E-1,0E0,2.1221764E-2,0E0,2.5643855E-3,0E0,0E0],"parents":[2147483647,0,0,2,2,4,4],"right_children":[2,-1,4,-1,6,-1,-1],"split_conditions":[1.8652594E-1,3.6995814E-4,9.212598E-1,-4.8426995E-5,1.9607325E-1,-1.358431E-4,-1.85736E-4],"split_indices":[6,0,8,0,0,0,0],"split_type":[0,0,0,0,0,0,0],"sum_hessian":[2.5704E4,6.386E3,1.9318E4,6.391E3,1.2927E4,6.484E3,6.443E3],"tree_param":{"num_deleted":"0","num_feature":"13","num_nodes":"7","size_leaf_vector":"1"}},{"base_weights":[-0E0,3.515139E-4,-2.3539162E-3,-4.6009718E-5,-3.0643416E-3,-1.2903682E-4,-1.7644673E-4],"categories":[],"categories_nodes":[],"categories_segments":[],"categories_sizes":[],"default_left":[0,0,0,0,0,0,0],"id":75,"left_children":[1,-1,3,-1,5,-1,-1],"loss_changes":[4.2389572E-1,0E0,1.9146785E-2,0E0,2.252683E-3,0E0,0E0],"parents":[2147483647,0,0,2,2,4,4],"right_children":[2,-1,4,-1,6,-1,-1],"split_conditions":[1.8652594E-1,3.515139E-4,9.212598E-1,-4.6009718E-5,1.9607325E-1,-1.2903682E-4,-1.7644673E-4],"split_indices":[6,0,8,0,0,0,0],"split_type":[0,0,0,0,0,0,0],"sum_hessian":[2.5615E4,6.424E3,1.9191E4,6.406E3,1.2785E4,6.373E3,6.412E3],"tree_param":{"num_deleted":"0","num_feature":"13","num_nodes":"7","size_leaf_vector":"1"}},{"base_weights":[-1.4284717E-6,3.3391954E-4,-2.2377705E-3,-4.3708977E-5,-2.9115223E-3,-1.2258794E-4,-1.6762629E-4],"categories":[],"categories_nodes":[],"categories_segments":[],"categories_sizes":[],"default_left":[0,0,0,0,0,0,0],"id":76,"left_children":[1,-1,3,-1,5,-1,-1],"loss_changes":[3.8199294E-1,0E0,1.7250068E-2,0E0,2.0056292E-3,0E0,0E0],"parents":[2147483647,0,0,2,2,4,4],"right_children":[2,-1,4,-1,6,-1,-1],"split_conditions":[1.8652594E-1,3.3391954E-4,9.212598E-1,-4.3708977E-5,1.9607325E-1,-1.2258794E-4,-1.6762629E-4],"split_indices":[6,0,8,0,0,0,0],"split_type":[0,0,0,0,0,0,0],"sum_hessian":[2.5599E4,6.409E3,1.919E4,6.396E3,1.2794E4,6.378E3,6.416E3],"tree_param":{"num_deleted":"0","num_feature":"13","num_nodes":"7","size_leaf_vector":"1"}},{"base_weights":[-1.4775644E-5,3.1721048E-4,-2.1224413E-3,-4.153E-5,-2.7662343E-3,-1.1645707E-4,-1.5924529E-4],"categories":[],"categories_nodes":[],"categories_segments":[],"categories_sizes":[],"default_left":[0,0,0,0,0,0,0],"id":77,"left_children":[1,-1,3,-1,5,-1,-1],"loss_changes":[3.4252402E-1,0E0,1.5631199E-2,0E0,1.7802641E-3,0E0,0E0],"parents":[2147483647,0,0,2,2,4,4],"right_children":[2,-1,4,-1,6,-1,-1],"split_conditions":[1.8652594E-1,3.1721048E-4,9.212598E-1,-4.153E-5,1.9607325E-1,-1.1645707E-4,-1.5924529E-4],"split_indices":[6,0,8,0,0,0,0],"split_type":[0,0,0,0,0,0,0],"sum_hessian":[2.5586E4,6.357E3,1.9229E4,6.448E3,1.2781E4,6.373E3,6.408E3],"tree_param":{"num_deleted":"0","num_feature":"13","num_nodes":"7","size_leaf_vector":"1"}},{"base_weights":[-5.7415127E-6,3.013772E-4,-2.021716E-3,-3.9449682E-5,-2.6266477E-3,-1.1064428E-4,-1.5128592E-4],"categories":[],"categories_nodes":[],"categories_segments":[],"categories_sizes":[],"default_left":[0,0,0,0,0,0,0],"id":78,"left_children":[1,-1,3,-1,5,-1,-1],"loss_changes":[3.1188318E-1,0E0,1.4016554E-2,0E0,1.5933886E-3,0E0,0E0],"parents":[2147483647,0,0,2,2,4,4],"right_children":[2,-1,4,-1,6,-1,-1],"split_conditions":[1.8652594E-1,3.013772E-4,9.212598E-1,-3.9449682E-5,8.903076E-1,-1.1064428E-4,-1.5128592E-4],"split_indices":[6,0,8,0,5,0,0],"split_type":[0,0,0,0,0,0,0],"sum_hessian":[2.5673E4,6.417E3,1.9256E4,6.394E3,1.2862E4,6.441E3,6.421E3],"tree_param":{"num_deleted":"0","num_feature":"13","num_nodes":"7","size_leaf_vector":"1"}},{"base_weights":[-1.1045465E-6,2.8628763E-4,-1.9165733E-3,-3.747634E-5,-2.4955338E-3,-1.0510682E-4,-1.4371511E-4],"categories":[],"categories_nodes":[],"categories_segments":[],"categories_sizes":[],"default_left":[0,0,0,0,0,0,0],"id":79,"left_children":[1,-1,3,-1,5,-1,-1],"loss_changes":[2.7981597E-1,0E0,1.26154795E-2,0E0,1.3954043E-3,0E0,0E0],"parents":[2147483647,0,0,2,2,4,4],"right_children":[2,-1,4,-1,6,-1,-1],"split_conditions":[1.8652594E-1,2.8628763E-4,9.212598E-1,-3.747634E-5,8.903076E-1,-1.0510682E-4,-1.4371511E-4],"split_indices":[6,0,8,0,5,0,0],"split_type":[0,0,0,0,0,0,0],"sum_hessian":[2.5541E4,6.388E3,1.9153E4,6.409E3,1.2744E4,6.384E3,6.36E3],"tree_param":{"num_deleted":"0","num_feature":"13","num_nodes":"7","size_leaf_vector":"1"}},{"base_weights":[1.8295615E-6,2.719837E-4,-1.8213756E-3,-3.560676E-5,-2.3724837E-3,-9.984841E-5,-1.3653225E-4],"categories":[],"categories_nodes":[],"categories_segments":[],"categories_sizes":[],"default_left":[0,0,0,0,0,0,0],"id":80,"left_children":[1,-1,3,-1,5,-1,-1],"loss_changes":[2.5394002E-1,0E0,1.1390969E-2,0E0,1.2335032E-3,0E0,0E0],"parents":[2147483647,0,0,2,2,4,4],"right_children":[2,-1,4,-1,6,-1,-1],"split_conditions":[1.8652594E-1,2.719837E-4,9.212598E-1,-3.560676E-5,1.9607325E-1,-9.984841E-5,-1.3653225E-4],"split_indices":[6,0,8,0,0,0,0],"split_type":[0,0,0,0,0,0,0],"sum_hessian":[2.5575E4,6.435E3,1.914E4,6.414E3,1.2726E4,6.352E3,6.374E3],"tree_param":{"num_deleted":"0","num_feature":"13","num_nodes":"7","size_leaf_vector":"1"}},{"base_weights":[-7.853648E-6,2.584146E-4,-1.7260724E-3,-3.3834065E-5,-2.2522514E-3,-9.4864256E-5,-1.2970522E-4],"categories":[],"categories_nodes":[],"categories_segments":[],"categories_sizes":[],"default_left":[0,0,0,0,0,0,0],"id":81,"left_children":[1,-1,3,-1,5,-1,-1],"loss_changes":[2.2788721E-1,0E0,1.0351934E-2,0E0,1.096502E-3,0E0,0E0],"parents":[2147483647,0,0,2,2,4,4],"right_children":[2,-1,4,-1,6,-1,-1],"split_conditions":[1.8652594E-1,2.584146E-4,9.212598E-1,-3.3834065E-5,1.9607325E-1,-9.4864256E-5,-1.2970522E-4],"split_indices":[6,0,8,0,0,0,0],"split_type":[0,0,0,0,0,0,0],"sum_hessian":[2.566E4,6.38E3,1.928E4,6.503E3,1.2777E4,6.415E3,6.362E3],"tree_param":{"num_deleted":"0","num_feature":"13","num_nodes":"7","size_leaf_vector":"1"}},{"base_weights":[-0E0,2.454785E-4,-1.6499523E-3,-3.212006E-5,-2.1417635E-3,-9.011552E-5,-1.2322338E-4],"categories":[],"categories_nodes":[],"categories_segments":[],"categories_sizes":[],"default_left":[0,0,0,0,0,0,0],"id":82,"left_children":[1,-1,3,-1,5,-1,-1],"loss_changes":[2.0654687E-1,0E0,9.17086E-3,0E0,9.654425E-4,0E0,0E0],"parents":[2147483647,0,0,2,2,4,4],"right_children":[2,-1,4,-1,6,-1,-1],"split_conditions":[1.8652594E-1,2.454785E-4,9.212598E-1,-3.212006E-5,1.9607325E-1,-9.011552E-5,-1.2322338E-4],"split_indices":[6,0,8,0,0,0,0],"split_type":[0,0,0,0,0,0,0],"sum_hessian":[2.5485E4,6.414E3,1.9071E4,6.323E3,1.2748E4,6.367E3,6.381E3],"tree_param":{"num_deleted":"0","num_feature":"13","num_nodes":"7","size_leaf_vector":"1"}},{"base_weights":[-5.463894E-6,2.3318361E-4,-1.5653282E-3,-3.0529012E-5,-2.0334504E-3,-8.562256E-5,-1.17067415E-4],"categories":[],"categories_nodes":[],"categories_segments":[],"categories_sizes":[],"default_left":[0,0,0,0,0,0,0],"id":83,"left_children":[1,-1,3,-1,5,-1,-1],"loss_changes":[1.871675E-1,0E0,8.365188E-3,0E0,8.6429715E-4,0E0,0E0],"parents":[2147483647,0,0,2,2,4,4],"right_children":[2,-1,4,-1,6,-1,-1],"split_conditions":[8.346457E-1,2.3318361E-4,9.212598E-1,-3.0529012E-5,8.903076E-1,-8.562256E-5,-1.17067415E-4],"split_indices":[8,0,8,0,5,0,0],"split_type":[0,0,0,0,0,0,0],"sum_hessian":[2.5739E4,6.429E3,1.931E4,6.424E3,1.2886E4,6.471E3,6.415E3],"tree_param":{"num_deleted":"0","num_feature":"13","num_nodes":"7","size_leaf_vector":"1"}},{"base_weights":[-1.9941606E-5,2.2155287E-4,-1.490346E-3,-2.8999775E-5,-1.9332936E-3,-8.1341386E-5,-1.1121966E-4],"categories":[],"categories_nodes":[],"categories_segments":[],"categories_sizes":[],"default_left":[0,0,0,0,0,0,0],"id":84,"left_children":[1,-1,3,-1,5,-1,-1],"loss_changes":[1.676971E-1,0E0,7.5344704E-3,0E0,7.635243E-4,0E0,0E0],"parents":[2147483647,0,0,2,2,4,4],"right_children":[2,-1,4,-1,6,-1,-1],"split_conditions":[1.8652594E-1,2.2155287E-4,9.212598E-1,-2.8999775E-5,8.903076E-1,-8.1341386E-5,-1.1121966E-4],"split_indices":[6,0,8,0,5,0,0],"split_type":[0,0,0,0,0,0,0],"sum_hessian":[2.5666E4,6.356E3,1.931E4,6.395E3,1.2915E4,6.462E3,6.453E3],"tree_param":{"num_deleted":"0","num_feature":"13","num_nodes":"7","size_leaf_vector":"1"}},{"base_weights":[-0E0,2.1049485E-4,-1.4139211E-3,-2.7549895E-5,-1.8368227E-3,-7.727026E-5,-1.0565225E-4],"categories":[],"categories_nodes":[],"categories_segments":[],"categories_sizes":[],"default_left":[0,0,0,0,0,0,0],"id":85,"left_children":[1,-1,3,-1,5,-1,-1],"loss_changes":[1.5235624E-1,0E0,6.765794E-3,0E0,6.6164136E-4,0E0,0E0],"parents":[2147483647,0,0,2,2,4,4],"right_children":[2,-1,4,-1,6,-1,-1],"split_conditions":[1.8652594E-1,2.1049485E-4,9.212598E-1,-2.7549895E-5,1.9607325E-1,-7.727026E-5,-1.0565225E-4],"split_indices":[6,0,8,0,0,0,0],"split_type":[0,0,0,0,0,0,0],"sum_hessian":[2.5626E4,6.43E3,1.9196E4,6.392E3,1.2804E4,6.41E3,6.394E3],"tree_param":{"num_deleted":"0","num_feature":"13","num_nodes":"7","size_leaf_vector":"1"}},{"base_weights":[1.0144877E-6,1.9995058E-4,-1.33921E-3,-2.6180727E-5,-1.7440504E-3,-7.340665E-5,-1.0036355E-4],"categories":[],"categories_nodes":[],"categories_segments":[],"categories_sizes":[],"default_left":[0,0,0,0,0,0,0],"id":86,"left_children":[1,-1,3,-1,5,-1,-1],"loss_changes":[1.3784346E-1,0E0,6.115526E-3,0E0,5.759448E-4,0E0,0E0],"parents":[2147483647,0,0,2,2,4,4],"right_children":[2,-1,4,-1,6,-1,-1],"split_conditions":[8.346457E-1,1.9995058E-4,9.212598E-1,-2.6180727E-5,1.9607325E-1,-7.340665E-5,-1.0036355E-4],"split_indices":[8,0,8,0,0,0,0],"split_type":[0,0,0,0,0,0,0],"sum_hessian":[2.5674E4,6.464E3,1.921E4,6.455E3,1.2755E4,6.416E3,6.339E3],"tree_param":{"num_deleted":"0","num_feature":"13","num_nodes":"7","size_leaf_vector":"1"}},{"base_weights":[-1.2203498E-6,1.8995258E-4,-1.2769243E-3,-2.4867233E-5,-1.6597881E-3,-6.973407E-5,-9.535803E-5],"categories":[],"categories_nodes":[],"categories_segments":[],"categories_sizes":[],"default_left":[0,0,0,0,0,0,0],"id":87,"left_children":[1,-1,3,-1,5,-1,-1],"loss_changes":[1.24259524E-1,0E0,5.5284686E-3,0E0,5.080253E-4,0E0,0E0],"parents":[2147483647,0,0,2,2,4,4],"right_children":[2,-1,4,-1,6,-1,-1],"split_conditions":[1.8652594E-1,1.8995258E-4,9.212598E-1,-2.4867233E-5,1.9607325E-1,-6.973407E-5,-9.535803E-5],"split_indices":[6,0,8,0,0,0,0],"split_type":[0,0,0,0,0,0,0],"sum_hessian":[2.5681E4,6.434E3,1.9247E4,6.426E3,1.2821E4,6.387E3,6.434E3],"tree_param":{"num_deleted":"0","num_feature":"13","num_nodes":"7","size_leaf_vector":"1"}},{"base_weights":[-2.3295904E-6,1.8045768E-4,-1.2150219E-3,-2.3612685E-5,-1.5757165E-3,-6.625239E-5,-9.058492E-5],"categories":[],"categories_nodes":[],"categories_segments":[],"categories_sizes":[],"default_left":[0,0,0,0,0,0,0],"id":88,"left_children":[1,-1,3,-1,5,-1,-1],"loss_changes":[1.1171239E-1,0E0,4.9268603E-3,0E0,4.4132397E-4,0E0,0E0],"parents":[2147483647,0,0,2,2,4,4],"right_children":[2,-1,4,-1,6,-1,-1],"split_conditions":[1.8652594E-1,1.8045768E-4,9.212598E-1,-2.3612685E-5,1.9607325E-1,-6.625239E-5,-9.058492E-5],"split_indices":[6,0,8,0,0,0,0],"split_type":[0,0,0,0,0,0,0],"sum_hessian":[2.556E4,6.404E3,1.9156E4,6.353E3,1.2803E4,6.417E3,6.386E3],"tree_param":{"num_deleted":"0","num_feature":"13","num_nodes":"7","size_leaf_vector":"1"}},{"base_weights":[-0E0,1.7143924E-4,-1.15079E-3,-2.245126E-5,-1.4989474E-3,-6.293151E-5,-8.606072E-5],"categories":[],"categories_nodes":[],"categories_segments":[],"categories_sizes":[],"default_left":[0,0,0,0,0,0,0],"id":89,"left_children":[1,-1,3,-1,5,-1,-1],"loss_changes":[1.0124099E-1,0E0,4.512176E-3,0E0,3.8264692E-4,0E0,0E0],"parents":[2147483647,0,0,2,2,4,4],"right_children":[2,-1,4,-1,6,-1,-1],"split_conditions":[1.8652594E-1,1.7143924E-4,9.212598E-1,-2.245126E-5,1.9607325E-1,-6.293151E-5,-8.606072E-5],"split_indices":[6,0,8,0,0,0,0],"split_type":[0,0,0,0,0,0,0],"sum_hessian":[2.5707E4,6.44E3,1.9267E4,6.485E3,1.2782E4,6.361E3,6.421E3],"tree_param":{"num_deleted":"0","num_feature":"13","num_nodes":"7","size_leaf_vector":"1"}},{"base_weights":[-5.680808E-6,1.6284596E-4,-1.0967092E-3,-2.1318276E-5,-1.4242987E-3,-5.9789745E-5,-8.176179E-5],"categories":[],"categories_nodes":[],"categories_segments":[],"categories_sizes":[],"default_left":[0,0,0,0,0,0,0],"id":90,"left_children":[1,-1,3,-1,5,-1,-1],"loss_changes":[9.122984E-2,0E0,4.0470716E-3,0E0,3.3416413E-4,0E0,0E0],"parents":[2147483647,0,0,2,2,4,4],"right_children":[2,-1,4,-1,6,-1,-1],"split_conditions":[1.8652594E-1,1.6284596E-4,9.212598E-1,-2.1318276E-5,8.903076E-1,-5.9789745E-5,-8.176179E-5],"split_indices":[6,0,8,0,5,0,0],"split_type":[0,0,0,0,0,0,0],"sum_hessian":[2.5688E4,6.414E3,1.9274E4,6.428E3,1.2846E4,6.397E3,6.449E3],"tree_param":{"num_deleted":"0","num_feature":"13","num_nodes":"7","size_leaf_vector":"1"}},{"base_weights":[-0E0,1.5471832E-4,-1.0424299E-3,-2.024593E-5,-1.3527186E-3,-5.6799985E-5,-7.766632E-5],"categories":[],"categories_nodes":[],"categories_segments":[],"categories_sizes":[],"default_left":[0,0,0,0,0,0,0],"id":91,"left_children":[1,-1,3,-1,5,-1,-1],"loss_changes":[8.234723E-2,0E0,3.6080405E-3,0E0,2.8413534E-4,0E0,0E0],"parents":[2147483647,0,0,2,2,4,4],"right_children":[2,-1,4,-1,6,-1,-1],"split_conditions":[1.8652594E-1,1.5471832E-4,9.212598E-1,-2.024593E-5,1.9607325E-1,-5.6799985E-5,-7.766632E-5],"split_indices":[6,0,8,0,0,0,0],"split_type":[0,0,0,0,0,0,0],"sum_hessian":[2.5558E4,6.428E3,1.913E4,6.369E3,1.2761E4,6.377E3,6.384E3],"tree_param":{"num_deleted":"0","num_feature":"13","num_nodes":"7","size_leaf_vector":"1"}},{"base_weights":[-3.233511E-6,1.4699505E-4,-9.907591E-4,-1.9237608E-5,-1.2854569E-3,-5.3960885E-5,-7.378684E-5],"categories":[],"categories_nodes":[],"categories_segments":[],"categories_sizes":[],"default_left":[0,0,0,0,0,0,0],"id":92,"left_children":[1,-1,3,-1,5,-1,-1],"loss_changes":[7.4287936E-2,0E0,3.2638907E-3,0E0,2.458524E-4,0E0,0E0],"parents":[2147483647,0,0,2,2,4,4],"right_children":[2,-1,4,-1,6,-1,-1],"split_conditions":[8.346457E-1,1.4699505E-4,9.212598E-1,-1.9237608E-5,1.9607325E-1,-5.3960885E-5,-7.378684E-5],"split_indices":[8,0,8,0,0,0,0],"split_type":[0,0,0,0,0,0,0],"sum_hessian":[2.5625E4,6.412E3,1.9213E4,6.398E3,1.2815E4,6.405E3,6.41E3],"tree_param":{"num_deleted":"0","num_feature":"13","num_nodes":"7","size_leaf_vector":"1"}},{"base_weights":[-1.2473618E-5,1.3965595E-4,-9.4492885E-4,-1.8263398E-5,-1.2226963E-3,-5.1259565E-5,-7.010249E-5],"categories":[],"categories_nodes":[],"categories_segments":[],"categories_sizes":[],"default_left":[0,0,0,0,0,0,0],"id":93,"left_children":[1,-1,3,-1,5,-1,-1],"loss_changes":[6.638684E-2,0E0,2.9202513E-3,0E0,2.0971894E-4,0E0,0E0],"parents":[2147483647,0,0,2,2,4,4],"right_children":[2,-1,4,-1,6,-1,-1],"split_conditions":[8.346457E-1,1.3965595E-4,9.212598E-1,-1.8263398E-5,1.9607325E-1,-5.1259565E-5,-7.010249E-5],"split_indices":[8,0,8,0,0,0,0],"split_type":[0,0,0,0,0,0,0],"sum_hessian":[2.5445E4,6.32E3,1.9125E4,6.313E3,1.2812E4,6.366E3,6.446E3],"tree_param":{"num_deleted":"0","num_feature":"13","num_nodes":"7","size_leaf_vector":"1"}},{"base_weights":[-0E0,1.326249E-4,-8.95068E-4,-1.7362601E-5,-1.16137E-3,-4.8699058E-5,-6.659436E-5],"categories":[],"categories_nodes":[],"categories_segments":[],"categories_sizes":[],"default_left":[0,0,0,0,0,0,0],"id":94,"left_children":[1,-1,3,-1,5,-1,-1],"loss_changes":[6.079856E-2,0E0,2.6498614E-3,0E0,1.7701834E-4,0E0,0E0],"parents":[2147483647,0,0,2,2,4,4],"right_children":[2,-1,4,-1,6,-1,-1],"split_conditions":[1.8652594E-1,1.326249E-4,9.212598E-1,-1.7362601E-5,8.903076E-1,-4.8699058E-5,-6.659436E-5],"split_indices":[6,0,8,0,5,0,0],"split_type":[0,0,0,0,0,0,0],"sum_hessian":[2.5654E4,6.454E3,1.92E4,6.404E3,1.2796E4,6.379E3,6.417E3],"tree_param":{"num_deleted":"0","num_feature":"13","num_nodes":"7","size_leaf_vector":"1"}},{"base_weights":[-0E0,1.2603635E-4,-8.489937E-4,-1.6497575E-5,-1.1026604E-3,-4.626626E-5,-6.325747E-5],"categories":[],"categories_nodes":[],"categories_segments":[],"categories_sizes":[],"default_left":[0,0,0,0,0,0,0],"id":95,"left_children":[1,-1,3,-1,5,-1,-1],"loss_changes":[5.4650933E-2,0E0,2.380764E-3,0E0,1.4714524E-4,0E0,0E0],"parents":[2147483647,0,0,2,2,4,4],"right_children":[2,-1,4,-1,6,-1,-1],"split_conditions":[1.8652594E-1,1.2603635E-4,9.212598E-1,-1.6497575E-5,1.9607325E-1,-4.626626E-5,-6.325747E-5],"split_indices":[6,0,8,0,0,0,0],"split_type":[0,0,0,0,0,0,0],"sum_hessian":[2.5597E4,6.425E3,1.9172E4,6.424E3,1.2748E4,6.393E3,6.355E3],"tree_param":{"num_deleted":"0","num_feature":"13","num_nodes":"7","size_leaf_vector":"1"}},{"base_weights":[-1.9913766E-6,1.19731565E-4,-8.100783E-4,-1.5663221E-5,-1.0486267E-3,-4.395416E-5,-6.0102793E-5],"categories":[],"categories_nodes":[],"categories_segments":[],"categories_sizes":[],"default_left":[0,0,0,0,0,0,0],"id":96,"left_children":[1,-1,3,-1,5,-1,-1],"loss_changes":[4.942829E-2,0E0,2.1364652E-3,0E0,1.2434181E-4,0E0,0E0],"parents":[2147483647,0,0,2,2,4,4],"right_children":[2,-1,4,-1,6,-1,-1],"split_conditions":[8.346457E-1,1.19731565E-4,9.212598E-1,-1.5663221E-5,1.9607325E-1,-4.395416E-5,-6.0102793E-5],"split_indices":[8,0,8,0,0,0,0],"split_type":[0,0,0,0,0,0,0],"sum_hessian":[2.5602E4,6.424E3,1.9178E4,6.358E3,1.282E4,6.403E3,6.417E3],"tree_param":{"num_deleted":"0","num_feature":"13","num_nodes":"7","size_leaf_vector":"1"}},{"base_weights":[-6.275431E-6,1.1374099E-4,-7.707197E-4,-1.488795E-5,-9.974804E-4,-4.1756804E-5,-5.7107096E-5],"categories":[],"categories_nodes":[],"categories_segments":[],"categories_sizes":[],"default_left":[0,0,0,0,0,0,0],"id":97,"left_children":[1,-1,3,-1,5,-1,-1],"loss_changes":[4.4692397E-2,0E0,1.9394401E-3,0E0,1.0422617E-4,0E0,0E0],"parents":[2147483647,0,0,2,2,4,4],"right_children":[2,-1,4,-1,6,-1,-1],"split_conditions":[1.8652594E-1,1.1374099E-4,9.212598E-1,-1.488795E-5,1.9607325E-1,-4.1756804E-5,-5.7107096E-5],"split_indices":[6,0,8,0,0,0,0],"split_type":[0,0,0,0,0,0,0],"sum_hessian":[2.5714E4,6.421E3,1.9293E4,6.396E3,1.2897E4,6.406E3,6.491E3],"tree_param":{"num_deleted":"0","num_feature":"13","num_nodes":"7","size_leaf_vector":"1"}},{"base_weights":[-2.0416467E-6,1.0804548E-4,-7.288731E-4,-1.4148594E-5,-9.481394E-4,-3.965043E-5,-5.4237633E-5],"categories":[],"categories_nodes":[],"categories_segments":[],"categories_sizes":[],"default_left":[0,0,0,0,0,0,0],"id":98,"left_children":[1,-1,3,-1,5,-1,-1],"loss_changes":[3.9844766E-2,0E0,1.7414093E-3,0E0,7.913541E-5,0E0,0E0],"parents":[2147483647,0,0,2,2,4,4],"right_children":[2,-1,4,-1,6,-1,-1],"split_conditions":[1.8652594E-1,1.0804548E-4,9.212598E-1,-1.4148594E-5,1.9607325E-1,-3.965043E-5,-5.4237633E-5],"split_indices":[6,0,8,0,0,0,0],"split_type":[0,0,0,0,0,0,0],"sum_hessian":[2.5434E4,6.362E3,1.9072E4,6.438E3,1.2634E4,6.262E3,6.372E3],"tree_param":{"num_deleted":"0","num_feature":"13","num_nodes":"7","size_leaf_vector":"1"}},{"base_weights":[-2.4325902E-6,1.0234428E-4,-6.8056595E-4,-2.3528303E-4,-8.9977524E-4,-1.3442501E-5,6.300612E-5,-3.7687165E-5,-5.1527673E-5],"categories":[],"categories_nodes":[],"categories_segments":[],"categories_sizes":[],"default_left":[0,0,0,0,0,0,0,0,0],"id":99,"left_children":[1,-1,3,5,7,-1,-1,-1,-1],"loss_changes":[3.5521965E-2,0E0,1.7717201E-3,2.2869188E-4,6.5111555E-5,0E0,0E0,0E0,0E0],"parents":[2147483647,0,0,2,2,3,3,4,4],"right_children":[2,-1,4,6,8,-1,-1,-1,-1],"split_conditions":[1.918168E-1,1.0234428E-4,6.285218E-1,6.0250753E-1,1.9607325E-1,-1.3442501E-5,6.300612E-5,-3.7687165E-5,-5.1527673E-5],"split_indices":[5,0,9,9,0,0,0,0,0],"split_type":[0,0,0,0,0,0,0,0,0],"sum_hessian":[2.5657E4,6.342E3,1.9315E4,6.523E3,1.2792E4,6.446E3,7.7E1,6.408E3,6.384E3],"tree_param":{"num_deleted":"0","num_feature":"13","num_nodes":"9","size_leaf_vector":"1"}},{"base_weights":[-3.7998695E-6,9.758139E-5,-6.597446E-4,-1.2772087E-5,-8.5515855E-4,-3.580801E-5,-4.8954164E-5],"categories":[],"categories_nodes":[],"categories_segments":[],"categories_sizes":[],"default_left":[0,0,0,0,0,0,0],"id":100,"left_children":[1,-1,3,-1,5,-1,-1],"loss_changes":[3.285422E-2,0E0,1.4130706E-3,0E0,5.0948E-5,0E0,0E0],"parents":[2147483647,0,0,2,2,4,4],"right_children":[2,-1,4,-1,6,-1,-1],"split_conditions":[1.8652594E-1,9.758139E-5,9.212598E-1,-1.2772087E-5,8.903464E-1,-3.580801E-5,-4.8954164E-5],"split_indices":[6,0,8,0,6,0,0],"split_type":[0,0,0,0,0,0,0],"sum_hessian":[2.5713E4,6.42E3,1.9293E4,6.454E3,1.2839E4,6.435E3,6.404E3],"tree_param":{"num_deleted":"0","num_feature":"13","num_nodes":"7","size_leaf_vector":"1"}},{"base_weights":[-0E0,9.271822E-5,-6.287363E-4,-1.2113599E-5,-8.1272644E-4,-3.401216E-5,-4.650114E-5],"categories":[],"categories_nodes":[],"categories_segments":[],"categories_sizes":[],"default_left":[0,0,0,0,0,0,0],"id":101,"left_children":[1,-1,3,-1,5,-1,-1],"loss_changes":[2.9714238E-2,0E0,1.2508566E-3,0E0,3.6457554E-5,0E0,0E0],"parents":[2147483647,0,0,2,2,4,4],"right_children":[2,-1,4,-1,6,-1,-1],"split_conditions":[1.8652594E-1,9.271822E-5,9.212598E-1,-1.2113599E-5,8.903464E-1,-3.401216E-5,-4.650114E-5],"split_indices":[6,0,8,0,6,0,0],"split_type":[0,0,0,0,0,0,0],"sum_hessian":[2.5524E4,6.447E3,1.9077E4,6.329E3,1.2748E4,6.39E3,6.358E3],"tree_param":{"num_deleted":"0","num_feature":"13","num_nodes":"7","size_leaf_vector":"1"}},{"base_weights":[-4.9309847E-8,8.8053326E-5,-5.9756875E-4,-1.1518706E-5,-7.732122E-4,-3.2307824E-5,-4.418351E-5],"categories":[],"categories_nodes":[],"categories_segments":[],"categories_sizes":[],"default_left":[0,0,0,0,0,0,0],"id":102,"left_children":[1,-1,3,-1,5,-1,-1],"loss_changes":[2.684781E-2,0E0,1.1361609E-3,0E0,2.5889836E-5,0E0,0E0],"parents":[2147483647,0,0,2,2,4,4],"right_children":[2,-1,4,-1,6,-1,-1],"split_conditions":[1.8652594E-1,8.8053326E-5,6.0250753E-1,-1.1518706E-5,1.9607325E-1,-3.2307824E-5,-4.418351E-5],"split_indices":[6,0,9,0,0,0,0],"split_type":[0,0,0,0,0,0,0],"sum_hessian":[2.5622E4,6.448E3,1.9174E4,6.389E3,1.2785E4,6.37E3,6.415E3],"tree_param":{"num_deleted":"0","num_feature":"13","num_nodes":"7","size_leaf_vector":"1"}},{"base_weights":[-5.3373816E-7,8.331419E-5,-5.569195E-4,-1.9281392E-4,-7.3415274E-4,-1.094677E-5,3.8667487E-5,-3.0695337E-5,-4.1966643E-5],"categories":[],"categories_nodes":[],"categories_segments":[],"categories_sizes":[],"default_left":[0,0,0,0,0,0,0,0,0],"id":103,"left_children":[1,-1,3,5,7,-1,-1,-1,-1],"loss_changes":[2.3609007E-2,0E0,1.147524E-3,1.0824241E-4,1.5327241E-5,0E0,0E0,0E0,0E0],"parents":[2147483647,0,0,2,2,3,3,4,4],"right_children":[2,-1,4,6,8,-1,-1,-1,-1],"split_conditions":[1.918168E-1,8.331419E-5,6.285218E-1,6.0250753E-1,1.9607325E-1,-1.094677E-5,3.8667487E-5,-3.0695337E-5,-4.1966643E-5],"split_indices":[5,0,9,9,0,0,0,0,0],"split_type":[0,0,0,0,0,0,0,0,0],"sum_hessian":[2.5575E4,6.355E3,1.922E4,6.478E3,1.2742E4,6.409E3,6.9E1,6.392E3,6.35E3],"tree_param":{"num_deleted":"0","num_feature":"13","num_nodes":"9","size_leaf_vector":"1"}},{"base_weights":[-3.903434E-6,7.914201E-5,-5.2886264E-4,-1.7299954E-4,-6.7166815E-4,-0E0,-9.980686E-6,-2.7256274E-5,-3.9873354E-5,-5.057882E-6,3.9762275E-5],"categories":[],"categories_nodes":[],"categories_segments":[],"categories_sizes":[],"default_left":[0,0,0,0,0,0,0,0,0,0,0],"id":104,"left_children":[1,-1,3,5,7,9,-1,-1,-1,-1,-1],"loss_changes":[2.1179633E-2,0E0,8.935849E-4,2.1520696E-5,8.076895E-5,5.4465178E-5,0E0,0E0,0E0,0E0,0E0],"parents":[2147483647,0,0,2,2,3,3,4,4,5,5],"right_children":[2,-1,4,6,8,10,-1,-1,-1,-1,-1],"split_conditions":[1.918168E-1,7.914201E-5,2.4695958E-1,1.9262381E-1,1.9607325E-1,1.9195062E-1,-9.980686E-6,-2.7256274E-5,-3.9873354E-5,-5.057882E-6,3.9762275E-5],"split_indices":[5,0,5,5,0,5,0,0,0,0,0],"split_type":[0,0,0,0,0,0,0,0,0,0,0],"sum_hessian":[2.5551E4,6.304E3,1.9247E4,5.713E3,1.3534E4,8.82E2,4.831E3,7.146E3,6.388E3,8.1E2,7.2E1],"tree_param":{"num_deleted":"0","num_feature":"13","num_nodes":"11","size_leaf_vector":"1"}},{"base_weights":[-5.4340994E-6,7.555174E-5,-5.147322E-4,-9.822325E-6,-3.3235916E-5],"categories":[],"categories_nodes":[],"categories_segments":[],"categories_sizes":[],"default_left":[0,0,0,0,0],"id":105,"left_children":[1,-1,3,-1,-1],"loss_changes":[1.9817343E-2,0E0,8.376823E-4,0E0,0E0],"parents":[2147483647,0,0,2,2],"right_children":[2,-1,4,-1,-1],"split_conditions":[1.8652594E-1,7.555174E-5,9.212598E-1,-9.822325E-6,-3.3235916E-5],"split_indices":[6,0,8,0,0],"split_type":[0,0,0,0,0],"sum_hessian":[2.5786E4,6.433E3,1.9353E4,6.413E3,1.294E4],"tree_param":{"num_deleted":"0","num_feature":"13","num_nodes":"5","size_leaf_vector":"1"}},{"base_weights":[-1.9518027E-6,7.180782E-5,-4.8733092E-4,-9.333943E-6,-6.31135E-4,-2.613648E-5,-3.6215115E-5],"categories":[],"categories_nodes":[],"categories_segments":[],"categories_sizes":[],"default_left":[0,0,0,0,0,0,0],"id":106,"left_children":[1,-1,3,-1,5,-1,-1],"loss_changes":[1.777463E-2,0E0,7.478669E-4,0E0,3.7620775E-6,0E0,0E0],"parents":[2147483647,0,0,2,2,4,4],"right_children":[2,-1,4,-1,6,-1,-1],"split_conditions":[1.8652594E-1,7.180782E-5,9.212598E-1,-9.333943E-6,1.9607325E-1,-2.613648E-5,-3.6215115E-5],"split_indices":[6,0,8,0,0,0,0],"split_type":[0,0,0,0,0,0,0],"sum_hessian":[2.5598E4,6.407E3,1.9191E4,6.435E3,1.2756E4,6.395E3,6.361E3],"tree_param":{"num_deleted":"0","num_feature":"13","num_nodes":"7","size_leaf_vector":"1"}},{"base_weights":[-3.1678585E-6,6.823841E-5,-4.6475817E-4,-8.860972E-6,-3.0009745E-5],"categories":[],"categories_nodes":[],"categories_segments":[],"categories_sizes":[],"default_left":[0,0,0,0,0],"id":107,"left_children":[1,-1,3,-1,-1],"loss_changes":[1.6078928E-2,0E0,6.699031E-4,0E0,0E0],"parents":[2147483647,0,0,2,2],"right_children":[2,-1,4,-1,-1],"split_conditions":[8.346457E-1,6.823841E-5,9.212598E-1,-8.860972E-6,-3.0009745E-5],"split_indices":[8,0,8,0,0],"split_type":[0,0,0,0,0],"sum_hessian":[2.5605E4,6.405E3,1.92E4,6.385E3,1.2815E4],"tree_param":{"num_deleted":"0","num_feature":"13","num_nodes":"5","size_leaf_vector":"1"}},{"base_weights":[-5.480279E-6,6.477411E-5,-4.4215334E-4,-8.418739E-6,-5.7079305E-4,-2.3327006E-5,-3.291387E-5],"categories":[],"categories_nodes":[],"categories_segments":[],"categories_sizes":[],"default_left":[0,0,0,0,0,0,0],"id":108,"left_children":[1,-1,3,-1,5,-1,-1],"loss_changes":[1.4431208E-2,0E0,6.0180086E-4,0E0,4.0079467E-6,0E0,0E0],"parents":[2147483647,0,0,2,2,4,4],"right_children":[2,-1,4,-1,6,-1,-1],"split_conditions":[1.8652594E-1,6.477411E-5,9.212598E-1,-8.418739E-6,1.9607325E-1,-2.3327006E-5,-3.291387E-5],"split_indices":[6,0,8,0,0,0,0],"split_type":[0,0,0,0,0,0,0],"sum_hessian":[2.5551E4,6.363E3,1.9188E4,6.383E3,1.2805E4,6.367E3,6.438E3],"tree_param":{"num_deleted":"0","num_feature":"13","num_nodes":"7","size_leaf_vector":"1"}},{"base_weights":[-0E0,6.157866E-5,-4.1955456E-4,-8.002003E-6,-2.7123106E-5],"categories":[],"categories_nodes":[],"categories_segments":[],"categories_sizes":[],"default_left":[0,0,0,0,0],"id":109,"left_children":[1,-1,3,-1,-1],"loss_changes":[1.3206519E-2,0E0,5.4200785E-4,0E0,0E0],"parents":[2147483647,0,0,2,2],"right_children":[2,-1,4,-1,-1],"split_conditions":[1.8652594E-1,6.157866E-5,9.212598E-1,-8.002003E-6,-2.7123106E-5],"split_indices":[6,0,8,0,0],"split_type":[0,0,0,0,0],"sum_hessian":[2.5675E4,6.478E3,1.9197E4,6.432E3,1.2765E4],"tree_param":{"num_deleted":"0","num_feature":"13","num_nodes":"5","size_leaf_vector":"1"}},{"base_weights":[-5.862819E-6,5.8473677E-5,-3.9919064E-4,-7.6043902E-6,-5.151856E-4,-2.0811696E-5,-2.991165E-5],"categories":[],"categories_nodes":[],"categories_segments":[],"categories_sizes":[],"default_left":[0,0,0,0,0,0,0],"id":110,"left_children":[1,-1,3,-1,5,-1,-1],"loss_changes":[1.1779391E-2,0E0,4.8581068E-4,0E0,3.860332E-6,0E0,0E0],"parents":[2147483647,0,0,2,2,4,4],"right_children":[2,-1,4,-1,6,-1,-1],"split_conditions":[1.8652594E-1,5.8473677E-5,9.212598E-1,-7.6043902E-6,1.9607325E-1,-2.0811696E-5,-2.991165E-5],"split_indices":[6,0,8,0,0,0,0],"split_type":[0,0,0,0,0,0,0],"sum_hessian":[2.5645E4,6.366E3,1.9279E4,6.435E3,1.2844E4,6.413E3,6.431E3],"tree_param":{"num_deleted":"0","num_feature":"13","num_nodes":"7","size_leaf_vector":"1"}},{"base_weights":[-3.366254E-6,5.5586792E-5,-3.7881496E-4,-7.227399E-6,-2.4482413E-5],"categories":[],"categories_nodes":[],"categories_segments":[],"categories_sizes":[],"default_left":[0,0,0,0,0],"id":111,"left_children":[1,-1,3,-1,-1],"loss_changes":[1.0657479E-2,0E0,4.361202E-4,0E0,0E0],"parents":[2147483647,0,0,2,2],"right_children":[2,-1,4,-1,-1],"split_conditions":[1.8652594E-1,5.5586792E-5,9.212598E-1,-7.227399E-6,-2.4482413E-5],"split_indices":[6,0,8,0,0],"split_type":[0,0,0,0,0],"sum_hessian":[2.5629E4,6.388E3,1.9241E4,6.47E3,1.2771E4],"tree_param":{"num_deleted":"0","num_feature":"13","num_nodes":"5","size_leaf_vector":"1"}},{"base_weights":[-3.3446443E-6,5.2764262E-5,-3.609995E-4,-6.8575437E-6,-4.6501862E-4,-1.8546176E-5,-2.7188447E-5],"categories":[],"categories_nodes":[],"categories_segments":[],"categories_sizes":[],"default_left":[0,0,0,0,0,0,0],"id":112,"left_children":[1,-1,3,-1,5,-1,-1],"loss_changes":[9.635088E-3,0E0,3.874579E-4,0E0,3.3474062E-6,0E0,0E0],"parents":[2147483647,0,0,2,2,4,4],"right_children":[2,-1,4,-1,6,-1,-1],"split_conditions":[1.8652594E-1,5.2764262E-5,9.212598E-1,-6.8575437E-6,1.9607325E-1,-1.8546176E-5,-2.7188447E-5],"split_indices":[6,0,8,0,0,0,0],"split_type":[0,0,0,0,0,0,0],"sum_hessian":[2.5629E4,6.401E3,1.9228E4,6.406E3,1.2822E4,6.423E3,6.399E3],"tree_param":{"num_deleted":"0","num_feature":"13","num_nodes":"7","size_leaf_vector":"1"}},{"base_weights":[-2.5686695E-6,5.0132E-5,-3.4337895E-4,-6.5142567E-6,-2.2115533E-5],"categories":[],"categories_nodes":[],"categories_segments":[],"categories_sizes":[],"default_left":[0,0,0,0,0],"id":113,"left_children":[1,-1,3,-1,-1],"loss_changes":[8.693986E-3,0E0,3.4681987E-4,0E0,0E0],"parents":[2147483647,0,0,2,2],"right_children":[2,-1,4,-1,-1],"split_conditions":[8.346457E-1,5.0132E-5,9.212598E-1,-6.5142567E-6,-2.2115533E-5],"split_indices":[8,0,8,0,0],"split_type":[0,0,0,0,0],"sum_hessian":[2.5568E4,6.399E3,1.9169E4,6.399E3,1.277E4],"tree_param":{"num_deleted":"0","num_feature":"13","num_nodes":"5","size_leaf_vector":"1"}},{"base_weights":[-2.6299608E-6,4.762165E-5,-3.2701186E-4,-6.1847154E-6,-4.20221E-4,-1.6513246E-5,-2.4724479E-5],"categories":[],"categories_nodes":[],"categories_segments":[],"categories_sizes":[],"default_left":[0,0,0,0,0,0,0],"id":114,"left_children":[1,-1,3,-1,5,-1,-1],"loss_changes":[7.864444E-3,0E0,3.089998E-4,0E0,2.9569492E-6,0E0,0E0],"parents":[2147483647,0,0,2,2,4,4],"right_children":[2,-1,4,-1,6,-1,-1],"split_conditions":[1.8652594E-1,4.762165E-5,9.212598E-1,-6.1847154E-6,1.9607325E-1,-1.6513246E-5,-2.4724479E-5],"split_indices":[6,0,8,0,0,0,0],"split_type":[0,0,0,0,0,0,0],"sum_hessian":[2.5585E4,6.408E3,1.9177E4,6.366E3,1.2811E4,6.405E3,6.406E3],"tree_param":{"num_deleted":"0","num_feature":"13","num_nodes":"7","size_leaf_vector":"1"}},{"base_weights":[-3.5385833E-6,4.524852E-5,-3.10017E-4,-5.886653E-6,-1.9968995E-5],"categories":[],"categories_nodes":[],"categories_segments":[],"categories_sizes":[],"default_left":[0,0,0,0,0],"id":115,"left_children":[1,-1,3,-1,-1],"loss_changes":[7.0682513E-3,0E0,2.785687E-4,0E0,0E0],"parents":[2147483647,0,0,2,2],"right_children":[2,-1,4,-1,-1],"split_conditions":[8.346457E-1,4.524852E-5,9.212598E-1,-5.886653E-6,-1.9968995E-5],"split_indices":[8,0,8,0,0],"split_type":[0,0,0,0,0],"sum_hessian":[2.5597E4,6.374E3,1.9223E4,6.455E3,1.2768E4],"tree_param":{"num_deleted":"0","num_feature":"13","num_nodes":"5","size_leaf_vector":"1"}},{"base_weights":[-2.6963319E-6,4.299257E-5,-2.952181E-4,-5.5862506E-6,-3.7934835E-4,-1.4689547E-5,-2.2484992E-5],"categories":[],"categories_nodes":[],"categories_segments":[],"categories_sizes":[],"default_left":[0,0,0,0,0,0,0],"id":116,"left_children":[1,-1,3,-1,5,-1,-1],"loss_changes":[6.3921795E-3,0E0,2.4681468E-4,0E0,2.3886096E-6,0E0,0E0],"parents":[2147483647,0,0,2,2,4,4],"right_children":[2,-1,4,-1,6,-1,-1],"split_conditions":[1.8652594E-1,4.299257E-5,9.212598E-1,-5.5862506E-6,1.9607325E-1,-1.4689547E-5,-2.2484992E-5],"split_indices":[6,0,8,0,0,0,0],"split_type":[0,0,0,0,0,0,0],"sum_hessian":[2.5556E4,6.385E3,1.9171E4,6.401E3,1.277E4,6.406E3,6.364E3],"tree_param":{"num_deleted":"0","num_feature":"13","num_nodes":"7","size_leaf_vector":"1"}},{"base_weights":[-4.5522497E-6,4.0830462E-5,-2.810823E-4,-5.312965E-6,-1.8069972E-5],"categories":[],"categories_nodes":[],"categories_segments":[],"categories_sizes":[],"default_left":[0,0,0,0,0],"id":117,"left_children":[1,-1,3,-1,-1],"loss_changes":[5.754141E-3,0E0,2.2312533E-4,0E0,0E0],"parents":[2147483647,0,0,2,2],"right_children":[2,-1,4,-1,-1],"split_conditions":[1.8652594E-1,4.0830462E-5,9.212598E-1,-5.312965E-6,-1.8069972E-5],"split_indices":[6,0,8,0,0],"split_type":[0,0,0,0,0],"sum_hessian":[2.5574E4,6.351E3,1.9223E4,6.444E3,1.2779E4],"tree_param":{"num_deleted":"0","num_feature":"13","num_nodes":"5","size_leaf_vector":"1"}},{"base_weights":[-2.2877316E-6,3.8787995E-5,-2.663998E-4,-5.054944E-6,-3.428776E-4,-1.3048387E-5,-2.0458185E-5],"categories":[],"categories_nodes":[],"categories_segments":[],"categories_sizes":[],"default_left":[0,0,0,0,0,0,0],"id":118,"left_children":[1,-1,3,-1,5,-1,-1],"loss_changes":[5.221984E-3,0E0,1.9896135E-4,0E0,2.100598E-6,0E0,0E0],"parents":[2147483647,0,0,2,2,4,4],"right_children":[2,-1,4,-1,6,-1,-1],"split_conditions":[1.8652594E-1,3.8787995E-5,9.212598E-1,-5.054944E-6,1.9607325E-1,-1.3048387E-5,-2.0458185E-5],"split_indices":[6,0,8,0,0,0,0],"split_type":[0,0,0,0,0,0,0],"sum_hessian":[2.5658E4,6.406E3,1.9252E4,6.504E3,1.2748E4,6.379E3,6.369E3],"tree_param":{"num_deleted":"0","num_feature":"13","num_nodes":"7","size_leaf_vector":"1"}},{"base_weights":[-3.2698258E-6,3.685096E-5,-2.5421238E-4,-4.7946273E-6,-1.6311244E-5],"categories":[],"categories_nodes":[],"categories_segments":[],"categories_sizes":[],"default_left":[0,0,0,0,0],"id":119,"left_children":[1,-1,3,-1,-1],"loss_changes":[4.702975E-3,0E0,1.7667911E-4,0E0,0E0],"parents":[2147483647,0,0,2,2],"right_children":[2,-1,4,-1,-1],"split_conditions":[1.8652594E-1,3.685096E-5,9.212598E-1,-4.7946273E-6,-1.6311244E-5],"split_indices":[6,0,8,0,0],"split_type":[0,0,0,0,0],"sum_hessian":[2.5574E4,6.373E3,1.9201E4,6.438E3,1.2763E4],"tree_param":{"num_deleted":"0","num_feature":"13","num_nodes":"5","size_leaf_vector":"1"}},{"base_weights":[-3.6223666E-6,3.498699E-5,-2.4208067E-4,-4.5427764E-6,-3.0935113E-4,-1.1589377E-5,-1.8618384E-5],"categories":[],"categories_nodes":[],"categories_segments":[],"categories_sizes":[],"default_left":[0,0,0,0,0,0,0],"id":120,"left_children":[1,-1,3,-1,5,-1,-1],"loss_changes":[4.237031E-3,0E0,1.5502842E-4,0E0,2.130284E-6,0E0,0E0],"parents":[2147483647,0,0,2,2,4,4],"right_children":[2,-1,4,-1,6,-1,-1],"split_conditions":[1.8652594E-1,3.498699E-5,9.212598E-1,-4.5427764E-6,8.903464E-1,-1.1589377E-5,-1.8618384E-5],"split_indices":[6,0,8,0,6,0,0],"split_type":[0,0,0,0,0,0,0],"sum_hessian":[2.5533E4,6.358E3,1.9175E4,6.362E3,1.2813E4,6.457E3,6.356E3],"tree_param":{"num_deleted":"0","num_feature":"13","num_nodes":"7","size_leaf_vector":"1"}},{"base_weights":[-2.4099757E-6,3.3266948E-5,-2.3095438E-4,-4.3176765E-6,-1.474871E-5],"categories":[],"categories_nodes":[],"categories_segments":[],"categories_sizes":[],"default_left":[0,0,0,0,0],"id":121,"left_children":[1,-1,3,-1,-1],"loss_changes":[3.8668956E-3,0E0,1.3959163E-4,0E0,0E0],"parents":[2147483647,0,0,2,2],"right_children":[2,-1,4,-1,-1],"split_conditions":[8.346457E-1,3.3266948E-5,9.212598E-1,-4.3176765E-6,-1.474871E-5],"split_indices":[8,0,8,0,0],"split_type":[0,0,0,0,0],"sum_hessian":[2.5621E4,6.421E3,1.92E4,6.372E3,1.2828E4],"tree_param":{"num_deleted":"0","num_feature":"13","num_nodes":"5","size_leaf_vector":"1"}},{"base_weights":[-2.8594477E-6,3.1598833E-5,-2.1915049E-4,-4.110406E-6,-2.7994215E-4,-1.0270885E-5,-1.6957289E-5],"categories":[],"categories_nodes":[],"categories_segments":[],"categories_sizes":[],"default_left":[0,0,0,0,0,0,0],"id":122,"left_children":[1,-1,3,-1,5,-1,-1],"loss_changes":[3.4883928E-3,0E0,1.2435875E-4,0E0,2.1873275E-6,0E0,0E0],"parents":[2147483647,0,0,2,2,4,4],"right_children":[2,-1,4,-1,6,-1,-1],"split_conditions":[1.8652594E-1,3.1598833E-5,6.0250753E-1,-4.110406E-6,1.9607325E-1,-1.0270885E-5,-1.6957289E-5],"split_indices":[6,0,9,0,0,0,0],"split_type":[0,0,0,0,0,0,0],"sum_hessian":[2.5704E4,6.414E3,1.929E4,6.437E3,1.2853E4,6.44E3,6.413E3],"tree_param":{"num_deleted":"0","num_feature":"13","num_nodes":"7","size_leaf_vector":"1"}},{"base_weights":[-1.3635268E-6,3.004353E-5,-2.0843615E-4,-3.8969915E-6,-1.3297678E-5],"categories":[],"categories_nodes":[],"categories_segments":[],"categories_sizes":[],"default_left":[0,0,0,0,0],"id":123,"left_children":[1,-1,3,-1,-1],"loss_changes":[3.141264E-3,0E0,1.08965905E-4,0E0,0E0],"parents":[2147483647,0,0,2,2],"right_children":[2,-1,4,-1,-1],"split_conditions":[1.8652594E-1,3.004353E-5,9.212598E-1,-3.8969915E-6,-1.3297678E-5],"split_indices":[6,0,8,0,0],"split_type":[0,0,0,0,0],"sum_hessian":[2.5502E4,6.401E3,1.9101E4,6.376E3,1.2725E4],"tree_param":{"num_deleted":"0","num_feature":"13","num_nodes":"5","size_leaf_vector":"1"}},{"base_weights":[-2.8940062E-6,2.8509883E-5,-1.9858307E-4,-3.7038328E-6,-2.5305204E-4,-9.086178E-6,-1.5440857E-5],"categories":[],"categories_nodes":[],"categories_segments":[],"categories_sizes":[],"default_left":[0,0,0,0,0,0,0],"id":124,"left_children":[1,-1,3,-1,5,-1,-1],"loss_changes":[2.8270937E-3,0E0,9.7267504E-5,0E0,1.7081038E-6,0E0,0E0],"parents":[2147483647,0,0,2,2,4,4],"right_children":[2,-1,4,-1,6,-1,-1],"split_conditions":[1.8652594E-1,2.8509883E-5,9.212598E-1,-3.7038328E-6,1.9607325E-1,-9.086178E-6,-1.5440857E-5],"split_indices":[6,0,8,0,0,0,0],"split_type":[0,0,0,0,0,0,0],"sum_hessian":[2.5538E4,6.37E3,1.9168E4,6.393E3,1.2775E4,6.394E3,6.381E3],"tree_param":{"num_deleted":"0","num_feature":"13","num_nodes":"7","size_leaf_vector":"1"}},{"base_weights":[-2.3125294E-6,2.7124817E-5,-1.893312E-4,-3.5167454E-6,-1.2048348E-5],"categories":[],"categories_nodes":[],"categories_segments":[],"categories_sizes":[],"default_left":[0,0,0,0,0],"id":125,"left_children":[1,-1,3,-1,-1],"loss_changes":[2.5649024E-3,0E0,8.64272E-5,0E0,0E0],"parents":[2147483647,0,0,2,2],"right_children":[2,-1,4,-1,-1],"split_conditions":[1.8652594E-1,2.7124817E-5,6.0250753E-1,-3.5167454E-6,-1.2048348E-5],"split_indices":[6,0,9,0,0],"split_type":[0,0,0,0,0],"sum_hessian":[2.5518E4,6.384E3,1.9134E4,6.377E3,1.2757E4],"tree_param":{"num_deleted":"0","num_feature":"13","num_nodes":"5","size_leaf_vector":"1"}},{"base_weights":[-3.4309412E-6,2.5748608E-5,-1.800098E-4,-3.3488602E-6,-2.2899182E-4,-8.031391E-6,-1.4073074E-5],"categories":[],"categories_nodes":[],"categories_segments":[],"categories_sizes":[],"default_left":[0,0,0,0,0,0,0],"id":126,"left_children":[1,-1,3,-1,5,-1,-1],"loss_changes":[2.3158537E-3,0E0,7.7177014E-5,0E0,1.7997809E-6,0E0,0E0],"parents":[2147483647,0,0,2,2,4,4],"right_children":[2,-1,4,-1,6,-1,-1],"split_conditions":[1.8652594E-1,2.5748608E-5,6.0250753E-1,-3.3488602E-6,8.903076E-1,-8.031391E-6,-1.4073074E-5],"split_indices":[6,0,9,0,5,0,0],"split_type":[0,0,0,0,0,0,0],"sum_hessian":[2.5663E4,6.376E3,1.9287E4,6.449E3,1.2838E4,6.404E3,6.434E3],"tree_param":{"num_deleted":"0","num_feature":"13","num_nodes":"7","size_leaf_vector":"1"}},{"base_weights":[-1.3712571E-6,2.4456132E-5,-1.7166417E-4,-3.1756365E-6,-1.08982895E-5],"categories":[],"categories_nodes":[],"categories_segments":[],"categories_sizes":[],"default_left":[0,0,0,0,0],"id":127,"left_children":[1,-1,3,-1,-1],"loss_changes":[2.108149E-3,0E0,6.782374E-5,0E0,0E0],"parents":[2147483647,0,0,2,2],"right_children":[2,-1,4,-1,-1],"split_conditions":[8.346457E-1,2.4456132E-5,9.212598E-1,-3.1756365E-6,-1.08982895E-5],"split_indices":[8,0,8,0,0],"split_type":[0,0,0,0,0],"sum_hessian":[2.5617E4,6.45E3,1.9167E4,6.394E3,1.2773E4],"tree_param":{"num_deleted":"0","num_feature":"13","num_nodes":"5","size_leaf_vector":"1"}},{"base_weights":[-6.729978E-7,2.3277556E-5,-1.6309752E-4,-5.4248585E-6,-1.2819451E-5],"categories":[],"categories_nodes":[],"categories_segments":[],"categories_sizes":[],"default_left":[0,0,0,0,0],"id":128,"left_children":[1,-1,3,-1,-1],"loss_changes":[1.9085734E-3,0E0,6.101362E-5,0E0,0E0],"parents":[2147483647,0,0,2,2],"right_children":[2,-1,4,-1,-1],"split_conditions":[1.8652594E-1,2.3277556E-5,1.9607325E-1,-5.4248585E-6,-1.2819451E-5],"split_indices":[6,0,0,0,0],"split_type":[0,0,0,0,0],"sum_hessian":[2.5601E4,6.455E3,1.9146E4,1.2755E4,6.391E3],"tree_param":{"num_deleted":"0","num_feature":"13","num_nodes":"5","size_leaf_vector":"1"}},{"base_weights":[-3.0564483E-6,2.205282E-5,-1.552884E-4,-2.7459635E-6,