{"learner":{"attributes":{"scikit_learn":"{\"_estimator_type\": \"regressor\"}"},"feature_names":[],"feature_types":[],"gradient_booster":{"model":{"cats":{"enc":[],"feature_segments":[],"sorted_idx":[]},"gbtree_model_param":{"num_parallel_tree":"1","num_trees":"300"},"iteration_indptr":[0,1,2,3,4,5,6,7,8,9,10,11,12,13,14,15,16,17,18,19,20,21,22,23,24,25,26,27,28,29,30,31,32,33,34,35,36,37,38,39,40,41,42,43,44,45,46,47,48,49,50,51,52,53,54,55,56,57,58,59,60,61,62,63,64,65,66,67,68,69,70,71,72,73,74,75,76,77,78,79,80,81,82,83,84,85,86,87,88,89,90,91,92,93,94,95,96,97,98,99,100,101,102,103,104,105,106,107,108,109,110,111,112,113,114,115,116,117,118,119,120,121,122,123,124,125,126,127,128,129,130,131,132,133,134,135,136,137,138,139,140,141,142,143,144,145,146,147,148,149,150,151,152,153,154,155,156,157,158,159,160,161,162,163,164,165,166,167,168,169,170,171,172,173,174,175,176,177,178,179,180,181,182,183,184,185,186,187,188,189,190,191,192,193,194,195,196,197,198,199,200,201,202,203,204,205,206,207,208,209,210,211,212,213,214,215,216,217,218,219,220,221,222,223,224,225,226,227,228,229,230,231,232,233,234,235,236,237,238,239,240,241,242,243,244,245,246,247,248,249,250,251,252,253,254,255,256,257,258,259,260,261,262,263,264,265,266,267,268,269,270,271,272,273,274,275,276,277,278,279,280,281,282,283,284,285,286,287,288,289,290,291,292,293,294,295,296,297,298,299,300],"tree_info":[0,0,0,0,0,0,0,0,0,0,0,0,0,0,0,0,0,0,0,0,0,0,0,0,0,0,0,0,0,0,0,0,0,0,0,0,0,0,0,0,0,0,0,0,0,0,0,0,0,0,0,0,0,0,0,0,0,0,0,0,0,0,0,0,0,0,0,0,0,0,0,0,0,0,0,0,0,0,0,0,0,0,0,0,0,0,0,0,0,0,0,0,0,0,0,0,0,0,0,0,0,0,0,0,0,0,0,0,0,0,0,0,0,0,0,0,0,0,0,0,0,0,0,0,0,0,0,0,0,0,0,0,0,0,0,0,0,0,0,0,0,0,0,0,0,0,0,0,0,0,0,0,0,0,0,0,0,0,0,0,0,0,0,0,0,0,0,0,0,0,0,0,0,0,0,0,0,0,0,0,0,0,0,0,0,0,0,0,0,0,0,0,0,0,0,0,0,0,0,0,0,0,0,0,0,0,0,0,0,0,0,0,0,0,0,0,0,0,0,0,0,0,0,0,0,0,0,0,0,0,0,0,0,0,0,0,0,0,0,0,0,0,0,0,0,0,0,0,0,0,0,0,0,0,0,0,0,0,0,0,0,0,0,0,0,0,0,0,0,0,0,0,0,0,0,0,0,0,0,0,0,0,0,0,0,0,0,0,0,0,0,0,0,0,0,0,0,0,0,0],"trees":[{"base_weights":[-2.8404425E-4,2.333688E-1,-4.792766E-2,2.669562E-1,-6.410658E-2,-9.35606E-3,-1.4581257E-1,3.0718446E-1,2.0044364E-1,9.197408E-2,-1.368215E-1,8.1966385E-2,-4.8892718E-2,-1.13396056E-1,-1.6048925E-1,3.128964E-1,2.22688E-1,1.4542267E-1,2.5090036E-1,1.2685937E-1,-5.934031E-3,-1.530563E-1,2.2692293E-1,1.1697713E-1,-4.6222743E-2,-1.1900449E-2,-7.772759E-2,-1.3262828E-1,-9.923535E-2,-0E0,-1.6085933E-1,2.682942E-1,1.6130468E-2,3.0771184E-1,1.2346324E-4,1.6205875E-2,1.2064821E-1,2.9275167E-1,1.8289065E-1,2.9621491E-2,2.1143652E-1,9.8263875E-2,-1.5638575E-1,1.4507568E-2,-2.3611167E-3,8.465828E-2,2.4546397E-1,-5.2460045E-2,2.134057E-1,-7.951672E-2,4.8956867E-2,-8.888135E-2,-2.2949506E-2,-1.3438861E-1,1.1093744E-2,-8.54225E-2,-1.1534782E-1,1.533332E-1,-6.0515786E-3,-1.4864315E-1,-8.211332E-3,1.6280985E-2,1.21681765E-2,-0E0,1.5540798E-2,9.7800875E-3,-1.3350684E-3,8.576938E-3,2.1300942E-3,1.1148457E-2,1.5934428E-2,7.905415E-3,1.51020335E-2,1.3376062E-2,-1.8040538E-3,1.4912783E-2,1.3794195E-3,9.305551E-3,-1.6319373E-3,-2.3148223E-3,-7.951377E-3,1.9626908E-3,7.194584E-3,-3.8541653E-3,1.267238E-2,7.5367646E-4,-3.3462297E-3,1.51171805E-2,-0E0,-6.350895E-3,-2.4859195E-3,4.7185738E-3,-3.218878E-3,-4.6330616E-3,4.0502786E-3,1.9948226E-3,-4.193714E-3,-6.7489184E-3,5.7291626E-3,-3.9417744E-3,-7.4580605E-3,-7.032901E-3,-5.1513542E-3,1.1093744E-2,-5.208375E-4,-7.727162E-3,-6.0487418E-3],"categories":[],"categories_nodes":[],"categories_segments":[],"categories_sizes":[],"default_left":[0,0,0,0,0,0,0,0,0,0,0,0,0,0,0,0,0,0,0,0,0,0,0,0,0,0,0,0,0,0,0,0,0,0,0,0,0,0,0,0,0,0,0,0,0,0,0,0,0,0,0,0,0,0,0,0,0,0,0,0,0,0,0,0,0,0,0,0,0,0,0,0,0,0,0,0,0,0,0,0,0,0,0,0,0,0,0,0,0,0,0,0,0,0,0,0,0,0,0,0,0,0,0,0,0,0,0],"id":0,"left_children":[1,3,5,7,9,11,13,15,17,19,21,23,25,27,29,31,33,35,37,39,-1,41,43,45,47,49,51,53,55,57,59,61,-1,63,65,-1,67,69,71,73,75,77,79,-1,-1,81,83,85,87,89,91,93,95,97,-1,99,101,103,-1,105,-1,-1,-1,-1,-1,-1,-1,-1,-1,-1,-1,-1,-1,-1,-1,-1,-1,-1,-1,-1,-1,-1,-1,-1,-1,-1,-1,-1,-1,-1,-1,-1,-1,-1,-1,-1,-1,-1,-1,-1,-1,-1,-1,-1,-1,-1,-1],"loss_changes":[2.847286E2,4.3320282E1,8.0202805E1,1.0304077E1,5.0108004E0,5.5036835E1,2.8114014E0,1.0462036E0,4.007637E0,1.0446988E0,1.8048458E0,2.067971E1,1.1338387E1,4.7483826E-1,2.3227692E-1,8.3602905E-1,2.9590583E0,3.0463552E0,2.076313E0,9.647478E-1,0E0,2.6300287E-1,2.6333368E-1,1.4970119E1,1.5950484E0,1.9194935E1,3.6386108E0,5.1406384E-1,2.1221447E-1,2.2009584E-1,1.13731384E-1,4.5410156E-1,0E0,1.22273445E-1,2.580781E-1,0E0,2.4457216E0,7.272568E-1,7.773104E-1,9.3937266E-1,9.807255E-1,6.7419335E-2,5.5283546E-2,0E0,0E0,7.756647E0,1.9066925E0,9.4982433E-1,4.151206E-1,3.104168E0,1.2639908E1,3.1963234E0,3.8902235E0,1.3306522E-1,0E0,2.1441078E-1,1.15813255E-1,7.95755E-2,0E0,1.01818085E-1,0E0,0E0,0E0,0E0,0E0,0E0,0E0,0E0,0E0,0E0,0E0,0E0,0E0,0E0,0E0,0E0,0E0,0E0,0E0,0E0,0E0,0E0,0E0,0E0,0E0,0E0,0E0,0E0,0E0,0E0,0E0,0E0,0E0,0E0,0E0,0E0,0E0,0E0,0E0,0E0,0E0,0E0,0E0,0E0,0E0,0E0,0E0],"parents":[2147483647,0,0,1,1,2,2,3,3,4,4,5,5,6,6,7,7,8,8,9,9,10,10,11,11,12,12,13,13,14,14,15,15,16,16,17,17,18,18,19,19,21,21,22,22,23,23,24,24,25,25,26,26,27,27,28,28,29,29,30,30,31,31,33,33,34,34,36,36,37,37,38,38,39,39,40,40,41,41,42,42,45,45,46,46,47,47,48,48,49,49,50,50,51,51,52,52,53,53,55,55,56,56,57,57,59,59],"right_children":[2,4,6,8,10,12,14,16,18,20,22,24,26,28,30,32,34,36,38,40,-1,42,44,46,48,50,52,54,56,58,60,62,-1,64,66,-1,68,70,72,74,76,78,80,-1,-1,82,84,86,88,90,92,94,96,98,-1,100,102,104,-1,106,-1,-1,-1,-1,-1,-1,-1,-1,-1,-1,-1,-1,-1,-1,-1,-1,-1,-1,-1,-1,-1,-1,-1,-1,-1,-1,-1,-1,-1,-1,-1,-1,-1,-1,-1,-1,-1,-1,-1,-1,-1,-1,-1,-1,-1,-1,-1],"split_conditions":[1.4367187E-3,9.029303E-2,7.839871E-2,9.2421874E-4,1.07819445E-1,2.9429689E-3,1.1265595E-1,7.282107E-2,3.180405E-2,1.15E-3,2.4189231E-1,4.694095E-2,4.080107E-3,4.527968E-3,4.4055057E-1,5.653372E-1,7.859375E-4,2.5767821E-3,4.3679256E-2,9.851731E-2,-5.934031E-3,9.7635984E-2,1.3313287E-1,5.6999063E-1,5.104008E-1,3.122918E-2,5.64017E-2,5.104008E-1,9.5894136E-2,2.8992188E-3,1.357096E-1,3.84375E-4,1.6130468E-2,8.379038E-2,6.4366035E-2,1.6205875E-2,1.278125E-3,5.6606984E-1,1.5283431E-1,8.546875E-4,5.6901824E-1,1.2648444E-1,1.340527E-1,1.4507568E-2,-2.3611167E-3,3.1918045E-2,8.34657E-2,1.5757813E-3,1.158309E-1,8.1360094E-2,6.1677534E-2,5.4034856E-3,4.90834E-3,4.3579483E-1,1.1093744E-2,2.1923786E-1,5.2757813E-3,4.0286767E-1,-6.0515786E-3,5.3015626E-3,-8.211332E-3,1.6280985E-2,1.21681765E-2,-0E0,1.5540798E-2,9.7800875E-3,-1.3350684E-3,8.576938E-3,2.1300942E-3,1.1148457E-2,1.5934428E-2,7.905415E-3,1.51020335E-2,1.3376062E-2,-1.8040538E-3,1.4912783E-2,1.3794195E-3,9.305551E-3,-1.6319373E-3,-2.3148223E-3,-7.951377E-3,1.9626908E-3,7.194584E-3,-3.8541653E-3,1.267238E-2,7.5367646E-4,-3.3462297E-3,1.51171805E-2,-0E0,-6.350895E-3,-2.4859195E-3,4.7185738E-3,-3.218878E-3,-4.6330616E-3,4.0502786E-3,1.9948226E-3,-4.193714E-3,-6.7489184E-3,5.7291626E-3,-3.9417744E-3,-7.4580605E-3,-7.032901E-3,-5.1513542E-3,1.1093744E-2,-5.208375E-4,-7.727162E-3,-6.0487418E-3],"split_indices":[8,0,0,8,3,8,0,0,0,8,2,0,8,8,4,4,8,0,0,0,0,2,0,4,2,0,0,2,0,8,0,8,0,6,3,0,8,4,2,8,4,0,7,0,0,0,2,8,7,2,3,8,8,3,0,2,8,2,0,8,0,0,0,0,0,0,0,0,0,0,0,0,0,0,0,0,0,0,0,0,0,0,0,0,0,0,0,0,0,0,0,0,0,0,0,0,0,0,0,0,0,0,0,0,0,0,0],"split_type":[0,0,0,0,0,0,0,0,0,0,0,0,0,0,0,0,0,0,0,0,0,0,0,0,0,0,0,0,0,0,0,0,0,0,0,0,0,0,0,0,0,0,0,0,0,0,0,0,0,0,0,0,0,0,0,0,0,0,0,0,0,0,0,0,0,0,0,0,0,0,0,0,0,0,0,0,0,0,0,0,0,0,0,0,0,0,0,0,0,0,0,0,0,0,0,0,0,0,0,0,0,0,0,0,0,0,0],"sum_hessian":[2.5577E4,4.331E3,2.1246E4,3.892E3,4.39E2,1.5242E4,6.004E3,2.422E3,1.47E3,1.39E2,3E2,4.604E3,1.0638E4,1.876E3,4.128E3,2.265E3,1.57E2,7.06E2,7.64E2,1.2E2,1.9E1,2.88E2,1.2E1,3.617E3,9.87E2,4.662E3,5.976E3,7.89E2,1.087E3,1E1,4.118E3,4.12E2,1.853E3,1.13E2,4.4E1,8.4E1,6.22E2,4.7E2,2.94E2,5.7E1,6.3E1,3E0,2.85E2,1E1,2E0,2.892E3,7.25E2,9.65E2,2.2E1,2.209E3,2.453E3,4.963E3,1.013E3,7.86E2,3E0,5.92E2,4.95E2,4E0,6E0,9.06E2,3.212E3,1.2E2,2.92E2,1E0,1.12E2,5E0,3.9E1,3.75E2,2.47E2,1.31E2,3.39E2,2.46E2,4.8E1,1.2E1,4.5E1,4.2E1,2.1E1,2E0,1E0,8E0,2.77E2,1.639E3,1.253E3,1.7E1,7.08E2,1.69E2,7.96E2,1.5E1,7E0,8.49E2,1.36E3,1.752E3,7.01E2,4.856E3,1.07E2,4.98E2,5.15E2,7.85E2,1E0,5.4E2,5.2E1,1.56E2,3.39E2,3E0,1E0,7.4E2,1.66E2],"tree_param":{"num_deleted":"0","num_feature":"13","num_nodes":"107","size_leaf_vector":"1"}},{"base_weights":[-9.0262234E-5,4.2241774E-2,-1.3256787E-1,8.2381785E-2,1.652941E-2,3.7233982E-2,-1.3865502E-1,8.40759E-3,2.1264221E-1,3.585422E-2,-1.0514725E-2,9.8405704E-2,-5.8874022E-2,-1.0179205E-1,-1.5188543E-1,8.6325124E-2,-1.084829E-2,2.6985386E-1,1.6681828E-1,2.804579E-2,9.545534E-2,-1.4163273E-2,2.0007917E-1,5.298144E-2,2.3141919E-1,-6.8178564E-2,9.087071E-3,-1.03584826E-1,8.728593E-2,-1.5263526E-1,-6.10613E-2,6.837265E-2,1.6801108E-1,-1.0554262E-1,1.888728E-2,-5.946824E-2,2.808269E-1,1.876534E-1,7.97284E-2,2.5277643E-2,1.2166839E-1,1.2597246E-1,4.28051E-2,4.9234414E-4,-3.984455E-2,2.267198E-1,7.586498E-2,1.4277487E-1,5.8350004E-3,1.5056181E-2,-5.621489E-2,-4.461994E-2,-7.1954057E-3,-3.590534E-2,-1.084548E-1,1.3200899E-2,-4.392843E-3,-7.112102E-3,-7.782957E-3,2.3280257E-2,-1.1891145E-1,1.9979074E-3,4.99159E-3,6.7670303E-3,1.2749231E-2,-4.392926E-3,-5.452336E-3,2.9352792E-3,-3.5218542E-4,-5.023704E-3,8.648858E-3,1.4524201E-2,1.038638E-2,7.661452E-3,1.1165566E-2,1.0345051E-2,2.4902327E-3,7.716296E-3,1.1884281E-3,7.1768067E-3,-8.8650634E-4,8.824944E-3,4.4595962E-3,1.4341801E-2,1.5136286E-3,-9.861227E-5,6.1470848E-3,-3.7097265E-3,-3.2784918E-4,5.4517346E-3,1.2536782E-2,8.205405E-3,-4.829937E-3,1.0820204E-2,1.4208792E-3,-1.3929878E-3,6.166709E-3,-5.5020764E-3,9.450563E-4,-3.731443E-3,3.6732059E-3,-3.5708884E-4,-4.945099E-3,-4.6578306E-3,-6.031821E-3,8.182865E-3,-6.252697E-3,5.366474E-3,-6.888117E-3],"categories":[],"categories_nodes":[],"categories_segments":[],"categories_sizes":[],"default_left":[0,0,0,0,0,0,0,0,0,0,0,0,0,0,0,0,0,0,0,0,0,0,0,0,0,0,0,0,0,0,0,0,0,0,0,0,0,0,0,0,0,0,0,0,0,0,0,0,0,0,0,0,0,0,0,0,0,0,0,0,0,0,0,0,0,0,0,0,0,0,0,0,0,0,0,0,0,0,0,0,0,0,0,0,0,0,0,0,0,0,0,0,0,0,0,0,0,0,0,0,0,0,0,0,0,0,0,0,0],"id":1,"left_children":[1,3,5,7,9,11,13,15,17,19,21,23,25,27,29,31,33,35,37,39,41,43,45,47,49,51,-1,53,55,57,59,61,63,65,67,69,71,73,75,77,79,81,83,85,87,89,91,93,95,-1,97,99,-1,101,103,-1,-1,-1,-1,105,107,-1,-1,-1,-1,-1,-1,-1,-1,-1,-1,-1,-1,-1,-1,-1,-1,-1,-1,-1,-1,-1,-1,-1,-1,-1,-1,-1,-1,-1,-1,-1,-1,-1,-1,-1,-1,-1,-1,-1,-1,-1,-1,-1,-1,-1,-1,-1,-1],"loss_changes":[1.4438818E2,2.0124912E1,6.459854E0,7.336319E1,6.2195096E0,1.2796307E0,2.8952026E0,7.298785E0,7.141861E0,3.2147875E0,3.792244E0,7.628901E-1,1.8909514E-1,5.513344E-1,2.7072906E-1,1.3785458E0,1.0980975E1,4.461952E0,2.743599E0,1.5732207E0,1.2663312E0,1.8380303E0,2.3050928E-1,4.118834E-1,7.030475E-1,1.2102094E-1,0E0,5.0276375E-1,5.051121E-1,8.597565E-2,2.0261912E-1,6.908915E-1,4.1518974E-1,2.8482437E-2,3.0670252E0,3.9139408E-1,7.263565E-1,1.4465446E0,1.1018636E0,1.1401722E0,5.4858327E-1,8.980341E-1,8.679282E-1,9.481821E-1,2.0187345E0,1.2887287E-1,2.8132206E-1,2.556494E-1,2.8220272E-1,0E0,3.9496645E-2,2.359314E-1,0E0,1.8619812E-1,2.4188614E-1,0E0,0E0,0E0,0E0,3.5748976E-1,1.20185405E-1,0E0,0E0,0E0,0E0,0E0,0E0,0E0,0E0,0E0,0E0,0E0,0E0,0E0,0E0,0E0,0E0,0E0,0E0,0E0,0E0,0E0,0E0,0E0,0E0,0E0,0E0,0E0,0E0,0E0,0E0,0E0,0E0,0E0,0E0,0E0,0E0,0E0,0E0,0E0,0E0,0E0,0E0,0E0,0E0,0E0,0E0,0E0,0E0],"parents":[2147483647,0,0,1,1,2,2,3,3,4,4,5,5,6,6,7,7,8,8,9,9,10,10,11,11,12,12,13,13,14,14,15,15,16,16,17,17,18,18,19,19,20,20,21,21,22,22,23,23,24,24,25,25,27,27,28,28,29,29,30,30,31,31,32,32,33,33,34,34,35,35,36,36,37,37,38,38,39,39,40,40,41,41,42,42,43,43,44,44,45,45,46,46,47,47,48,48,50,50,51,51,53,53,54,54,59,59,60,60],"right_children":[2,4,6,8,10,12,14,16,18,20,22,24,26,28,30,32,34,36,38,40,42,44,46,48,50,52,-1,54,56,58,60,62,64,66,68,70,72,74,76,78,80,82,84,86,88,90,92,94,96,-1,98,100,-1,102,104,-1,-1,-1,-1,106,108,-1,-1,-1,-1,-1,-1,-1,-1,-1,-1,-1,-1,-1,-1,-1,-1,-1,-1,-1,-1,-1,-1,-1,-1,-1,-1,-1,-1,-1,-1,-1,-1,-1,-1,-1,-1,-1,-1,-1,-1,-1,-1,-1,-1,-1,-1,-1,-1],"split_conditions":[8.42106E-2,1.3301855E-2,1.366407E-2,3.229954E-2,5.2979622E-2,9.827635E-2,1.1265595E-1,8.186215E-3,1.2496731E-2,1.3397743E-1,4.6949863E-1,1.03027225E-1,9.1023964E-1,4.3579483E-1,2.1384968E-1,7.72E-1,1.1108162E-2,1.1108162E-2,5.0245233E-2,9.5533335E-1,4.6615034E-2,2.1476071E-2,8.66E-1,7.421327E-2,7.975E-1,1.5326913E-1,9.087071E-3,8.982818E-2,1.4442226E-1,1.357096E-1,2.6645166E-1,4.9E-1,6.277899E-1,1.575E-1,1.2472707E-2,1.07898094E-1,4.5738064E-2,3.4815118E-2,9.1028646E-2,2.037348E-2,1.2394997E-1,4.453279E-1,1.5838394E-2,1.6410576E-1,2.023376E-1,1.45E-1,6.910853E-1,1.2418309E-1,7.34E-1,1.5056181E-2,1.1994923E-1,1.0173151E-1,-7.1954057E-3,9.1788545E-2,9.708509E-2,1.3200899E-2,-4.392843E-3,-7.112102E-3,-7.782957E-3,1.2872502E-1,7.249321E-2,1.9979074E-3,4.99159E-3,6.7670303E-3,1.2749231E-2,-4.392926E-3,-5.452336E-3,2.9352792E-3,-3.5218542E-4,-5.023704E-3,8.648858E-3,1.4524201E-2,1.038638E-2,7.661452E-3,1.1165566E-2,1.0345051E-2,2.4902327E-3,7.716296E-3,1.1884281E-3,7.1768067E-3,-8.8650634E-4,8.824944E-3,4.4595962E-3,1.4341801E-2,1.5136286E-3,-9.861227E-5,6.1470848E-3,-3.7097265E-3,-3.2784918E-4,5.4517346E-3,1.2536782E-2,8.205405E-3,-4.829937E-3,1.0820204E-2,1.4208792E-3,-1.3929878E-3,6.166709E-3,-5.5020764E-3,9.450563E-4,-3.731443E-3,3.6732059E-3,-3.5708884E-4,-4.945099E-3,-4.6578306E-3,-6.031821E-3,8.182865E-3,-6.252697E-3,5.366474E-3,-6.888117E-3],"split_indices":[0,1,1,0,3,2,0,2,1,2,1,0,10,3,1,11,1,1,0,9,3,1,9,3,10,5,0,3,5,0,1,10,10,10,1,5,3,0,2,11,2,10,1,2,2,10,10,7,11,0,0,0,0,0,0,0,0,0,0,0,11,0,0,0,0,0,0,0,0,0,0,0,0,0,0,0,0,0,0,0,0,0,0,0,0,0,0,0,0,0,0,0,0,0,0,0,0,0,0,0,0,0,0,0,0,0,0,0,0],"split_type":[0,0,0,0,0,0,0,0,0,0,0,0,0,0,0,0,0,0,0,0,0,0,0,0,0,0,0,0,0,0,0,0,0,0,0,0,0,0,0,0,0,0,0,0,0,0,0,0,0,0,0,0,0,0,0,0,0,0,0,0,0,0,0,0,0,0,0,0,0,0,0,0,0,0,0,0,0,0,0,0,0,0,0,0,0,0,0,0,0,0,0,0,0,0,0,0,0,0,0,0,0,0,0,0,0,0,0,0,0],"sum_hessian":[2.5743E4,1.9509E4,6.234E3,7.615E3,1.1894E4,2.15E2,6.019E3,4.858E3,2.757E3,6.939E3,4.955E3,1.32E2,8.3E1,1.594E3,4.425E3,9.63E2,3.895E3,1.223E3,1.534E3,6.138E3,8.01E2,4.872E3,8.3E1,1E2,3.2E1,8.1E1,2E0,1.58E3,1.4E1,4.387E3,3.8E1,7.92E2,1.71E2,9.31E2,2.964E3,3.9E1,1.184E3,1.236E3,2.98E2,5.964E3,1.74E2,5.05E2,2.96E2,3.1E3,1.772E3,6.7E1,1.6E1,3.3E1,6.7E1,2.6E1,6E0,6.4E1,1.7E1,1.08E2,1.472E3,7E0,7E0,1.007E3,3.38E3,1.5E1,2.3E1,4.19E2,3.73E2,1.27E2,4.4E1,1.63E2,7.68E2,1.17E3,1.794E3,3.4E1,5E0,1.042E3,1.42E2,6.33E2,6.03E2,5.5E1,2.43E2,6.7E1,5.897E3,1.51E2,2.3E1,2.1E2,2.95E2,1.3E1,2.83E2,3.039E3,6.1E1,8.7E2,9.02E2,1.3E1,5.4E1,1.1E1,5E0,1.9E1,1.4E1,5.2E1,1.5E1,4E0,2E0,5.2E1,1.2E1,7.6E1,3.2E1,6.6E2,8.12E2,8E0,7E0,1E0,2.2E1],"tree_param":{"num_deleted":"0","num_feature":"13","num_nodes":"109","size_leaf_vector":"1"}},{"base_weights":[8.2272367E-4,4.139487E-2,-1.259713E-1,7.7577785E-2,1.8233564E-2,-3.476274E-2,-1.3578701E-1,2.9398038E-3,1.965136E-1,3.4392655E-2,-1.3422017E-2,1.0304015E-1,-5.7326883E-2,-1.04531504E-1,-1.4383917E-1,7.972658E-2,-1.6967779E-2,2.5247762E-1,1.4976703E-1,2.4850683E-2,8.811303E-2,-1.7431738E-2,1.871878E-1,-4.7153246E-2,1.717212E-1,-6.4422145E-2,8.8417396E-2,-1.0807586E-1,1.653778E-1,-1.4451341E-1,-6.332305E-2,-1.0892543E-1,9.548816E-2,-1.0064761E-1,1.0865422E-2,-7.854364E-2,2.6317E-1,1.6625084E-1,7.037377E-2,6.747081E-2,1.7855763E-2,5.7699006E-2,1.2950878E-1,1.5132475E-1,-1.9895665E-2,2.1693036E-1,4.114039E-2,-9.04471E-2,9.969908E-3,7.9259574E-2,2.676873E-1,-6.0403976E-3,-7.466085E-2,1.2880537E-2,-6.029951E-3,9.4972305E-2,-1.0878246E-1,1.3288716E-2,-3.4285046E-3,6.7542695E-2,-1.447437E-1,-1.10568516E-1,2.5173426E-2,-2.082794E-3,-5.803018E-3,3.7889888E-3,7.72207E-3,-5.094172E-3,-3.2278073E-3,3.1789595E-3,-3.180343E-4,-6.609817E-3,4.8182323E-3,1.3610343E-2,9.530881E-3,4.65133E-3,9.344113E-3,9.2815794E-4,7.010627E-3,-6.8188296E-5,5.730677E-3,5.317119E-3,7.5558224E-4,-2.439548E-3,3.362354E-3,6.8011223E-3,-4.13165E-3,2.2660622E-3,1.0538741E-2,-1.6602965E-4,-2.1593557E-3,7.4859313E-3,1.34445075E-2,6.3627423E-3,-4.6286895E-3,1.3380179E-3,-5.3432076E-3,-2.803074E-3,1.0392029E-2,1.4894388E-2,-0E0,-3.340837E-3,1.2146484E-3,-1.5334276E-3,-4.165632E-3,6.1075767E-3,-5.2576996E-3,-1.4169471E-3,8.942786E-3,-4.6453015E-3,-5.9005315E-3,-1.8999655E-3,9.19519E-3,-1.8859571E-3,-7.2624385E-3,-7.1673426E-3,2.1162769E-3,1.1321345E-2,-3.3985325E-3],"categories":[],"categories_nodes":[],"categories_segments":[],"categories_sizes":[],"default_left":[0,0,0,0,0,0,0,0,0,0,0,0,0,0,0,0,0,0,0,0,0,0,0,0,0,0,0,0,0,0,0,0,0,0,0,0,0,0,0,0,0,0,0,0,0,0,0,0,0,0,0,0,0,0,0,0,0,0,0,0,0,0,0,0,0,0,0,0,0,0,0,0,0,0,0,0,0,0,0,0,0,0,0,0,0,0,0,0,0,0,0,0,0,0,0,0,0,0,0,0,0,0,0,0,0,0,0,0,0,0,0,0,0,0,0,0,0,0,0],"id":2,"left_children":[1,3,5,7,9,11,13,15,17,19,21,23,25,27,29,31,33,35,37,39,41,43,45,47,49,51,53,55,57,59,61,63,65,67,69,71,73,75,77,79,81,83,85,87,89,91,93,95,-1,97,99,101,103,-1,105,107,109,-1,-1,111,113,115,117,-1,-1,-1,-1,-1,-1,-1,-1,-1,-1,-1,-1,-1,-1,-1,-1,-1,-1,-1,-1,-1,-1,-1,-1,-1,-1,-1,-1,-1,-1,-1,-1,-1,-1,-1,-1,-1,-1,-1,-1,-1,-1,-1,-1,-1,-1,-1,-1,-1,-1,-1,-1,-1,-1,-1,-1],"loss_changes":[1.3185045E2,1.6262974E1,5.5405807E0,6.724148E1,6.0605545E0,1.8856347E0,1.3715057E0,7.126501E0,7.5636673E0,4.0068226E0,3.204649E0,8.9736646E-1,5.430937E-1,1.1170788E0,2.1187592E-1,2.8635736E0,8.623001E0,4.735924E0,2.052021E0,1.976665E0,1.4606991E0,1.6214813E0,3.040867E-1,2.953422E-1,4.6760607E-1,2.8975773E-1,4.102282E-1,1.754179E-1,3.9025778E-1,2.3308563E-1,1.7856519E-1,1.4911056E-2,9.9585533E-1,1.799202E-2,2.525973E0,4.104629E-1,7.449951E-1,1.9472618E0,9.838133E-1,3.052093E0,1.376865E0,7.0060015E-1,7.047272E-1,3.177451E-1,1.4888619E0,1.4138913E-1,1.8796943E-1,5.7050943E-2,0E0,5.836207E-1,2.1204615E-1,1.4782897E-1,1.4704585E-1,0E0,2.1443883E-1,6.1495323E-2,1.3467216E-1,0E0,0E0,8.298359E-2,2.1466827E-1,1.5148291E-1,2.9367396E-1,0E0,0E0,0E0,0E0,0E0,0E0,0E0,0E0,0E0,0E0,0E0,0E0,0E0,0E0,0E0,0E0,0E0,0E0,0E0,0E0,0E0,0E0,0E0,0E0,0E0,0E0,0E0,0E0,0E0,0E0,0E0,0E0,0E0,0E0,0E0,0E0,0E0,0E0,0E0,0E0,0E0,0E0,0E0,0E0,0E0,0E0,0E0,0E0,0E0,0E0,0E0,0E0,0E0,0E0,0E0,0E0],"parents":[2147483647,0,0,1,1,2,2,3,3,4,4,5,5,6,6,7,7,8,8,9,9,10,10,11,11,12,12,13,13,14,14,15,15,16,16,17,17,18,18,19,19,20,20,21,21,22,22,23,23,24,24,25,25,26,26,27,27,28,28,29,29,30,30,31,31,32,32,33,33,34,34,35,35,36,36,37,37,38,38,39,39,40,40,41,41,42,42,43,43,44,44,45,45,46,46,47,47,49,49,50,50,51,51,52,52,54,54,55,55,56,56,59,59,60,60,61,61,62,62],"right_children":[2,4,6,8,10,12,14,16,18,20,22,24,26,28,30,32,34,36,38,40,42,44,46,48,50,52,54,56,58,60,62,64,66,68,70,72,74,76,78,80,82,84,86,88,90,92,94,96,-1,98,100,102,104,-1,106,108,110,-1,-1,112,114,116,118,-1,-1,-1,-1,-1,-1,-1,-1,-1,-1,-1,-1,-1,-1,-1,-1,-1,-1,-1,-1,-1,-1,-1,-1,-1,-1,-1,-1,-1,-1,-1,-1,-1,-1,-1,-1,-1,-1,-1,-1,-1,-1,-1,-1,-1,-1,-1,-1,-1,-1,-1,-1,-1,-1,-1,-1],"split_conditions":[8.42106E-2,1.3301855E-2,1.0521677E-1,3.1918045E-2,5.8191452E-2,9.345194E-2,1.1265595E-1,8.186215E-3,1.2517825E-2,5.7144237E-1,4.6949863E-1,5.6606984E-1,1.0643954E-1,4.3579483E-1,2.1384968E-1,5.697689E-1,1.1108162E-2,1.1108162E-2,4.6615034E-2,2.9684125E-2,3.4815118E-2,3.2610573E-2,8.66E-1,1.03027225E-1,9.431789E-2,8.3261214E-2,1.33869E-2,9.448773E-2,6.1701715E-1,4.4055057E-1,3.8907078E-1,2.8420135E-2,7.2349566E-1,9.4365704E-1,1.2281819E-2,5.691146E-1,4.6615034E-2,3.2785237E-2,5.6863946E-1,1.4251448E-2,3.773056E-2,9.9505246E-2,1.6075344E-1,3.4125996E-1,2.1476071E-2,4.35E-1,6.910853E-1,8.7304085E-2,9.969908E-3,5.682056E-1,1.5575711E-1,3.3809635E-1,1.4095835E-2,1.2880537E-2,1.0116425E-1,1.9168258E-2,9.708509E-2,1.3288716E-2,-3.4285046E-3,1.798172E-1,1.1207669E-1,7.2E-1,4.6612802E-1,-2.082794E-3,-5.803018E-3,3.7889888E-3,7.72207E-3,-5.094172E-3,-3.2278073E-3,3.1789595E-3,-3.180343E-4,-6.609817E-3,4.8182323E-3,1.3610343E-2,9.530881E-3,4.65133E-3,9.344113E-3,9.2815794E-4,7.010627E-3,-6.8188296E-5,5.730677E-3,5.317119E-3,7.5558224E-4,-2.439548E-3,3.362354E-3,6.8011223E-3,-4.13165E-3,2.2660622E-3,1.0538741E-2,-1.6602965E-4,-2.1593557E-3,7.4859313E-3,1.34445075E-2,6.3627423E-3,-4.6286895E-3,1.3380179E-3,-5.3432076E-3,-2.803074E-3,1.0392029E-2,1.4894388E-2,-0E0,-3.340837E-3,1.2146484E-3,-1.5334276E-3,-4.165632E-3,6.1075767E-3,-5.2576996E-3,-1.4169471E-3,8.942786E-3,-4.6453015E-3,-5.9005315E-3,-1.8999655E-3,9.19519E-3,-1.8859571E-3,-7.2624385E-3,-7.1673426E-3,2.1162769E-3,1.1321345E-2,-3.3985325E-3],"split_indices":[0,1,3,0,3,2,0,2,1,4,1,4,0,3,1,4,1,1,3,0,0,0,9,0,0,3,1,5,3,4,3,5,11,10,1,4,3,0,4,1,10,2,2,11,1,10,10,0,0,4,5,10,1,0,3,1,0,0,0,5,3,11,10,0,0,0,0,0,0,0,0,0,0,0,0,0,0,0,0,0,0,0,0,0,0,0,0,0,0,0,0,0,0,0,0,0,0,0,0,0,0,0,0,0,0,0,0,0,0,0,0,0,0,0,0,0,0,0,0],"split_type":[0,0,0,0,0,0,0,0,0,0,0,0,0,0,0,0,0,0,0,0,0,0,0,0,0,0,0,0,0,0,0,0,0,0,0,0,0,0,0,0,0,0,0,0,0,0,0,0,0,0,0,0,0,0,0,0,0,0,0,0,0,0,0,0,0,0,0,0,0,0,0,0,0,0,0,0,0,0,0,0,0,0,0,0,0,0,0,0,0,0,0,0,0,0,0,0,0,0,0,0,0,0,0,0,0,0,0,0,0,0,0,0,0,0,0,0,0,0,0],"sum_hessian":[2.563E4,1.9418E4,6.212E3,7.576E3,1.1842E4,6.05E2,5.607E3,4.656E3,2.92E3,7.842E3,4E3,8.4E1,5.21E2,1.154E3,4.453E3,9.59E2,3.697E3,1.326E3,1.594E3,6.662E3,1.18E3,3.923E3,7.7E1,2.6E1,5.8E1,4.98E2,2.3E1,1.14E3,1.4E1,4.414E3,3.9E1,7.3E1,8.86E2,9.23E2,2.774E3,4.1E1,1.285E3,1.318E3,2.76E2,9.36E2,5.726E3,6.83E2,4.97E2,5.5E1,3.868E3,6.3E1,1.4E1,2.3E1,3E0,3.1E1,2.7E1,7.6E1,4.22E2,8E0,1.5E1,3E0,1.137E3,1E1,4E0,4E0,4.41E3,2.6E1,1.3E1,9E0,6.4E1,6.67E2,2.19E2,8.88E2,3.5E1,6.84E2,2.09E3,3.2E1,9E0,1.139E3,1.46E2,2.92E2,1.026E3,1.6E2,1.16E2,3.8E2,5.56E2,1.7E2,5.556E3,5.5E1,6.28E2,4.83E2,1.4E1,2.1E1,3.4E1,2.263E3,1.605E3,3E1,3.3E1,9E0,5E0,2E0,2.1E1,1.5E1,1.6E1,2.4E1,3E0,2.6E1,5E1,7.2E1,3.5E2,6E0,9E0,1E0,2E0,4.26E2,7.11E2,2E0,2E0,2.2E1,4.388E3,2.2E1,4E0,4E0,9E0],"tree_param":{"num_deleted":"0","num_feature":"13","num_nodes":"119","size_leaf_vector":"1"}},{"base_weights":[3.553194E-5,2.1878374E-1,-4.2612806E-2,2.4823096E-1,-4.6948157E-2,-9.3192095E-3,-1.2398317E-1,2.7980557E-1,1.9060305E-1,1.3291831E-1,-9.701187E-2,7.6514795E-2,-4.8562765E-2,-9.5158026E-2,-1.3690169E-1,2.842725E-1,2.0619394E-1,1.4729409E-1,2.3067571E-1,3.3121414E-2,1.9883245E-1,-1.1774516E-1,2.4111076E-1,1.0698946E-1,-3.880175E-2,-1.5518367E-2,-7.951015E-2,-1.1452166E-1,-8.241272E-2,-0E0,-1.3731323E-1,2.50569E-1,1.4611006E-2,1.4348659E-2,8.021531E-4,1.4950705E-2,1.24259025E-1,2.6678318E-1,1.755848E-1,2.2976895E-1,-3.2381922E-2,2.7244732E-1,1.6703188E-2,4.6258983E-3,-1.3270137E-1,1.4153517E-2,-2.1848555E-3,7.646869E-2,2.2948669E-1,-4.7293037E-2,2.6493257E-1,-7.5740606E-2,4.224547E-2,-8.924282E-2,-9.969949E-3,-1.16166666E-1,1.3776545E-1,-7.636445E-2,-1.3925767E-1,1.6980189E-1,-5.750628E-3,-1.2580173E-1,-7.0358487E-3,1.0867726E-2,1.5009524E-2,8.860372E-3,-1.2561543E-3,8.398472E-3,2.105379E-3,1.0486022E-2,1.4342676E-2,7.5093405E-3,1.3280912E-2,-0E0,1.3052151E-2,-4.390283E-3,1.1560657E-2,-9.1424456E-4,1.4175092E-2,8.397849E-3,-6.26477E-3,-2.7735762E-3,4.5557036E-3,5.245683E-3,-6.8025426E-3,1.7955374E-3,6.4297556E-3,8.864282E-3,1.3289466E-2,-0E0,-3.2543929E-3,1.38605265E-2,2.0486044E-3,-5.7194945E-3,-2.689592E-3,3.6717516E-3,-3.2683245E-3,-4.656184E-3,3.5407834E-3,3.204845E-3,-3.9159837E-3,6.130464E-3,-5.838808E-3,-1.19536184E-4,9.920109E-3,-3.1918846E-3,-5.2683256E-3,-1.4366802E-3,-7.110696E-3,1.1288374E-2,-2.5065002E-4,-6.638657E-3,-4.9729925E-3],"categories":[],"categories_nodes":[],"categories_segments":[],"categories_sizes":[],"default_left":[0,0,0,0,0,0,0,0,0,0,0,0,0,0,0,0,0,0,0,0,0,0,0,0,0,0,0,0,0,0,0,0,0,0,0,0,0,0,0,0,0,0,0,0,0,0,0,0,0,0,0,0,0,0,0,0,0,0,0,0,0,0,0,0,0,0,0,0,0,0,0,0,0,0,0,0,0,0,0,0,0,0,0,0,0,0,0,0,0,0,0,0,0,0,0,0,0,0,0,0,0,0,0,0,0,0,0,0,0,0,0,0,0],"id":3,"left_children":[1,3,5,7,9,11,13,15,17,19,21,23,25,27,29,31,33,35,37,39,41,43,45,47,49,51,53,55,57,59,61,63,-1,-1,65,-1,67,69,71,73,75,77,79,81,83,-1,-1,85,87,89,91,93,95,97,99,101,103,105,107,109,-1,111,-1,-1,-1,-1,-1,-1,-1,-1,-1,-1,-1,-1,-1,-1,-1,-1,-1,-1,-1,-1,-1,-1,-1,-1,-1,-1,-1,-1,-1,-1,-1,-1,-1,-1,-1,-1,-1,-1,-1,-1,-1,-1,-1,-1,-1,-1,-1,-1,-1,-1,-1],"loss_changes":[2.3929413E2,3.277968E1,5.8131187E1,6.7558136E0,3.7733035E0,5.1312237E1,2.2840576E0,6.9169617E-1,2.2503357E0,5.688194E-1,2.3154624E0,1.6805492E1,1.0680943E1,4.4817162E-1,2.3990631E-1,4.8536682E-1,2.3601522E0,2.1817026E0,1.2854462E0,5.1665974E-1,6.905346E-1,5.8078575E-1,2.6336467E-1,1.40879135E1,2.5672822E0,1.760513E1,3.641945E0,3.3008385E-1,3.710971E-1,2.9204708E-1,1.23542786E-1,6.180725E-1,0E0,0E0,2.1174109E-1,0E0,1.9971743E0,3.6546707E-1,5.5422115E-1,8.5353434E-2,4.296343E-1,1.538341E-1,3.9043337E-1,1.8534082E-1,2.378478E-1,0E0,0E0,6.3826637E0,1.3355331E0,8.2314944E-1,3.1067848E-2,2.0791254E0,8.671755E0,2.9487915E0,3.3729708E0,1.2404823E-1,6.256853E-2,3.6290693E-1,1.4760017E-2,8.19089E-2,0E0,1.4610958E-1,0E0,0E0,0E0,0E0,0E0,0E0,0E0,0E0,0E0,0E0,0E0,0E0,0E0,0E0,0E0,0E0,0E0,0E0,0E0,0E0,0E0,0E0,0E0,0E0,0E0,0E0,0E0,0E0,0E0,0E0,0E0,0E0,0E0,0E0,0E0,0E0,0E0,0E0,0E0,0E0,0E0,0E0,0E0,0E0,0E0,0E0,0E0,0E0,0E0,0E0,0E0],"parents":[2147483647,0,0,1,1,2,2,3,3,4,4,5,5,6,6,7,7,8,8,9,9,10,10,11,11,12,12,13,13,14,14,15,15,16,16,17,17,18,18,19,19,20,20,21,21,22,22,23,23,24,24,25,25,26,26,27,27,28,28,29,29,30,30,31,31,34,34,36,36,37,37,38,38,39,39,40,40,41,41,42,42,43,43,44,44,47,47,48,48,49,49,50,50,51,51,52,52,53,53,54,54,55,55,56,56,57,57,58,58,59,59,61,61],"right_children":[2,4,6,8,10,12,14,16,18,20,22,24,26,28,30,32,34,36,38,40,42,44,46,48,50,52,54,56,58,60,62,64,-1,-1,66,-1,68,70,72,74,76,78,80,82,84,-1,-1,86,88,90,92,94,96,98,100,102,104,106,108,110,-1,112,-1,-1,-1,-1,-1,-1,-1,-1,-1,-1,-1,-1,-1,-1,-1,-1,-1,-1,-1,-1,-1,-1,-1,-1,-1,-1,-1,-1,-1,-1,-1,-1,-1,-1,-1,-1,-1,-1,-1,-1,-1,-1,-1,-1,-1,-1,-1,-1,-1,-1,-1],"split_conditions":[1.4148437E-3,9.029303E-2,7.6086186E-2,9.2421874E-4,9.827635E-2,2.9429689E-3,1.0858019E-1,7.282107E-2,3.2402344E-2,9.851731E-2,8.252738E-2,4.694095E-2,4.1673854E-3,4.3726363E-3,4.4055057E-1,5.653372E-1,7.859375E-4,2.5767821E-3,4.3679256E-2,8.546875E-4,1.3525125E-2,1.0319808E-1,1.3313287E-1,5.6999063E-1,4.6949863E-1,3.157962E-2,6.1057772E-2,4.6949863E-1,5.2736614E-2,2.8992188E-3,1.3313287E-1,1.5982285E-2,1.4611006E-2,1.4348659E-2,6.4366035E-2,1.4950705E-2,1.278125E-3,5.6606984E-1,8.6237475E-2,1.5E-1,7.2667676E-1,7.5563736E-2,8.0171156E-1,9.519475E-2,1.3154176E-2,1.4153517E-2,-2.1848555E-3,3.169411E-2,3.2610573E-2,1.6312911E-3,2.8992188E-3,1.1770668E-2,2.2051562E-2,5.3530955E-3,4.9265623E-3,4.4055057E-1,4.4055057E-1,5.524908E-3,4.6703126E-3,4.622371E-1,-5.750628E-3,5.3015626E-3,-7.0358487E-3,1.0867726E-2,1.5009524E-2,8.860372E-3,-1.2561543E-3,8.398472E-3,2.105379E-3,1.0486022E-2,1.4342676E-2,7.5093405E-3,1.3280912E-2,-0E0,1.3052151E-2,-4.390283E-3,1.1560657E-2,-9.1424456E-4,1.4175092E-2,8.397849E-3,-6.26477E-3,-2.7735762E-3,4.5557036E-3,5.245683E-3,-6.8025426E-3,1.7955374E-3,6.4297556E-3,8.864282E-3,1.3289466E-2,-0E0,-3.2543929E-3,1.38605265E-2,2.0486044E-3,-5.7194945E-3,-2.689592E-3,3.6717516E-3,-3.2683245E-3,-4.656184E-3,3.5407834E-3,3.204845E-3,-3.9159837E-3,6.130464E-3,-5.838808E-3,-1.19536184E-4,9.920109E-3,-3.1918846E-3,-5.2683256E-3,-1.4366802E-3,-7.110696E-3,1.1288374E-2,-2.5065002E-4,-6.638657E-3,-4.9729925E-3],"split_indices":[8,0,0,8,2,8,0,0,0,0,1,0,8,8,4,4,8,0,0,8,1,3,0,4,1,0,0,1,1,8,0,1,0,0,3,0,8,4,3,9,11,3,10,3,1,0,0,0,0,8,8,1,1,8,8,4,4,8,8,3,0,8,0,0,0,0,0,0,0,0,0,0,0,0,0,0,0,0,0,0,0,0,0,0,0,0,0,0,0,0,0,0,0,0,0,0,0,0,0,0,0,0,0,0,0,0,0,0,0,0,0,0,0],"split_type":[0,0,0,0,0,0,0,0,0,0,0,0,0,0,0,0,0,0,0,0,0,0,0,0,0,0,0,0,0,0,0,0,0,0,0,0,0,0,0,0,0,0,0,0,0,0,0,0,0,0,0,0,0,0,0,0,0,0,0,0,0,0,0,0,0,0,0,0,0,0,0,0,0,0,0,0,0,0,0,0,0,0,0,0,0,0,0,0,0,0,0,0,0,0,0,0,0,0,0,0,0,0,0,0,0,0,0,0,0,0,0,0,0],"sum_hessian":[2.5646E4,4.184E3,2.1462E4,3.767E3,4.17E2,1.5232E4,6.23E3,2.43E3,1.337E3,9E1,3.27E2,4.778E3,1.0454E4,1.933E3,4.297E3,2.287E3,1.43E2,6.46E2,6.91E2,3.7E1,5.3E1,3.09E2,1.8E1,3.78E3,9.98E2,5.058E3,5.396E3,7.61E2,1.172E3,1.3E1,4.284E3,4.45E2,1.842E3,1.02E2,4.1E1,8.3E1,5.63E2,4.14E2,2.77E2,9E0,2.8E1,3.7E1,1.6E1,3.3E1,2.76E2,1.6E1,2E0,3.028E3,7.52E2,9.72E2,2.6E1,2.477E3,2.581E3,4.732E3,6.64E2,7.57E2,4E0,1.063E3,1.09E2,5E0,8E0,9.93E2,3.291E3,2.71E2,1.74E2,5E0,3.6E1,3.66E2,1.97E2,1.12E2,3.02E2,2.19E2,5.8E1,1E0,8E0,2.4E1,4E0,1E0,3.6E1,8E0,8E0,1.9E1,1.4E1,3E0,2.73E2,1.705E3,1.323E3,3.12E2,4.4E2,2.65E2,7.07E2,2.4E1,2E0,8.94E2,1.583E3,2.002E3,5.79E2,4.621E3,1.11E2,3.18E2,3.46E2,1E0,7.56E2,1E0,3E0,7.47E2,3.16E2,4E0,1.05E2,4E0,1E0,7.79E2,2.14E2],"tree_param":{"num_deleted":"0","num_feature":"13","num_nodes":"113","size_leaf_vector":"1"}},{"base_weights":[-1.4502116E-5,2.0650457E-1,-4.0523898E-2,2.3513763E-1,-4.995264E-2,-9.048567E-3,-1.1800044E-1,2.6622722E-1,1.7801711E-1,1.027499E-1,-1.0053068E-1,7.1885735E-2,-4.594411E-2,-9.168801E-2,-1.3121244E-1,2.708667E-1,1.9072619E-1,1.3225181E-1,2.1834011E-1,-1.7500844E-2,1.5949677E-1,-1.1877463E-1,2.2359908E-1,1.006126E-1,-3.8780633E-2,-1.0609164E-2,-7.273132E-2,-1.08821765E-1,-7.85077E-2,-3.3242684E-2,-1.314189E-1,2.4090761E-1,1.38831455E-2,1.3434394E-2,1.6175472E-3,1.4190577E-2,1.11971535E-1,2.2890158E-1,5.9426367E-2,1.7379119E-1,-5.9923302E-2,2.1331203E-1,-8.244117E-3,-2.3526063E-2,-6.539888E-3,1.3426353E-2,-2.112027E-3,7.240863E-2,2.144772E-1,-4.5757435E-2,1.3159806E-2,-7.1878165E-2,4.5720275E-2,-8.294491E-2,-1.579748E-2,-1.1158589E-1,1.6457833E-1,-7.1934596E-2,-1.3017446E-1,-5.32401E-3,8.21087E-3,-1.2290342E-1,-6.703615E-3,1.0374841E-2,1.4041386E-2,6.012927E-3,-1.4734475E-3,7.5238766E-3,2.0992972E-3,1.2576732E-2,9.314048E-3,-4.8696897E-3,6.7101875E-3,-0E0,1.0944448E-2,8.278293E-3,-4.323099E-3,1.9030083E-3,1.3213475E-2,1.2227832E-2,-6.598977E-3,-4.218507E-3,2.5776078E-3,1.6287755E-3,6.196134E-3,-3.210493E-3,1.1038792E-2,8.561133E-4,-3.0150197E-3,-5.5635697E-3,-2.3368334E-3,4.273318E-3,-2.9661215E-3,-4.3170867E-3,3.3869285E-3,1.0572141E-3,-5.8905794E-3,-5.2554617E-3,-6.1880685E-3,1.2015574E-2,-1.6829221E-3,-2.8722265E-3,-4.961482E-3,-6.923528E-3,-3.6311194E-3,-6.366815E-3,-4.917426E-3],"categories":[],"categories_nodes":[],"categories_segments":[],"categories_sizes":[],"default_left":[0,0,0,0,0,0,0,0,0,0,0,0,0,0,0,0,0,0,0,0,0,0,0,0,0,0,0,0,0,0,0,0,0,0,0,0,0,0,0,0,0,0,0,0,0,0,0,0,0,0,0,0,0,0,0,0,0,0,0,0,0,0,0,0,0,0,0,0,0,0,0,0,0,0,0,0,0,0,0,0,0,0,0,0,0,0,0,0,0,0,0,0,0,0,0,0,0,0,0,0,0,0,0,0,0,0,0],"id":4,"left_children":[1,3,5,7,9,11,13,15,17,19,21,23,25,27,29,31,33,35,37,39,41,43,45,47,49,51,53,55,57,59,61,63,-1,-1,65,-1,67,69,71,73,75,77,79,81,-1,-1,-1,83,85,87,-1,89,91,93,95,97,99,101,103,-1,-1,105,-1,-1,-1,-1,-1,-1,-1,-1,-1,-1,-1,-1,-1,-1,-1,-1,-1,-1,-1,-1,-1,-1,-1,-1,-1,-1,-1,-1,-1,-1,-1,-1,-1,-1,-1,-1,-1,-1,-1,-1,-1,-1,-1,-1,-1],"loss_changes":[2.1411858E2,3.0849518E1,5.2169823E1,6.613785E0,3.2693796E0,4.544639E1,2.114441E0,7.5756836E-1,2.3996658E0,7.334956E-1,1.8965394E0,1.5158489E1,9.886808E0,4.406395E-1,6.2294006E-2,3.48938E-1,2.1250463E0,1.8619823E0,1.1441689E0,2.7494E-1,6.722106E-1,3.273368E-1,2.3701322E-1,1.2107849E1,2.0592089E0,1.5574484E1,3.4458313E0,6.894283E-1,3.7048674E-1,1.7078854E-1,5.0468445E-2,4.730816E-1,0E0,0E0,1.7490068E-1,0E0,1.4754753E0,5.4794693E-1,5.5617523E-1,5.8341637E-2,1.7994605E-1,4.5088077E-1,5.840661E-1,1.7208159E-1,0E0,0E0,0E0,6.208029E0,1.3463478E0,8.841429E-1,0E0,2.1202536E0,9.819019E0,2.5868874E0,3.4302607E0,3.4049988E-2,1.6387169E-1,3.935194E-1,3.0904055E-2,0E0,0E0,7.321167E-2,0E0,0E0,0E0,0E0,0E0,0E0,0E0,0E0,0E0,0E0,0E0,0E0,0E0,0E0,0E0,0E0,0E0,0E0,0E0,0E0,0E0,0E0,0E0,0E0,0E0,0E0,0E0,0E0,0E0,0E0,0E0,0E0,0E0,0E0,0E0,0E0,0E0,0E0,0E0,0E0,0E0,0E0,0E0,0E0,0E0],"parents":[2147483647,0,0,1,1,2,2,3,3,4,4,5,5,6,6,7,7,8,8,9,9,10,10,11,11,12,12,13,13,14,14,15,15,16,16,17,17,18,18,19,19,20,20,21,21,22,22,23,23,24,24,25,25,26,26,27,27,28,28,29,29,30,30,31,31,34,34,36,36,37,37,38,38,39,39,40,40,41,41,42,42,43,43,47,47,48,48,49,49,51,51,52,52,53,53,54,54,55,55,56,56,57,57,58,58,61,61],"right_children":[2,4,6,8,10,12,14,16,18,20,22,24,26,28,30,32,34,36,38,40,42,44,46,48,50,52,54,56,58,60,62,64,-1,-1,66,-1,68,70,72,74,76,78,80,82,-1,-1,-1,84,86,88,-1,90,92,94,96,98,100,102,104,-1,-1,106,-1,-1,-1,-1,-1,-1,-1,-1,-1,-1,-1,-1,-1,-1,-1,-1,-1,-1,-1,-1,-1,-1,-1,-1,-1,-1,-1,-1,-1,-1,-1,-1,-1,-1,-1,-1,-1,-1,-1,-1,-1,-1,-1,-1,-1],"split_conditions":[1.4148437E-3,9.1788545E-2,7.6086186E-2,9.2421874E-4,1.366407E-2,2.9640626E-3,1.1265595E-1,7.282107E-2,3.180405E-2,9.5894136E-2,8.252738E-2,4.761642E-2,4.060156E-3,4.6875E-3,4.4055057E-1,5.653372E-1,7.859375E-4,2.5767821E-3,8.1892915E-2,8.546875E-4,1.0914062E-3,1.1207669E-1,1.2872502E-1,5.6999063E-1,4.6949863E-1,3.122918E-2,5.64017E-2,3.3958092E-1,3.5847314E-2,3.59154E-1,1.3847846E-1,3.8061365E-2,1.38831455E-2,1.3434394E-2,6.92447E-2,1.4190577E-2,1.278125E-3,4.3679256E-2,1.3408911E-2,4.5E-2,1.0986658E-1,9.851731E-2,1.0471529E-1,4.275E-1,-6.539888E-3,1.3426353E-2,-2.112027E-3,3.1918045E-2,2.1198286E-2,1.5757813E-3,1.3159806E-2,1.1688424E-2,6.2322054E-2,1.2598363E-1,2.3320312E-2,2.6538992E-2,7.975E-1,5.524908E-3,1.338078E-1,-5.32401E-3,8.21087E-3,5.3015626E-3,-6.703615E-3,1.0374841E-2,1.4041386E-2,6.012927E-3,-1.4734475E-3,7.5238766E-3,2.0992972E-3,1.2576732E-2,9.314048E-3,-4.8696897E-3,6.7101875E-3,-0E0,1.0944448E-2,8.278293E-3,-4.323099E-3,1.9030083E-3,1.3213475E-2,1.2227832E-2,-6.598977E-3,-4.218507E-3,2.5776078E-3,1.6287755E-3,6.196134E-3,-3.210493E-3,1.1038792E-2,8.561133E-4,-3.0150197E-3,-5.5635697E-3,-2.3368334E-3,4.273318E-3,-2.9661215E-3,-4.3170867E-3,3.3869285E-3,1.0572141E-3,-5.8905794E-3,-5.2554617E-3,-6.1880685E-3,1.2015574E-2,-1.6829221E-3,-2.8722265E-3,-4.961482E-3,-6.923528E-3,-3.6311194E-3,-6.366815E-3,-4.917426E-3],"split_indices":[8,0,0,8,1,8,0,0,0,0,1,0,8,8,4,4,8,0,0,8,8,3,0,4,1,0,0,3,1,11,0,0,0,0,3,0,8,0,1,10,5,0,0,10,0,0,0,0,0,8,0,1,3,5,1,1,10,8,5,0,0,8,0,0,0,0,0,0,0,0,0,0,0,0,0,0,0,0,0,0,0,0,0,0,0,0,0,0,0,0,0,0,0,0,0,0,0,0,0,0,0,0,0,0,0,0,0],"split_type":[0,0,0,0,0,0,0,0,0,0,0,0,0,0,0,0,0,0,0,0,0,0,0,0,0,0,0,0,0,0,0,0,0,0,0,0,0,0,0,0,0,0,0,0,0,0,0,0,0,0,0,0,0,0,0,0,0,0,0,0,0,0,0,0,0,0,0,0,0,0,0,0,0,0,0,0,0,0,0,0,0,0,0,0,0,0,0,0,0,0,0,0,0,0,0,0,0,0,0,0,0,0,0,0,0,0,0],"sum_hessian":[2.5594E4,4.196E3,2.1398E4,3.775E3,4.21E2,1.5218E4,6.18E3,2.441E3,1.334E3,1.04E2,3.17E2,4.764E3,1.0454E4,2.071E3,4.109E3,2.296E3,1.45E2,6.28E2,7.06E2,3.3E1,7.1E1,3.01E2,1.6E1,3.783E3,9.81E2,4.51E3,5.944E3,8.94E2,1.177E3,1E1,4.099E3,4.34E2,1.862E3,1.02E2,4.3E1,7.2E1,5.56E2,6.61E2,4.5E1,5E0,2.8E1,5.4E1,1.7E1,3.5E1,2.66E2,1.4E1,2E0,3.034E3,7.49E2,9.6E2,2.1E1,2.161E3,2.349E3,5.038E3,9.06E2,8.86E2,8E0,1.048E3,1.29E2,8E0,2E0,9.94E2,3.105E3,2.41E2,1.93E2,9E0,3.4E1,3.57E2,1.99E2,4.27E2,2.34E2,1.4E1,3.1E1,1E0,4E0,2E0,2.6E1,1.3E1,4.1E1,5E0,1.2E1,2E1,1.5E1,1.713E3,1.321E3,1.6E1,7.33E2,1.79E2,7.81E2,8.39E2,1.322E3,1.705E3,6.44E2,4.928E3,1.1E2,6.65E2,2.41E2,5.9E2,2.96E2,6E0,2E0,6.89E2,3.59E2,1.1E2,1.9E1,8.35E2,1.59E2],"tree_param":{"num_deleted":"0","num_feature":"13","num_nodes":"107","size_leaf_vector":"1"}},{"base_weights":[1.1081049E-4,3.435125E-2,-1.08213335E-1,6.635647E-2,1.4466194E-2,3.0567296E-2,-1.1343137E-1,1.8232389E-3,1.7043877E-1,2.828444E-2,-9.666349E-3,1.5189816E-1,9.773747E-3,-8.3060615E-2,-1.2411131E-1,6.507877E-2,-1.5240261E-2,2.1364374E-1,1.2767483E-1,2.0793801E-2,7.583687E-2,-1.3063661E-2,1.6557804E-1,-6.199094E-2,1.2824185E-2,-2.5022894E-2,6.6187434E-2,-8.504384E-2,1.341681E-1,-1.2461945E-1,-5.809449E-2,-9.547427E-2,7.8349546E-2,-8.895311E-2,8.914607E-3,-7.461038E-2,2.2339995E-1,1.4022203E-1,5.934816E-2,6.316741E-2,1.4367525E-2,4.1848782E-2,1.2076094E-1,1.2848312E-1,-1.51843345E-2,6.076238E-2,2.0074496E-1,-4.796866E-3,4.4368217E-3,8.328805E-2,-4.240705E-2,1.506977E-1,-9.5031805E-2,-8.6036876E-2,1.6684529E-1,1.13946665E-2,-3.0057973E-3,-1.1599286E-1,-6.372413E-3,-9.854127E-2,8.834274E-2,-4.844704E-3,-0E0,3.1525649E-3,7.061188E-3,-3.3928645E-3,-4.6374663E-3,2.9094152E-3,-6.1657483E-4,-5.788339E-3,8.14107E-3,1.1726457E-2,7.093496E-3,5.486421E-3,9.003705E-3,9.226042E-4,5.088494E-3,2.633648E-4,5.7815374E-3,6.274063E-3,6.0223497E-4,7.607502E-4,4.4255215E-3,9.83975E-3,5.268547E-3,2.9772415E-3,9.315979E-3,-3.83009E-5,-1.9340642E-3,-2.3051477E-3,7.710259E-3,1.2540968E-2,6.4599714E-3,-0E0,1.0790217E-2,-2.8460172E-3,3.2635776E-3,9.132723E-3,-4.8713903E-3,4.8251385E-3,-5.5276654E-3,-1.786436E-3,-4.513924E-3,-0E0,1.0934166E-2,-2.6751324E-3,-5.8184178E-3,-5.551118E-3,8.7313465E-4,1.0276502E-2,-2.7613528E-3],"categories":[],"categories_nodes":[],"categories_segments":[],"categories_sizes":[],"default_left":[0,0,0,0,0,0,0,0,0,0,0,0,0,0,0,0,0,0,0,0,0,0,0,0,0,0,0,0,0,0,0,0,0,0,0,0,0,0,0,0,0,0,0,0,0,0,0,0,0,0,0,0,0,0,0,0,0,0,0,0,0,0,0,0,0,0,0,0,0,0,0,0,0,0,0,0,0,0,0,0,0,0,0,0,0,0,0,0,0,0,0,0,0,0,0,0,0,0,0,0,0,0,0,0,0,0,0,0,0,0,0],"id":5,"left_children":[1,3,5,7,9,11,13,15,17,19,21,23,25,27,29,31,33,35,37,39,41,43,45,47,-1,49,51,53,55,57,59,61,63,65,67,69,71,73,75,77,79,81,83,85,87,89,91,-1,-1,93,95,97,99,101,103,-1,-1,105,-1,107,109,-1,-1,-1,-1,-1,-1,-1,-1,-1,-1,-1,-1,-1,-1,-1,-1,-1,-1,-1,-1,-1,-1,-1,-1,-1,-1,-1,-1,-1,-1,-1,-1,-1,-1,-1,-1,-1,-1,-1,-1,-1,-1,-1,-1,-1,-1,-1,-1,-1,-1],"loss_changes":[9.542689E1,1.2433712E1,4.4863586E0,5.0291046E1,4.0244436E0,5.474776E-1,1.900856E0,4.998019E0,5.233856E0,2.721868E0,2.6005409E0,7.511796E-1,3.8463297E-1,6.764145E-1,1.2214661E-1,2.1023393E0,6.493466E0,4.0334015E0,1.2096729E0,1.7972627E0,1.5696979E0,1.2837732E0,2.6759315E-1,6.551635E-2,0E0,2.2350833E-1,1.0417386E0,3.9198017E-1,2.8540817E-1,6.741333E-2,2.2887307E-1,1.7075539E-3,8.459654E-1,4.9721718E-2,2.8768787E0,4.7342002E-1,1.1785202E0,1.4314137E0,3.7991804E-1,2.6330795E0,1.4718958E0,7.289752E-1,4.721098E-1,2.1550941E-1,1.4345129E0,2.475928E-1,1.481309E-1,0E0,0E0,1.6843867E-1,1.6540834E-1,4.227829E-1,8.936919E-2,3.1214905E-1,7.2087824E-2,0E0,0E0,2.5510788E-3,0E0,5.4730445E-2,1.6097756E-1,0E0,0E0,0E0,0E0,0E0,0E0,0E0,0E0,0E0,0E0,0E0,0E0,0E0,0E0,0E0,0E0,0E0,0E0,0E0,0E0,0E0,0E0,0E0,0E0,0E0,0E0,0E0,0E0,0E0,0E0,0E0,0E0,0E0,0E0,0E0,0E0,0E0,0E0,0E0,0E0,0E0,0E0,0E0,0E0,0E0,0E0,0E0,0E0,0E0,0E0],"parents":[2147483647,0,0,1,1,2,2,3,3,4,4,5,5,6,6,7,7,8,8,9,9,10,10,11,11,12,12,13,13,14,14,15,15,16,16,17,17,18,18,19,19,20,20,21,21,22,22,23,23,25,25,26,26,27,27,28,28,29,29,30,30,31,31,32,32,33,33,34,34,35,35,36,36,37,37,38,38,39,39,40,40,41,41,42,42,43,43,44,44,45,45,46,46,49,49,50,50,51,51,52,52,53,53,54,54,57,57,59,59,60,60],"right_children":[2,4,6,8,10,12,14,16,18,20,22,24,26,28,30,32,34,36,38,40,42,44,46,48,-1,50,52,54,56,58,60,62,64,66,68,70,72,74,76,78,80,82,84,86,88,90,92,-1,-1,94,96,98,100,102,104,-1,-1,106,-1,108,110,-1,-1,-1,-1,-1,-1,-1,-1,-1,-1,-1,-1,-1,-1,-1,-1,-1,-1,-1,-1,-1,-1,-1,-1,-1,-1,-1,-1,-1,-1,-1,-1,-1,-1,-1,-1,-1,-1,-1,-1,-1,-1,-1,-1,-1,-1,-1,-1,-1,-1],"split_conditions":[8.42106E-2,1.3273996E-2,1.366407E-2,3.1918045E-2,5.6213073E-2,1.2253961E-2,1.1265595E-1,2.5969215E-3,1.2586837E-2,5.718676E-1,4.6949863E-1,5.677642E-1,9.851731E-2,4.3579483E-1,2.1384968E-1,5.697689E-1,1.1108162E-2,1.1108162E-2,4.6615034E-2,2.9303722E-2,3.4815118E-2,3.2610573E-2,4.4055057E-1,9.851731E-2,1.2824185E-2,7.421327E-2,1.5575711E-1,6.163632E-1,1.4442226E-1,1.3847846E-1,5.172046E-1,8.6858475E-1,7.72E-1,1.548502E-1,1.2355735E-2,7.6086186E-2,4.6615034E-2,3.4927424E-2,5.6834334E-1,1.4450961E-2,5.5218613E-1,6.3064224E-1,2.1E-1,4.24E-1,2.2051562E-2,4.86E-1,9.5841065E-2,-4.796866E-3,4.4368217E-3,5.681486E-1,1.3868277E-1,1.16519324E-1,5.52E-1,1.4765644E-2,1.6770776E-1,1.13946665E-2,-3.0057973E-3,2.037348E-2,-6.372413E-3,7.7791566E-1,1.5969095E-1,-4.844704E-3,-0E0,3.1525649E-3,7.061188E-3,-3.3928645E-3,-4.6374663E-3,2.9094152E-3,-6.1657483E-4,-5.788339E-3,8.14107E-3,1.1726457E-2,7.093496E-3,5.486421E-3,9.003705E-3,9.226042E-4,5.088494E-3,2.633648E-4,5.7815374E-3,6.274063E-3,6.0223497E-4,7.607502E-4,4.4255215E-3,9.83975E-3,5.268547E-3,2.9772415E-3,9.315979E-3,-3.83009E-5,-1.9340642E-3,-2.3051477E-3,7.710259E-3,1.2540968E-2,6.4599714E-3,-0E0,1.0790217E-2,-2.8460172E-3,3.2635776E-3,9.132723E-3,-4.8713903E-3,4.8251385E-3,-5.5276654E-3,-1.786436E-3,-4.513924E-3,-0E0,1.0934166E-2,-2.6751324E-3,-5.8184178E-3,-5.551118E-3,8.7313465E-4,1.0276502E-2,-2.7613528E-3],"split_indices":[0,1,1,0,3,1,0,3,1,4,1,4,0,3,1,4,1,1,3,0,0,0,4,0,0,3,5,4,5,0,4,11,11,10,1,0,3,0,4,1,4,11,11,11,1,11,5,0,0,4,5,3,11,1,1,0,0,11,0,10,5,0,0,0,0,0,0,0,0,0,0,0,0,0,0,0,0,0,0,0,0,0,0,0,0,0,0,0,0,0,0,0,0,0,0,0,0,0,0,0,0,0,0,0,0,0,0,0,0,0,0],"split_type":[0,0,0,0,0,0,0,0,0,0,0,0,0,0,0,0,0,0,0,0,0,0,0,0,0,0,0,0,0,0,0,0,0,0,0,0,0,0,0,0,0,0,0,0,0,0,0,0,0,0,0,0,0,0,0,0,0,0,0,0,0,0,0,0,0,0,0,0,0,0,0,0,0,0,0,0,0,0,0,0,0,0,0,0,0,0,0,0,0,0,0,0,0,0,0,0,0,0,0,0,0,0,0,0,0,0,0,0,0,0,0],"sum_hessian":[2.5728E4,1.955E4,6.178E3,7.489E3,1.2061E4,2.23E2,5.955E3,4.624E3,2.865E3,7.672E3,4.389E3,3.1E1,1.92E2,1.554E3,4.401E3,9.83E2,3.641E3,1.422E3,1.443E3,6.631E3,1.041E3,4.307E3,8.2E1,1E1,2.1E1,1.18E2,7.4E1,1.541E3,1.3E1,4.365E3,3.6E1,7.4E1,9.09E2,8.99E2,2.742E3,4.6E1,1.376E3,1.217E3,2.26E2,8.7E2,5.761E3,5.95E2,4.46E2,6.2E1,4.245E3,2.2E1,6E1,9E0,1E0,1.5E1,1.03E2,4.9E1,2.5E1,1.536E3,5E0,9E0,4E0,1.097E3,3.268E3,2.9E1,7E0,7.2E1,2E0,7.34E2,1.75E2,1.44E2,7.55E2,8.27E2,1.915E3,4E1,6E0,1.208E3,1.68E2,6.93E2,5.24E2,1.17E2,1.09E2,4.15E2,4.55E2,1.16E2,5.645E3,3.81E2,2.14E2,7.2E1,3.74E2,3E1,3.2E1,2.634E3,1.611E3,1E1,1.2E1,3.3E1,2.7E1,1E1,5E0,9.2E1,1.1E1,4.4E1,5E0,1E0,2.4E1,1.22E2,1.414E3,1E0,4E0,9E0,1.088E3,2.7E1,2E0,4E0,3E0],"tree_param":{"num_deleted":"0","num_feature":"13","num_nodes":"111","size_leaf_vector":"1"}},{"base_weights":[-6.3496706E-4,1.9375776E-1,-3.739773E-2,2.2067077E-1,-4.3733854E-2,-1.217103E-2,-1.096813E-1,2.4706294E-1,1.696625E-1,1.1028436E-1,-8.310899E-2,6.305834E-2,-4.6693172E-2,-8.5352615E-2,-1.18053004E-1,2.5077483E-1,1.6896577E-1,2.1518892E-1,1.4280173E-1,1.2061697E-2,7.19653E-2,-9.655967E-2,1.991259E-1,4.0925786E-2,1.6477956E-1,-1.5395661E-2,-7.26989E-2,-9.3677476E-2,-6.848974E-2,-1.18144386E-1,3.95632E-3,2.2356664E-1,2.5712794E-1,1.2295807E-2,3.064693E-2,1.5017252E-1,2.5510997E-1,2.4777192E-1,1.3127223E-1,1.07233696E-1,-3.219079E-2,2.1262832E-2,-1.131011E-1,1.2301092E-2,-1.856589E-3,6.0188245E-2,-2.6798675E-2,1.9489467E-1,8.883887E-3,-1.0247114E-1,2.670395E-3,-7.547068E-2,6.0578853E-2,1.1042837E-1,-9.498284E-2,-3.6525212E-2,-8.849262E-2,-1.06363095E-1,-1.201775E-1,9.332152E-3,1.3629081E-2,1.2635103E-2,1.36274425E-2,-1.2677614E-4,9.224465E-3,1.0582734E-2,3.0790817E-3,1.3120674E-2,9.558899E-3,1.3280674E-2,4.6728156E-3,5.9193796E-3,1.03591615E-2,2.7357254E-3,1.24425115E-2,-4.728617E-3,2.807517E-3,-4.1090786E-3,2.6917493E-3,1.7255957E-3,-5.870517E-3,5.8674224E-4,4.0752715E-3,-1.6733764E-3,1.1360224E-2,-3.2780587E-3,1.0022904E-2,1.0149448E-2,-5.431571E-4,-7.098365E-3,-4.3814154E-3,7.296929E-4,-3.254378E-3,-2.7445646E-3,-4.507617E-3,1.2124333E-2,-4.6584927E-3,1.0269176E-2,-9.827315E-4,-3.781593E-3,-5.18255E-3,-1.5992413E-3,-2.9869482E-3,-0E0,-4.4351104E-3,-5.6920573E-3,-3.849183E-3,-8.046045E-4,-6.0146647E-3],"categories":[],"categories_nodes":[],"categories_segments":[],"categories_sizes":[],"default_left":[0,0,0,0,0,0,0,0,0,0,0,0,0,0,0,0,0,0,0,0,0,0,0,0,0,0,0,0,0,0,0,0,0,0,0,0,0,0,0,0,0,0,0,0,0,0,0,0,0,0,0,0,0,0,0,0,0,0,0,0,0,0,0,0,0,0,0,0,0,0,0,0,0,0,0,0,0,0,0,0,0,0,0,0,0,0,0,0,0,0,0,0,0,0,0,0,0,0,0,0,0,0,0,0,0,0,0,0,0],"id":6,"left_children":[1,3,5,7,9,11,13,15,17,19,21,23,25,27,29,31,33,35,37,-1,39,41,43,45,47,49,51,53,55,57,-1,59,61,-1,63,65,67,69,71,73,75,77,79,-1,-1,81,83,85,87,89,91,93,95,97,99,101,103,105,107,-1,-1,-1,-1,-1,-1,-1,-1,-1,-1,-1,-1,-1,-1,-1,-1,-1,-1,-1,-1,-1,-1,-1,-1,-1,-1,-1,-1,-1,-1,-1,-1,-1,-1,-1,-1,-1,-1,-1,-1,-1,-1,-1,-1,-1,-1,-1,-1,-1,-1],"loss_changes":[1.8212514E2,2.593254E1,3.907086E1,4.817993E0,2.511082E0,4.1271492E1,1.0987473E0,6.1021423E-1,1.4571724E0,3.7282026E-1,1.2617338E0,1.1224934E1,8.856855E0,1.7755032E-1,8.746719E-2,2.8927612E-1,1.1675432E0,1.1125069E0,8.832512E-1,0E0,2.5707525E-1,6.2745786E-1,1.9621718E-1,5.3626966E0,4.1656647E0,7.792432E0,2.2033463E0,2.6152325E-1,2.9053044E-1,6.320572E-2,0E0,7.049484E-1,4.310608E-3,0E0,2.3306754E-1,9.2916536E-1,3.6146164E-2,1.4851522E-1,6.4029026E-1,3.3534467E-1,1.0283704E-1,1.3299645E-1,1.8917751E-1,0E0,0E0,3.2939339E0,1.5279946E0,1.1090469E0,5.8103544E-1,4.6348572E-1,3.3059053E0,1.7414207E0,3.4216626E0,9.6721925E-2,1.3240814E-1,8.731991E-3,2.9761791E-3,1.08807564E-1,2.6569366E-2,0E0,0E0,0E0,0E0,0E0,0E0,0E0,0E0,0E0,0E0,0E0,0E0,0E0,0E0,0E0,0E0,0E0,0E0,0E0,0E0,0E0,0E0,0E0,0E0,0E0,0E0,0E0,0E0,0E0,0E0,0E0,0E0,0E0,0E0,0E0,0E0,0E0,0E0,0E0,0E0,0E0,0E0,0E0,0E0,0E0,0E0,0E0,0E0,0E0,0E0],"parents":[2147483647,0,0,1,1,2,2,3,3,4,4,5,5,6,6,7,7,8,8,9,9,10,10,11,11,12,12,13,13,14,14,15,15,16,16,17,17,18,18,20,20,21,21,22,22,23,23,24,24,25,25,26,26,27,27,28,28,29,29,31,31,32,32,34,34,35,35,36,36,37,37,38,38,39,39,40,40,41,41,42,42,45,45,46,46,47,47,48,48,49,49,50,50,51,51,52,52,53,53,54,54,55,55,56,56,57,57,58,58],"right_children":[2,4,6,8,10,12,14,16,18,20,22,24,26,28,30,32,34,36,38,-1,40,42,44,46,48,50,52,54,56,58,-1,60,62,-1,64,66,68,70,72,74,76,78,80,-1,-1,82,84,86,88,90,92,94,96,98,100,102,104,106,108,-1,-1,-1,-1,-1,-1,-1,-1,-1,-1,-1,-1,-1,-1,-1,-1,-1,-1,-1,-1,-1,-1,-1,-1,-1,-1,-1,-1,-1,-1,-1,-1,-1,-1,-1,-1,-1,-1,-1,-1,-1,-1,-1,-1,-1,-1,-1,-1,-1,-1],"split_conditions":[1.3867187E-3,1.2684625E-1,1.2140076E-1,9.2421874E-4,9.827635E-2,2.9640626E-3,1.4692871E-1,1.10605955E-1,1.2676621E-2,8.667459E-2,8.252738E-2,5.7009256E-1,4.1513294E-3,5.2757813E-3,3.6848524E-1,5.655874E-1,7.859375E-4,5.6771666E-1,5.56751E-1,1.2061697E-2,8.16778E-1,1.3878858E-1,1.6180666E-1,8.7896675E-2,8.9321665E-2,1.1688424E-2,5.996533E-3,1.25E-2,5.524908E-3,1.5326913E-1,3.95632E-3,1.5111051E-2,1.3793246E-2,1.2295807E-2,1.369436E-1,1.24375E-3,1.3328125E-3,5.104008E-1,2.079265E-1,5.759478E-1,2.1560647E-1,1.3108833E-2,1.33869E-2,1.2301092E-2,-1.856589E-3,5.6380886E-1,1.6770776E-1,1.1108162E-2,6.766699E-2,1.0997116E-3,2.250394E-2,4.560283E-3,8.469849E-1,5.6945896E-1,1.2790817E-1,1.369436E-1,1.2651945E-2,5.3015626E-3,4.4055057E-1,9.332152E-3,1.3629081E-2,1.2635103E-2,1.36274425E-2,-1.2677614E-4,9.224465E-3,1.0582734E-2,3.0790817E-3,1.3120674E-2,9.558899E-3,1.3280674E-2,4.6728156E-3,5.9193796E-3,1.03591615E-2,2.7357254E-3,1.24425115E-2,-4.728617E-3,2.807517E-3,-4.1090786E-3,2.6917493E-3,1.7255957E-3,-5.870517E-3,5.8674224E-4,4.0752715E-3,-1.6733764E-3,1.1360224E-2,-3.2780587E-3,1.0022904E-2,1.0149448E-2,-5.431571E-4,-7.098365E-3,-4.3814154E-3,7.296929E-4,-3.254378E-3,-2.7445646E-3,-4.507617E-3,1.2124333E-2,-4.6584927E-3,1.0269176E-2,-9.827315E-4,-3.781593E-3,-5.18255E-3,-1.5992413E-3,-2.9869482E-3,-0E0,-4.4351104E-3,-5.6920573E-3,-3.849183E-3,-8.046045E-4,-6.0146647E-3],"split_indices":[8,7,7,8,2,8,7,7,1,2,1,4,8,8,1,4,8,4,4,0,10,7,5,7,7,1,8,10,8,5,0,1,1,0,5,8,8,2,6,10,6,1,1,0,0,4,1,1,5,1,1,8,8,4,7,5,1,8,4,0,0,0,0,0,0,0,0,0,0,0,0,0,0,0,0,0,0,0,0,0,0,0,0,0,0,0,0,0,0,0,0,0,0,0,0,0,0,0,0,0,0,0,0,0,0,0,0,0,0],"split_type":[0,0,0,0,0,0,0,0,0,0,0,0,0,0,0,0,0,0,0,0,0,0,0,0,0,0,0,0,0,0,0,0,0,0,0,0,0,0,0,0,0,0,0,0,0,0,0,0,0,0,0,0,0,0,0,0,0,0,0,0,0,0,0,0,0,0,0,0,0,0,0,0,0,0,0,0,0,0,0,0,0,0,0,0,0,0,0,0,0,0,0,0,0,0,0,0,0,0,0,0,0,0,0,0,0,0,0,0,0],"sum_hessian":[2.5485E4,4.052E3,2.1433E4,3.64E3,4.12E2,1.589E4,5.543E3,2.395E3,1.245E3,8.3E1,3.29E2,4.997E3,1.0893E4,1.425E3,4.118E3,2.283E3,1.12E2,4.58E2,7.87E2,1.7E1,6.6E1,3.15E2,1.4E1,4.106E3,8.91E2,4.946E3,5.947E3,9.47E2,4.78E2,4.117E3,1E0,4.42E2,1.841E3,7.1E1,4.1E1,1.77E2,2.81E2,7.5E1,7.12E2,5E1,1.6E1,3.8E1,2.77E2,1.2E1,2E0,3.198E3,9.08E2,7.46E2,1.45E2,8.5E2,4.096E3,5.827E3,1.2E2,5E0,9.42E2,1.87E2,2.91E2,6.21E2,3.496E3,2.56E2,1.86E2,1.449E3,3.92E2,3.4E1,7E0,1.03E2,7.4E1,2.48E2,3.3E1,6.6E1,9E0,6.12E2,1E2,3.8E1,1.2E1,1E1,6E0,8E0,3E1,7E0,2.7E2,9.79E2,2.219E3,8.86E2,2.2E1,1.5E1,7.31E2,1.3E1,1.32E2,2.28E2,6.22E2,3.485E3,6.11E2,2.431E3,3.396E3,5.5E1,6.5E1,3E0,2E0,2.98E2,6.44E2,1.62E2,2.5E1,1E0,2.9E2,4.9E2,1.31E2,5E0,3.491E3],"tree_param":{"num_deleted":"0","num_feature":"13","num_nodes":"109","size_leaf_vector":"1"}},{"base_weights":[-3.579259E-4,1.8397614E-1,-3.516838E-2,2.0531179E-1,-9.2432685E-2,-7.8920005E-3,-1.00043505E-1,2.3914024E-1,1.6504958E-1,1.1347075E-2,-1.0491738E-1,6.0731303E-2,-4.296771E-2,-7.441296E-2,-1.1097505E-1,1.3057335E-2,2.2945724E-1,1.8132462E-1,5.3803787E-2,-1.1296709E-1,1.4069788E-1,8.437644E-2,-3.589597E-2,-1.0450078E-2,-6.587856E-2,-9.273887E-2,-6.248118E-2,-1.012069E-1,-1.14436604E-1,1.9356243E-1,1.2082606E-2,1.5078539E-1,2.0996158E-1,3.2503862E-2,1.4793834E-1,4.487998E-2,-5.7330187E-3,1.0528308E-2,-1.7947024E-3,3.376943E-2,1.4310913E-1,-4.21022E-2,1.1382254E-2,-6.474962E-2,4.1255716E-2,-7.575744E-2,-0E0,-9.5826805E-2,8.1765175E-2,-5.662233E-2,-6.1655855E-3,-1.07393324E-1,-8.0080606E-2,3.322255E-2,-5.7351235E-3,1.1957542E-2,3.5004613E-3,1.0743674E-2,5.7834624E-3,1.1247062E-2,8.655933E-3,-6.9171144E-4,3.7164737E-3,9.348211E-3,-0E0,-0E0,5.2029043E-3,4.925479E-4,6.508606E-3,1.8500697E-3,1.0540644E-2,1.7967822E-3,-2.7580753E-3,-6.487866E-3,-2.6665302E-3,3.7434187E-3,-3.185128E-3,-5.8573056E-3,-3.3342165E-3,3.3186257E-3,-3.5111276E-3,5.0236518E-3,-4.818295E-3,8.189516E-3,-3.1116565E-3,-2.351397E-3,-4.3357657E-3,-5.406827E-3,2.970228E-4,-0E0,-4.0298137E-3,-2.7859516E-3,8.703524E-3],"categories":[],"categories_nodes":[],"categories_segments":[],"categories_sizes":[],"default_left":[0,0,0,0,0,0,0,0,0,0,0,0,0,0,0,0,0,0,0,0,0,0,0,0,0,0,0,0,0,0,0,0,0,0,0,0,0,0,0,0,0,0,0,0,0,0,0,0,0,0,0,0,0,0,0,0,0,0,0,0,0,0,0,0,0,0,0,0,0,0,0,0,0,0,0,0,0,0,0,0,0,0,0,0,0,0,0,0,0,0,0,0,0],"id":7,"left_children":[1,3,5,7,9,11,13,15,17,-1,19,21,23,25,27,-1,29,31,33,35,37,39,41,43,45,47,49,51,53,55,-1,57,59,61,63,65,-1,-1,-1,67,69,71,-1,73,75,77,79,81,83,85,-1,87,89,91,-1,-1,-1,-1,-1,-1,-1,-1,-1,-1,-1,-1,-1,-1,-1,-1,-1,-1,-1,-1,-1,-1,-1,-1,-1,-1,-1,-1,-1,-1,-1,-1,-1,-1,-1,-1,-1,-1,-1],"loss_changes":[1.6441446E2,2.4032532E1,3.8131256E1,5.0671387E0,1.1758962E0,3.653204E1,1.7604752E0,3.2785034E-1,3.0989494E0,0E0,5.7067204E-1,1.1735577E1,7.475271E0,3.969803E-1,1.1790085E-1,0E0,5.378418E-1,1.2510872E0,4.242754E-1,8.535886E-2,1.3606887E-1,1.2238161E1,1.6413467E0,1.1670604E1,3.8407536E0,4.1284657E-1,3.9022684E-1,1.2752628E-1,1.4083862E-1,2.0420332E0,0E0,1.5962276E0,3.484192E-1,3.636917E-1,2.4314952E-1,1.561353E-2,0E0,0E0,0E0,5.0989904E0,1.3674278E1,1.0097765E0,0E0,1.4802036E0,7.5133142E0,1.8979893E0,3.5838428E0,8.7263584E-2,1.7389819E-1,2.9032707E-1,0E0,8.751392E-2,3.3807755E-3,9.6697606E-2,0E0,0E0,0E0,0E0,0E0,0E0,0E0,0E0,0E0,0E0,0E0,0E0,0E0,0E0,0E0,0E0,0E0,0E0,0E0,0E0,0E0,0E0,0E0,0E0,0E0,0E0,0E0,0E0,0E0,0E0,0E0,0E0,0E0,0E0,0E0,0E0,0E0,0E0,0E0],"parents":[2147483647,0,0,1,1,2,2,3,3,4,4,5,5,6,6,7,7,8,8,10,10,11,11,12,12,13,13,14,14,16,16,17,17,18,18,19,19,20,20,21,21,22,22,23,23,24,24,25,25,26,26,27,27,28,28,29,29,31,31,32,32,33,33,34,34,35,35,39,39,40,40,41,41,43,43,44,44,45,45,46,46,47,47,48,48,49,49,51,51,52,52,53,53],"right_children":[2,4,6,8,10,12,14,16,18,-1,20,22,24,26,28,-1,30,32,34,36,38,40,42,44,46,48,50,52,54,56,-1,58,60,62,64,66,-1,-1,-1,68,70,72,-1,74,76,78,80,82,84,86,-1,88,90,92,-1,-1,-1,-1,-1,-1,-1,-1,-1,-1,-1,-1,-1,-1,-1,-1,-1,-1,-1,-1,-1,-1,-1,-1,-1,-1,-1,-1,-1,-1,-1,-1,-1,-1,-1,-1,-1,-1,-1],"split_conditions":[1.3867187E-3,1.14642635E-1,7.390108E-2,7.859375E-4,1.3301855E-2,3.029787E-3,1.0471529E-1,3.229954E-2,7.839871E-2,1.1347075E-2,8.252738E-2,4.694095E-2,4.0420895E-3,4.3726363E-3,1.3313287E-1,1.3057335E-2,3.692887E-2,3.2205433E-2,8.0723083E-1,1.3082917E-1,1.2872502E-1,3.169411E-2,4.6949863E-1,3.157962E-2,5.7073284E-2,3.190127E-1,8.252738E-2,5.3530955E-3,4.4055057E-1,4.1875E-4,1.2082606E-2,1.2424696E-2,4.3679256E-2,1.324821E-2,2.4763578E-1,1.164798E-1,-5.7330187E-3,1.0528308E-2,-1.7947024E-3,1.4687308E-2,5.650657E-1,1.5367188E-3,1.1382254E-2,7.089458E-3,2.2051562E-2,3.073496E-2,4.892855E-3,1.4148437E-3,1.5176183E-1,5.524908E-3,-6.1655855E-3,3.6848524E-1,2.2501769E-2,1.866166E-1,-5.7351235E-3,1.1957542E-2,3.5004613E-3,1.0743674E-2,5.7834624E-3,1.1247062E-2,8.655933E-3,-6.9171144E-4,3.7164737E-3,9.348211E-3,-0E0,-0E0,5.2029043E-3,4.925479E-4,6.508606E-3,1.8500697E-3,1.0540644E-2,1.7967822E-3,-2.7580753E-3,-6.487866E-3,-2.6665302E-3,3.7434187E-3,-3.185128E-3,-5.8573056E-3,-3.3342165E-3,3.3186257E-3,-3.5111276E-3,5.0236518E-3,-4.818295E-3,8.189516E-3,-3.1116565E-3,-2.351397E-3,-4.3357657E-3,-5.406827E-3,2.970228E-4,-0E0,-4.0298137E-3,-2.7859516E-3,8.703524E-3],"split_indices":[8,0,0,8,1,8,0,0,0,0,1,0,8,8,0,0,0,0,11,6,0,0,1,0,0,1,1,8,4,8,0,1,0,1,6,0,0,0,0,1,4,8,0,0,1,0,8,8,6,8,0,1,9,5,0,0,0,0,0,0,0,0,0,0,0,0,0,0,0,0,0,0,0,0,0,0,0,0,0,0,0,0,0,0,0,0,0,0,0,0,0,0,0],"split_type":[0,0,0,0,0,0,0,0,0,0,0,0,0,0,0,0,0,0,0,0,0,0,0,0,0,0,0,0,0,0,0,0,0,0,0,0,0,0,0,0,0,0,0,0,0,0,0,0,0,0,0,0,0,0,0,0,0,0,0,0,0,0,0,0,0,0,0,0,0,0,0,0,0,0,0,0,0,0,0,0,0,0,0,0,0,0,0,0,0,0,0,0,0],"sum_hessian":[2.5623E4,4.069E3,2.1554E4,3.778E3,2.91E2,1.5176E4,6.378E3,2.049E3,1.729E3,1E1,2.81E2,5.132E3,1.0044E4,1.912E3,4.466E3,6.15E2,1.434E3,1.507E3,2.22E2,2.73E2,8E0,4.124E3,1.008E3,4.154E3,5.89E3,7.48E2,1.164E3,1.184E3,3.282E3,3.7E2,1.064E3,7.34E2,7.73E2,1.83E2,3.9E1,2E0,2.71E2,6E0,2E0,2.217E3,1.907E3,9.86E2,2.2E1,2.027E3,2.127E3,5.123E3,7.67E2,7.36E2,1.2E1,1.065E3,9.9E1,9.09E2,2.75E2,5E0,3.277E3,2.69E2,1.01E2,2.57E2,4.77E2,5.44E2,2.29E2,8.6E1,9.7E1,3.1E1,8E0,1E0,1E0,1.778E3,4.39E2,7.44E2,1.163E3,1.4E2,8.46E2,3E2,1.727E3,1.612E3,5.15E2,9.17E2,4.206E3,3.95E2,3.72E2,1E0,7.35E2,8E0,4E0,8.12E2,2.53E2,9.04E2,5E0,3E0,2.72E2,3E0,2E0],"tree_param":{"num_deleted":"0","num_feature":"13","num_nodes":"93","size_leaf_vector":"1"}},{"base_weights":[-5.815441E-4,2.8684666E-2,-9.305781E-2,5.678831E-2,1.1129087E-2,-4.226755E-3,-9.805287E-2,-9.415185E-5,1.4921252E-1,1.9175479E-3,3.7947718E-2,4.7542363E-2,-5.09225E-2,-5.8818657E-2,-1.0337551E-1,5.4645035E-2,-1.4323439E-2,1.9072416E-1,1.1532754E-1,6.684809E-2,-1.4955343E-3,4.572925E-2,-3.5595933E-3,6.2850635E-3,1.5349096E-1,-2.2334231E-2,-9.980428E-2,-6.3042E-2,1.00481855E-2,-8.983833E-2,-1.0803005E-1,-4.502767E-3,6.6672795E-2,-7.9480395E-2,7.003939E-3,-1.3034324E-1,1.978378E-1,1.2923938E-1,5.1651392E-2,4.7447756E-2,1.4216445E-1,5.361613E-2,-4.0090512E-3,3.2015458E-2,6.811777E-2,-1.7284459E-2,1.8686147E-1,-1.7680801E-2,1.4995387E-1,2.2544429E-1,-4.2842142E-2,-3.2944974E-2,9.672341E-3,-0E0,-5.2792476E-3,-0E0,-6.5370016E-2,-7.88183E-2,1.8785869E-1,-9.2184775E-2,-2.6207265E-2,-3.1391565E-2,-1.0813665E-1,1.862469E-3,5.073191E-3,-3.0654266E-3,-4.1460316E-3,4.0101176E-3,-7.573097E-5,-0E0,-6.6472976E-3,1.0223863E-2,7.7915387E-3,5.105226E-3,7.677322E-3,6.291289E-3,1.0288442E-3,3.6777041E-3,-1.7337856E-4,9.141572E-3,3.508915E-3,-6.401647E-4,4.496896E-3,-2.6145924E-4,5.4350956E-3,1.3830917E-3,5.1089367E-3,1.4235525E-3,4.621457E-3,4.0150527E-3,-1.4950929E-3,3.1347224E-3,1.0756022E-2,-2.1572916E-3,2.5325522E-3,1.1554013E-2,-1.0312281E-3,1.1789508E-2,3.4537816E-3,-5.2939854E-3,7.4115233E-3,-4.16656E-3,-0E0,4.2950474E-3,-2.0729068E-3,3.5770838E-3,-4.2888257E-3,-2.9596488E-3,-4.4030678E-3,2.521285E-3,-5.391788E-3,1.0574294E-2,-4.823737E-4,-4.123671E-3,-4.8928703E-3,-3.1038476E-3,4.2109913E-3,4.890869E-3,-3.9054805E-3,-5.4124356E-3,-1.889768E-3],"categories":[],"categories_nodes":[],"categories_segments":[],"categories_sizes":[],"default_left":[0,0,0,0,0,0,0,0,0,0,0,0,0,0,0,0,0,0,0,0,0,0,0,0,0,0,0,0,0,0,0,0,0,0,0,0,0,0,0,0,0,0,0,0,0,0,0,0,0,0,0,0,0,0,0,0,0,0,0,0,0,0,0,0,0,0,0,0,0,0,0,0,0,0,0,0,0,0,0,0,0,0,0,0,0,0,0,0,0,0,0,0,0,0,0,0,0,0,0,0,0,0,0,0,0,0,0,0,0,0,0,0,0,0,0,0,0,0,0,0,0],"id":8,"left_children":[1,3,5,7,9,11,13,15,17,19,21,23,25,27,29,31,33,35,37,39,41,43,45,47,49,51,53,55,57,59,61,-1,63,65,67,69,71,73,75,77,79,81,83,85,87,89,91,93,95,97,99,101,-1,103,-1,105,107,109,111,113,115,117,119,-1,-1,-1,-1,-1,-1,-1,-1,-1,-1,-1,-1,-1,-1,-1,-1,-1,-1,-1,-1,-1,-1,-1,-1,-1,-1,-1,-1,-1,-1,-1,-1,-1,-1,-1,-1,-1,-1,-1,-1,-1,-1,-1,-1,-1,-1,-1,-1,-1,-1,-1,-1,-1,-1,-1,-1,-1,-1],"loss_changes":[6.933701E1,9.59268E0,2.7222023E0,3.93344E1,2.9554904E0,8.005002E-1,1.1951828E0,3.603056E0,3.9562683E0,1.9836475E0,9.927306E-1,6.6495764E-1,2.3011008E-1,2.0981765E-1,2.9374313E-1,1.6640279E0,5.117463E0,2.9514313E0,1.368681E0,6.2743306E-1,1.1692461E0,7.796397E-1,1.2459806E0,4.0839744E-1,6.353719E-1,2.4904743E-1,4.1354597E-2,9.534383E-2,6.577665E-1,1.834259E-1,1.3755798E-2,0E0,8.852265E-1,3.7257195E-2,1.7352097E0,1.5128553E-3,2.810135E-1,8.089409E-1,6.3967645E-1,4.831218E-1,2.2533953E-1,8.966547E-1,1.1052531E0,4.7415495E-1,9.2601156E-1,5.5266637E-1,7.1014404E-2,1.7196196E-1,2.6106447E-1,4.99475E-3,1.5599655E-1,1.8029034E-1,0E0,1.9914275E-2,0E0,1.599463E-1,6.948757E-2,1.12437725E-1,8.755541E-2,4.4135094E-2,2.010631E-1,5.396081E-2,1.1257172E-2,0E0,0E0,0E0,0E0,0E0,0E0,0E0,0E0,0E0,0E0,0E0,0E0,0E0,0E0,0E0,0E0,0E0,0E0,0E0,0E0,0E0,0E0,0E0,0E0,0E0,0E0,0E0,0E0,0E0,0E0,0E0,0E0,0E0,0E0,0E0,0E0,0E0,0E0,0E0,0E0,0E0,0E0,0E0,0E0,0E0,0E0,0E0,0E0,0E0,0E0,0E0,0E0,0E0,0E0,0E0,0E0,0E0,0E0],"parents":[2147483647,0,0,1,1,2,2,3,3,4,4,5,5,6,6,7,7,8,8,9,9,10,10,11,11,12,12,13,13,14,14,15,15,16,16,17,17,18,18,19,19,20,20,21,21,22,22,23,23,24,24,25,25,26,26,27,27,28,28,29,29,30,30,32,32,33,33,34,34,35,35,36,36,37,37,38,38,39,39,40,40,41,41,42,42,43,43,44,44,45,45,46,46,47,47,48,48,49,49,50,50,51,51,53,53,55,55,56,56,57,57,58,58,59,59,60,60,61,61,62,62],"right_children":[2,4,6,8,10,12,14,16,18,20,22,24,26,28,30,32,34,36,38,40,42,44,46,48,50,52,54,56,58,60,62,-1,64,66,68,70,72,74,76,78,80,82,84,86,88,90,92,94,96,98,100,102,-1,104,-1,106,108,110,112,114,116,118,120,-1,-1,-1,-1,-1,-1,-1,-1,-1,-1,-1,-1,-1,-1,-1,-1,-1,-1,-1,-1,-1,-1,-1,-1,-1,-1,-1,-1,-1,-1,-1,-1,-1,-1,-1,-1,-1,-1,-1,-1,-1,-1,-1,-1,-1,-1,-1,-1,-1,-1,-1,-1,-1,-1,-1,-1,-1,-1],"split_conditions":[8.42106E-2,1.3273996E-2,1.4095835E-2,3.1918045E-2,5.6945896E-1,9.827635E-2,9.708509E-2,8.186215E-3,1.2496731E-2,5.4521445E-2,2.3024661E-2,1.03027225E-1,1.1265595E-1,2.1384968E-1,1.2430646E-1,5.697689E-1,1.1108162E-2,1.0086993E-2,5.0245233E-2,1.3547538E-1,2.8510526E-2,5.724822E-1,4.6949863E-1,7.94E-1,1.6180666E-1,9.1023964E-1,1.206933E-1,1.0342675E-1,5.068591E-1,1.6770776E-1,4.4055057E-1,-4.502767E-3,4.858319E-1,1.575E-1,2.6337044E-2,5.364147E-2,4.9531356E-2,3.4124188E-2,9.294665E-2,6.839011E-1,5.136177E-2,1.392112E-2,4.5445713E-1,9.2758876E-1,3.3620123E-2,3.2867253E-2,8.1612565E-2,5.682056E-1,1.8874288E-1,2.651601E-1,2.651601E-1,1.343518E-2,9.672341E-3,1.3154176E-2,-5.2792476E-3,9.029303E-2,2.8491296E-2,1.0850241E-1,2.5607628E-1,5.5975026E-1,5.329665E-1,1.2533148E-1,6.163632E-1,1.862469E-3,5.073191E-3,-3.0654266E-3,-4.1460316E-3,4.0101176E-3,-7.573097E-5,-0E0,-6.6472976E-3,1.0223863E-2,7.7915387E-3,5.105226E-3,7.677322E-3,6.291289E-3,1.0288442E-3,3.6777041E-3,-1.7337856E-4,9.141572E-3,3.508915E-3,-6.401647E-4,4.496896E-3,-2.6145924E-4,5.4350956E-3,1.3830917E-3,5.1089367E-3,1.4235525E-3,4.621457E-3,4.0150527E-3,-1.4950929E-3,3.1347224E-3,1.0756022E-2,-2.1572916E-3,2.5325522E-3,1.1554013E-2,-1.0312281E-3,1.1789508E-2,3.4537816E-3,-5.2939854E-3,7.4115233E-3,-4.16656E-3,-0E0,4.2950474E-3,-2.0729068E-3,3.5770838E-3,-4.2888257E-3,-2.9596488E-3,-4.4030678E-3,2.521285E-3,-5.391788E-3,1.0574294E-2,-4.823737E-4,-4.123671E-3,-4.8928703E-3,-3.1038476E-3,4.2109913E-3,4.890869E-3,-3.9054805E-3,-5.4124356E-3,-1.889768E-3],"split_indices":[0,1,1,0,4,2,0,2,1,5,1,0,0,1,0,4,1,1,0,2,0,4,1,11,5,10,5,2,4,1,4,0,10,10,0,5,0,0,2,9,5,1,2,9,0,0,10,4,6,6,6,1,0,1,0,0,1,7,6,4,4,1,4,0,0,0,0,0,0,0,0,0,0,0,0,0,0,0,0,0,0,0,0,0,0,0,0,0,0,0,0,0,0,0,0,0,0,0,0,0,0,0,0,0,0,0,0,0,0,0,0,0,0,0,0,0,0,0,0,0,0],"split_type":[0,0,0,0,0,0,0,0,0,0,0,0,0,0,0,0,0,0,0,0,0,0,0,0,0,0,0,0,0,0,0,0,0,0,0,0,0,0,0,0,0,0,0,0,0,0,0,0,0,0,0,0,0,0,0,0,0,0,0,0,0,0,0,0,0,0,0,0,0,0,0,0,0,0,0,0,0,0,0,0,0,0,0,0,0,0,0,0,0,0,0,0,0,0,0,0,0,0,0,0,0,0,0,0,0,0,0,0,0,0,0,0,0,0,0,0,0,0,0,0,0],"sum_hessian":[2.5615E4,1.9457E4,6.158E3,7.478E3,1.1979E4,3.29E2,5.829E3,4.629E3,2.849E3,8.92E3,3.059E3,1.55E2,1.74E2,7E2,5.129E3,9.53E2,3.676E3,1.277E3,1.572E3,4.46E2,8.474E3,2.578E3,4.81E2,1.13E2,4.2E1,1.12E2,6.2E1,6.61E2,3.9E1,1.323E3,3.806E3,7.2E1,8.81E2,9.07E2,2.769E3,2.7E1,1.25E3,1.288E3,2.84E2,3.57E2,8.9E1,3.67E2,8.107E3,1.603E3,9.75E2,4.5E2,3.1E1,9.7E1,1.6E1,3.1E1,1.1E1,1.08E2,4E0,3E0,5.9E1,2.4E1,6.37E2,2.6E1,1.3E1,1.274E3,4.9E1,7E0,3.799E3,4.8E2,4.01E2,1.52E2,7.55E2,2.89E2,2.48E3,1E0,2.6E1,1.074E3,1.76E2,6.13E2,6.75E2,8.2E1,2.02E2,2.37E2,1.2E2,5.5E1,3.4E1,1.29E2,2.38E2,8.022E3,8.5E1,1.512E3,9.1E1,3.73E2,6.02E2,5E1,4E2,7E0,2.4E1,7.2E1,2.5E1,1.1E1,5E0,2.8E1,3E0,9E0,2E0,4.2E1,6.6E1,1E0,2E0,1.3E1,1.1E1,5.07E2,1.3E2,4E0,2.2E1,1.2E1,1E0,4.82E2,7.92E2,3.8E1,1.1E1,1E0,6E0,3.791E3,8E0],"tree_param":{"num_deleted":"0","num_feature":"13","num_nodes":"121","size_leaf_vector":"1"}},{"base_weights":[2.7910675E-4,1.7212723E-1,-3.303848E-2,1.9616832E-1,-3.9649803E-2,-8.742473E-3,-9.084122E-2,2.1988851E-1,1.4976725E-1,1.0623888E-1,-7.2103195E-2,6.0556885E-2,-3.9206404E-2,-7.004987E-2,-1.00858934E-1,1.2248886E-2,2.085734E-1,1.2045928E-1,1.7777719E-1,1.4233512E-1,-7.472217E-2,-8.652014E-2,1.9145872E-1,8.434701E-2,-3.235741E-2,-1.2698462E-2,-6.550646E-2,-8.781582E-2,-5.82025E-2,-8.7362215E-2,-5.127679E-3,2.01035E-1,2.4215299E-1,1.6524167E-1,6.340249E-2,2.0503785E-1,1.4008912E-1,4.171108E-2,2.1945694E-1,-5.113322E-3,3.8952255E-3,-0E0,-1.0197945E-1,1.1382934E-2,-1.6046967E-3,4.031894E-2,1.3334411E-1,-4.244626E-2,1.622467E-1,-6.466866E-2,3.269755E-2,-7.5258024E-2,-5.893492E-3,-9.082048E-2,1.552443E-1,-5.287184E-2,-1.15318626E-1,-8.878726E-2,4.8623748E-2,1.10252E-2,8.961395E-3,1.2635048E-2,1.0451889E-2,1.0202502E-2,2.2660876E-3,1.0273467E-3,6.3203387E-3,1.0596483E-2,7.946577E-3,4.304163E-3,8.858675E-3,-1.358203E-3,7.78104E-3,1.15094315E-2,-1.4038002E-3,2.4159614E-3,-4.9209287E-3,5.1330454E-3,-5.1717046E-3,8.5758575E-4,7.511072E-3,9.655655E-3,1.9979E-3,7.412446E-5,-2.9269261E-3,4.8924563E-3,1.0902109E-2,-6.711411E-3,-2.7322534E-3,2.7858997E-3,-2.6310526E-3,-3.9277985E-3,2.7159296E-3,3.3979088E-3,-2.8482156E-3,5.474364E-4,-4.5730406E-3,1.0980871E-2,-1.7416036E-3,-2.1597398E-3,-3.9053212E-3,-0E0,-5.815415E-3,-4.8792185E-3,-3.3260998E-3,7.736236E-3,-2.01759E-3],"categories":[],"categories_nodes":[],"categories_segments":[],"categories_sizes":[],"default_left":[0,0,0,0,0,0,0,0,0,0,0,0,0,0,0,0,0,0,0,0,0,0,0,0,0,0,0,0,0,0,0,0,0,0,0,0,0,0,0,0,0,0,0,0,0,0,0,0,0,0,0,0,0,0,0,0,0,0,0,0,0,0,0,0,0,0,0,0,0,0,0,0,0,0,0,0,0,0,0,0,0,0,0,0,0,0,0,0,0,0,0,0,0,0,0,0,0,0,0,0,0,0,0,0,0,0,0],"id":9,"left_children":[1,3,5,7,9,11,13,15,17,19,21,23,25,27,29,-1,31,33,35,37,39,41,43,45,47,49,51,53,55,57,-1,59,61,63,65,67,69,71,73,-1,-1,75,77,-1,-1,79,81,83,85,87,89,91,93,95,97,99,101,103,105,-1,-1,-1,-1,-1,-1,-1,-1,-1,-1,-1,-1,-1,-1,-1,-1,-1,-1,-1,-1,-1,-1,-1,-1,-1,-1,-1,-1,-1,-1,-1,-1,-1,-1,-1,-1,-1,-1,-1,-1,-1,-1,-1,-1,-1,-1,-1,-1],"loss_changes":[1.4649098E2,2.1177994E1,3.0082209E1,4.0377045E0,2.0117095E0,3.1855097E1,1.2963486E0,6.036148E-1,9.888592E-1,5.203618E-1,1.3283873E0,1.0191437E1,7.299679E0,4.1555977E-1,6.978226E-2,0E0,3.3960724E-1,1.5610657E0,5.9841156E-1,4.691496E-1,6.505507E-2,4.4456768E-1,1.725297E-1,7.8921986E0,1.8384753E0,1.2329982E1,3.049183E0,6.079736E-1,3.5675383E-1,1.03287935E-1,0E0,5.165901E-1,7.888794E-3,1.585371E0,7.306304E-1,4.6800613E-2,5.0918484E-1,2.524394E-1,1.2230599E-1,0E0,0E0,2.4638182E-1,9.43439E-2,0E0,0E0,4.9074574E0,9.65304E0,6.377727E-1,1.12357974E-1,1.6729441E0,5.4790745E0,1.9378223E0,2.8013475E0,6.2032223E-2,1.4848632E-1,2.638564E-1,1.0313034E-2,7.2291136E-2,6.4882666E-2,0E0,0E0,0E0,0E0,0E0,0E0,0E0,0E0,0E0,0E0,0E0,0E0,0E0,0E0,0E0,0E0,0E0,0E0,0E0,0E0,0E0,0E0,0E0,0E0,0E0,0E0,0E0,0E0,0E0,0E0,0E0,0E0,0E0,0E0,0E0,0E0,0E0,0E0,0E0,0E0,0E0,0E0,0E0,0E0,0E0,0E0,0E0,0E0],"parents":[2147483647,0,0,1,1,2,2,3,3,4,4,5,5,6,6,7,7,8,8,9,9,10,10,11,11,12,12,13,13,14,14,16,16,17,17,18,18,19,19,20,20,21,21,22,22,23,23,24,24,25,25,26,26,27,27,28,28,29,29,31,31,32,32,33,33,34,34,35,35,36,36,37,37,38,38,41,41,42,42,45,45,46,46,47,47,48,48,49,49,50,50,51,51,52,52,53,53,54,54,55,55,56,56,57,57,58,58],"right_children":[2,4,6,8,10,12,14,16,18,20,22,24,26,28,30,-1,32,34,36,38,40,42,44,46,48,50,52,54,56,58,-1,60,62,64,66,68,70,72,74,-1,-1,76,78,-1,-1,80,82,84,86,88,90,92,94,96,98,100,102,104,106,-1,-1,-1,-1,-1,-1,-1,-1,-1,-1,-1,-1,-1,-1,-1,-1,-1,-1,-1,-1,-1,-1,-1,-1,-1,-1,-1,-1,-1,-1,-1,-1,-1,-1,-1,-1,-1,-1,-1,-1,-1,-1,-1,-1,-1,-1,-1,-1],"split_conditions":[1.3867187E-3,9.1788545E-2,7.390108E-2,9.2421874E-4,9.827635E-2,2.8992188E-3,1.0858019E-1,3.229954E-2,3.2402344E-2,1.5575711E-1,8.252738E-2,4.694095E-2,4.1673854E-3,4.3726363E-3,1.1994923E-1,1.2248886E-2,1.4945932E-2,1.3067692E-2,4.3679256E-2,9.851731E-2,1.3053957E-1,1.1265595E-1,1.3313287E-1,3.1918045E-2,2.1384968E-1,3.1088147E-2,5.7073284E-2,4.5445713E-1,8.252738E-2,3.7123916E-1,-5.127679E-3,4.1875E-4,7.283871E-1,1.3085938E-3,2.8389849E-2,1.3328125E-3,1.3826798E-2,1.3154176E-2,8.5922277E-1,-5.113322E-3,3.8952255E-3,1.4765644E-2,1.2629961E-2,1.1382934E-2,-1.6046967E-3,1.5111051E-2,1.5253176E-2,1.6125E-3,4.6949863E-1,1.0997116E-3,2.250394E-2,1.2598363E-1,4.8176255E-3,8.814794E-2,2.422476E-1,5.524908E-3,5.25E-2,5.3015626E-3,4.5445713E-1,1.10252E-2,8.961395E-3,1.2635048E-2,1.0451889E-2,1.0202502E-2,2.2660876E-3,1.0273467E-3,6.3203387E-3,1.0596483E-2,7.946577E-3,4.304163E-3,8.858675E-3,-1.358203E-3,7.78104E-3,1.15094315E-2,-1.4038002E-3,2.4159614E-3,-4.9209287E-3,5.1330454E-3,-5.1717046E-3,8.5758575E-4,7.511072E-3,9.655655E-3,1.9979E-3,7.412446E-5,-2.9269261E-3,4.8924563E-3,1.0902109E-2,-6.711411E-3,-2.7322534E-3,2.7858997E-3,-2.6310526E-3,-3.9277985E-3,2.7159296E-3,3.3979088E-3,-2.8482156E-3,5.474364E-4,-4.5730406E-3,1.0980871E-2,-1.7416036E-3,-2.1597398E-3,-3.9053212E-3,-0E0,-5.815415E-3,-4.8792185E-3,-3.3260998E-3,7.736236E-3,-2.01759E-3],"split_indices":[8,0,0,8,2,8,0,0,0,5,1,0,8,8,0,0,1,1,0,0,0,0,0,0,1,0,0,2,1,2,0,8,10,8,0,8,1,1,10,0,0,1,1,0,0,1,1,8,1,1,1,5,8,5,6,8,10,8,2,0,0,0,0,0,0,0,0,0,0,0,0,0,0,0,0,0,0,0,0,0,0,0,0,0,0,0,0,0,0,0,0,0,0,0,0,0,0,0,0,0,0,0,0,0,0,0,0],"split_type":[0,0,0,0,0,0,0,0,0,0,0,0,0,0,0,0,0,0,0,0,0,0,0,0,0,0,0,0,0,0,0,0,0,0,0,0,0,0,0,0,0,0,0,0,0,0,0,0,0,0,0,0,0,0,0,0,0,0,0,0,0,0,0,0,0,0,0,0,0,0,0,0,0,0,0,0,0,0,0,0,0,0,0,0,0,0,0,0,0,0,0,0,0,0,0,0,0,0,0,0,0,0,0,0,0,0,0],"sum_hessian":[2.5581E4,4.154E3,2.1427E4,3.731E3,4.23E2,1.5088E4,6.339E3,2.465E3,1.266E3,7.6E1,3.47E2,4.606E3,1.0482E4,2.067E3,4.272E3,7.57E2,1.708E3,6.23E2,6.43E2,6.4E1,1.2E1,3.3E2,1.7E1,3.668E3,9.38E2,5.223E3,5.259E3,8.21E2,1.246E3,4.89E2,3.783E3,1.403E3,3.05E2,3.47E2,2.76E2,3.69E2,2.74E2,2.9E1,3.5E1,1.1E1,1E0,5E1,2.8E2,1.5E1,2E0,1.934E3,1.734E3,8.93E2,4.5E1,2.436E3,2.787E3,4.518E3,7.41E2,8.12E2,9E0,1.143E3,1.03E2,4.85E2,4E0,7.34E2,6.69E2,2.24E2,8.1E1,2.61E2,8.6E1,1.66E2,1.1E2,3.16E2,5.3E1,1.14E2,1.6E2,1.8E1,1.1E1,3.4E1,1E0,3.4E1,1.6E1,1E0,2.79E2,1.599E3,3.35E2,1.056E3,6.78E2,2.38E2,6.55E2,2.3E1,2.2E1,3.04E2,2.132E3,2.196E3,5.91E2,4.407E3,1.11E2,3.02E2,4.39E2,4E0,8.08E2,7E0,2E0,8.31E2,3.12E2,1E0,1.02E2,3.42E2,1.43E2,2E0,2E0],"tree_param":{"num_deleted":"0","num_feature":"13","num_nodes":"107","size_leaf_vector":"1"}},{"base_weights":[-5.3584273E-4,1.662104E-1,-3.1131627E-2,1.8970661E-1,-2.5502177E-2,2.0242753E-3,-6.727184E-2,2.0840946E-1,1.5030596E-1,1.0125047E-1,-6.231618E-2,3.6902815E-2,-7.104954E-2,-5.6739148E-2,-9.412138E-2,2.1111728E-1,1.0538987E-1,1.9223289E-1,1.2408112E-1,1.19140774E-1,-5.6309257E-2,-7.91219E-2,2.0217037E-1,-1.43671455E-2,6.2788524E-2,-7.9650626E-2,1.1414792E-1,-7.0883445E-2,-3.471594E-2,7.368409E-2,-9.552277E-2,2.038004E-1,2.357519E-1,1.0848072E-2,3.888807E-3,2.1368472E-1,1.4429453E-1,5.4573435E-2,1.4998035E-1,1.768003E-1,6.978352E-2,-4.7355494E-3,4.732657E-3,1.4063069E-2,-9.260491E-2,1.087522E-2,-0E0,7.365041E-2,-5.7731505E-2,1.1361814E-1,4.648375E-2,-5.4063354E-2,-9.5384456E-2,1.4860305E-1,-3.792626E-2,-5.656194E-2,-9.705163E-2,-3.9036416E-2,7.141821E-2,1.703376E-1,-2.88309E-2,-8.597165E-2,-9.9712044E-2,1.0297777E-2,5.3154035E-3,1.186081E-2,6.85361E-3,-7.4093486E-4,8.878832E-3,1.0802021E-2,-2.79266E-3,1.1249429E-2,6.1425883E-3,4.951944E-3,-1.2982994E-3,7.1014413E-3,1.09306E-2,5.2956133E-3,1.0858051E-2,-2.970892E-4,7.8116762E-3,-1.409577E-3,6.855768E-3,5.5751586E-3,-4.705266E-3,1.42588485E-2,1.3776195E-4,-4.3726205E-3,-4.720379E-5,6.8115345E-3,-8.993581E-4,2.6534386E-3,-5.2672107E-4,1.3212416E-3,-3.1015135E-3,-4.4857906E-3,-4.9025565E-3,1.115679E-2,5.035429E-3,-6.7212054E-4,-3.0608634E-3,-4.600003E-3,-1.956231E-3,-4.8770183E-3,8.041477E-3,-2.0692628E-4,-2.5401607E-3,1.4816145E-2,-2.2575574E-3,1.1991175E-2,1.6316749E-3,-0E0,-2.6063195E-3,-4.3730256E-3,1.207102E-2,-5.0139297E-3,-2.5583436E-3],"categories":[],"categories_nodes":[],"categories_segments":[],"categories_sizes":[],"default_left":[0,0,0,0,0,0,0,0,0,0,0,0,0,0,0,0,0,0,0,0,0,0,0,0,0,0,0,0,0,0,0,0,0,0,0,0,0,0,0,0,0,0,0,0,0,0,0,0,0,0,0,0,0,0,0,0,0,0,0,0,0,0,0,0,0,0,0,0,0,0,0,0,0,0,0,0,0,0,0,0,0,0,0,0,0,0,0,0,0,0,0,0,0,0,0,0,0,0,0,0,0,0,0,0,0,0,0,0,0,0,0,0,0,0,0,0,0],"id":10,"left_children":[1,3,5,7,9,11,13,15,17,19,21,23,25,27,29,31,33,35,37,39,41,43,45,47,49,51,53,55,57,59,61,63,65,-1,67,69,71,73,75,77,79,-1,-1,81,83,-1,-1,85,87,89,91,93,95,97,99,101,103,105,107,109,111,113,115,-1,-1,-1,-1,-1,-1,-1,-1,-1,-1,-1,-1,-1,-1,-1,-1,-1,-1,-1,-1,-1,-1,-1,-1,-1,-1,-1,-1,-1,-1,-1,-1,-1,-1,-1,-1,-1,-1,-1,-1,-1,-1,-1,-1,-1,-1,-1,-1,-1,-1,-1,-1,-1,-1],"loss_changes":[1.3008073E2,1.7827614E1,2.5825602E1,2.528183E0,2.0182455E0,2.863904E1,2.8955002E0,6.1112976E-1,1.1968765E0,2.8641456E-1,1.4971739E0,1.0102774E1,5.7878647E0,2.2955265E0,6.914253E-1,3.2635498E-1,7.0184773E-1,3.807087E-1,1.2404985E0,2.1344459E-1,6.694264E-2,4.074396E-1,8.139789E-2,9.743197E0,4.169775E0,1.3768711E0,8.6030126E-1,1.6689777E0,1.3307202E0,2.5686413E-1,8.801651E-2,3.2507324E-1,5.4836273E-3,0E0,1.3263154E-1,2.1666336E-1,1.7808795E-1,7.0463586E-1,2.122984E-1,5.627513E-2,3.4328014E-1,0E0,0E0,2.2273892E-1,9.388924E-2,0E0,0E0,1.2597229E1,2.8788576E0,3.6627665E0,1.4435978E0,8.5548663E-1,4.8503876E-3,4.1634512E-1,8.818731E-3,1.7870703E0,2.0987988E-1,1.1403818E0,3.001017E0,8.9318395E-2,3.6111511E-3,4.4051552E-1,3.4374237E-2,0E0,0E0,0E0,0E0,0E0,0E0,0E0,0E0,0E0,0E0,0E0,0E0,0E0,0E0,0E0,0E0,0E0,0E0,0E0,0E0,0E0,0E0,0E0,0E0,0E0,0E0,0E0,0E0,0E0,0E0,0E0,0E0,0E0,0E0,0E0,0E0,0E0,0E0,0E0,0E0,0E0,0E0,0E0,0E0,0E0,0E0,0E0,0E0,0E0,0E0,0E0,0E0,0E0,0E0],"parents":[2147483647,0,0,1,1,2,2,3,3,4,4,5,5,6,6,7,7,8,8,9,9,10,10,11,11,12,12,13,13,14,14,15,15,16,16,17,17,18,18,19,19,20,20,21,21,22,22,23,23,24,24,25,25,26,26,27,27,28,28,29,29,30,30,31,31,32,32,34,34,35,35,36,36,37,37,38,38,39,39,40,40,43,43,44,44,47,47,48,48,49,49,50,50,51,51,52,52,53,53,54,54,55,55,56,56,57,57,58,58,59,59,60,60,61,61,62,62],"right_children":[2,4,6,8,10,12,14,16,18,20,22,24,26,28,30,32,34,36,38,40,42,44,46,48,50,52,54,56,58,60,62,64,66,-1,68,70,72,74,76,78,80,-1,-1,82,84,-1,-1,86,88,90,92,94,96,98,100,102,104,106,108,110,112,114,116,-1,-1,-1,-1,-1,-1,-1,-1,-1,-1,-1,-1,-1,-1,-1,-1,-1,-1,-1,-1,-1,-1,-1,-1,-1,-1,-1,-1,-1,-1,-1,-1,-1,-1,-1,-1,-1,-1,-1,-1,-1,-1,-1,-1,-1,-1,-1,-1,-1,-1,-1,-1,-1,-1],"split_conditions":[1.3609375E-3,1.2418309E-1,3.906752E-3,9.2421874E-4,9.827635E-2,6.368239E-2,1.336433E-1,1.158309E-1,1.2701694E-2,1.1804687E-3,8.252738E-2,2.6145104E-2,3.4137896E-1,5.3391684E-2,7.826107E-2,1.44876065E-2,7.46875E-4,1.24375E-3,3.0103823E-2,1.901611E-1,9.5860295E-2,9.92506E-2,5.5160135E-1,2.572942E-3,1.3199175E-2,1.2790817E-1,3.2398438E-3,4.607031E-3,5.996533E-3,4.358996E-3,2.0218132E-1,6.827605E-2,2.847073E-1,1.0848072E-2,1.4247471E-1,1.1714288E-1,1.0997116E-3,1.3955745E-2,2.6538992E-2,1.2565185E-2,2.196767E-1,-4.7355494E-3,4.732657E-3,7.054054E-1,1.0888234E-1,1.087522E-2,-0E0,1.0997116E-3,1.1530026E-2,3.833993E-2,5.8191452E-2,1.5757813E-3,1.6073476E-1,4.825E-1,1.9394788E-1,2.8622534E-2,1.06880344E-1,4.453125E-3,2.7708626E-1,4.025E-1,4.8308503E-3,3.190127E-1,4.6949863E-1,1.0297777E-2,5.3154035E-3,1.186081E-2,6.85361E-3,-7.4093486E-4,8.878832E-3,1.0802021E-2,-2.79266E-3,1.1249429E-2,6.1425883E-3,4.951944E-3,-1.2982994E-3,7.1014413E-3,1.09306E-2,5.2956133E-3,1.0858051E-2,-2.970892E-4,7.8116762E-3,-1.409577E-3,6.855768E-3,5.5751586E-3,-4.705266E-3,1.42588485E-2,1.3776195E-4,-4.3726205E-3,-4.720379E-5,6.8115345E-3,-8.993581E-4,2.6534386E-3,-5.2672107E-4,1.3212416E-3,-3.1015135E-3,-4.4857906E-3,-4.9025565E-3,1.115679E-2,5.035429E-3,-6.7212054E-4,-3.0608634E-3,-4.600003E-3,-1.956231E-3,-4.8770183E-3,8.041477E-3,-2.0692628E-4,-2.5401607E-3,1.4816145E-2,-2.2575574E-3,1.1991175E-2,1.6316749E-3,-0E0,-2.6063195E-3,-4.3730256E-3,1.207102E-2,-5.0139297E-3,-2.5583436E-3],"split_indices":[8,7,8,8,2,3,3,7,1,8,1,3,2,3,7,1,8,8,3,6,2,3,3,8,1,7,8,8,8,8,3,3,3,0,5,7,1,1,1,1,6,0,0,9,5,0,0,1,1,3,3,8,3,10,3,3,5,8,5,10,8,1,1,0,0,0,0,0,0,0,0,0,0,0,0,0,0,0,0,0,0,0,0,0,0,0,0,0,0,0,0,0,0,0,0,0,0,0,0,0,0,0,0,0,0,0,0,0,0,0,0,0,0,0,0,0,0],"split_type":[0,0,0,0,0,0,0,0,0,0,0,0,0,0,0,0,0,0,0,0,0,0,0,0,0,0,0,0,0,0,0,0,0,0,0,0,0,0,0,0,0,0,0,0,0,0,0,0,0,0,0,0,0,0,0,0,0,0,0,0,0,0,0,0,0,0,0,0,0,0,0,0,0,0,0,0,0,0,0,0,0,0,0,0,0,0,0,0,0,0,0,0,0,0,0,0,0,0,0,0,0,0,0,0,0,0,0,0,0,0,0,0,0,0,0,0,0],"sum_hessian":[2.5498E4,3.952E3,2.1546E4,3.521E3,4.31E2,1.1236E4,1.031E4,2.383E3,1.138E3,9.6E1,3.35E2,7.607E3,3.629E3,7.41E3,2.9E3,2.32E3,6.3E1,4.34E2,7.04E2,8.7E1,9E0,3.16E2,1.9E1,2.551E3,5.056E3,3.469E3,1.6E2,4.508E3,2.902E3,2.3E1,2.877E3,1.799E3,5.21E2,2.9E1,3.4E1,2.96E2,1.38E2,1.93E2,5.11E2,3.8E1,4.9E1,8E0,1E0,3.9E1,2.77E2,1.8E1,1E0,8.41E2,1.71E3,1.225E3,3.831E3,1.325E3,2.144E3,1.31E2,2.9E1,2.918E3,1.59E3,2.79E3,1.12E2,1.2E1,1.1E1,8.91E2,1.986E3,1.758E3,4.1E1,5.11E2,1E1,3.1E1,3E0,2.94E2,2E0,2.6E1,1.12E2,1.25E2,6.8E1,4.62E2,4.9E1,1.6E1,2.2E1,2.6E1,2.3E1,2.9E1,1E1,1E0,2.76E2,2.1E2,6.31E2,1.121E3,5.89E2,1.046E3,1.79E2,3.436E3,3.95E2,1.18E2,1.207E3,7.09E2,1.435E3,4.9E1,8.2E1,1.7E1,1.2E1,9.59E2,1.959E3,1.588E3,2E0,7.06E2,2.084E3,3.8E1,7.4E1,7E0,5E0,7E0,4E0,8.88E2,3E0,1.96E3,2.6E1],"tree_param":{"num_deleted":"0","num_feature":"13","num_nodes":"117","size_leaf_vector":"1"}},{"base_weights":[9.733602E-5,2.8334605E-2,-7.076645E-2,5.4124396E-2,1.488127E-2,1.0413191E-3,-8.016988E-2,1.276225E-2,1.1664732E-1,2.2474095E-2,-5.668792E-3,-9.627602E-3,1.7528775E-1,-6.251623E-2,-9.21977E-2,5.3623162E-2,-1.3000055E-3,-9.3922414E-2,1.2230325E-1,3.687828E-4,3.00983E-2,1.9555192E-2,-1.2801454E-2,8.128588E-2,-2.7947227E-2,2.0107122E-1,8.0728054E-2,-6.545298E-2,5.5384118E-2,9.32262E-2,-9.244354E-2,4.2882755E-2,1.1088361E-1,-6.978249E-2,3.0255646E-2,-6.1925123E-3,-0E0,1.4936167E-1,9.0588555E-2,-7.4224314E-3,6.2413674E-2,7.844129E-2,1.9505378E-2,1.5711185E-2,1.2630314E-2,-2.8365662E-3,-4.1623503E-2,5.974804E-2,2.1758607E-1,5.164427E-2,-3.7195582E-2,2.3694055E-2,1.06542045E-2,-0E0,8.365789E-3,6.0659926E-2,-6.773865E-2,-3.3746974E-4,1.8970451E-1,7.4716755E-3,-7.900758E-4,-9.30168E-2,-5.5347614E-2,1.2699025E-3,3.1918578E-3,9.209371E-3,4.1737645E-3,-2.7240696E-3,-3.6291636E-3,4.0885857E-3,7.699794E-4,-1.9283275E-3,5.503538E-3,8.191617E-3,5.7690064E-3,1.2590602E-4,5.906621E-3,-4.902884E-4,3.9925748E-3,2.128951E-3,5.922509E-3,3.7022275E-3,1.0388933E-2,2.749892E-4,1.913018E-3,1.6071203E-3,-4.0721428E-4,-3.1558266E-5,-5.480599E-3,3.3090988E-4,-2.6211995E-3,7.81472E-3,1.9699892E-3,1.2389072E-3,1.2499467E-2,-4.311759E-4,8.33306E-3,-2.380911E-3,-7.133291E-5,5.159623E-3,-2.8700286E-3,-1.5937015E-3,2.5617515E-3,-1.2553085E-4,7.6249563E-3,-3.4168125E-3,5.7151704E-3,-1.7723928E-3,5.115858E-3,-8.9174864E-4,1.0389044E-2,-2.6427952E-3,-4.657414E-3,1.2130052E-3,-3.45931E-3],"categories":[],"categories_nodes":[],"categories_segments":[],"categories_sizes":[],"default_left":[0,0,0,0,0,0,0,0,0,0,0,0,0,0,0,0,0,0,0,0,0,0,0,0,0,0,0,0,0,0,0,0,0,0,0,0,0,0,0,0,0,0,0,0,0,0,0,0,0,0,0,0,0,0,0,0,0,0,0,0,0,0,0,0,0,0,0,0,0,0,0,0,0,0,0,0,0,0,0,0,0,0,0,0,0,0,0,0,0,0,0,0,0,0,0,0,0,0,0,0,0,0,0,0,0,0,0,0,0,0,0,0,0,0,0],"id":11,"left_children":[1,3,5,7,9,11,13,15,17,19,21,23,25,27,29,31,33,35,37,39,41,43,45,47,49,51,53,55,57,59,61,63,65,67,69,-1,71,73,75,77,79,81,83,85,-1,87,89,91,93,95,97,99,-1,101,-1,103,105,107,109,-1,-1,111,113,-1,-1,-1,-1,-1,-1,-1,-1,-1,-1,-1,-1,-1,-1,-1,-1,-1,-1,-1,-1,-1,-1,-1,-1,-1,-1,-1,-1,-1,-1,-1,-1,-1,-1,-1,-1,-1,-1,-1,-1,-1,-1,-1,-1,-1,-1,-1,-1,-1,-1,-1,-1],"loss_changes":[5.09032E1,6.304513E0,4.9021263E0,1.6107204E1,1.8679631E0,1.5779725E0,1.3398323E0,2.1623378E0,2.9691162E0,1.4694357E0,5.796183E-1,1.3143489E0,7.505381E-2,9.0624905E-1,1.8207932E-1,5.721135E-1,6.0396023E0,1.9355184E-1,2.036621E0,1.0912068E0,3.3136988E0,6.034614E-1,7.183398E-1,3.467669E-1,4.8629576E-1,5.011332E-2,8.32462E-2,7.3755836E-1,4.905271E-1,4.6365246E-2,6.0890198E-2,2.876897E-1,2.5922883E-1,2.1137238E-2,1.4515612E0,0E0,7.8426406E-2,5.929222E-1,2.697257E0,4.0853658E-1,2.5894272E-1,6.189256E-1,1.3952067E0,2.7625975E-1,0E0,4.302009E-1,3.404733E-1,2.0216048E-1,7.253826E-2,4.8860443E-1,2.1610188E-1,3.6290064E-2,0E0,1.557988E-2,0E0,2.764507E-1,2.7496243E-1,1.5913095E-1,9.3979955E-2,0E0,0E0,2.2888184E-4,7.5575516E-2,0E0,0E0,0E0,0E0,0E0,0E0,0E0,0E0,0E0,0E0,0E0,0E0,0E0,0E0,0E0,0E0,0E0,0E0,0E0,0E0,0E0,0E0,0E0,0E0,0E0,0E0,0E0,0E0,0E0,0E0,0E0,0E0,0E0,0E0,0E0,0E0,0E0,0E0,0E0,0E0,0E0,0E0,0E0,0E0,0E0,0E0,0E0,0E0,0E0,0E0,0E0,0E0],"parents":[2147483647,0,0,1,1,2,2,3,3,4,4,5,5,6,6,7,7,8,8,9,9,10,10,11,11,12,12,13,13,14,14,15,15,16,16,17,17,18,18,19,19,20,20,21,21,22,22,23,23,24,24,25,25,26,26,27,27,28,28,29,29,30,30,31,31,32,32,33,33,34,34,36,36,37,37,38,38,39,39,40,40,41,41,42,42,43,43,45,45,46,46,47,47,48,48,49,49,50,50,51,51,53,53,55,55,56,56,57,57,58,58,61,61,62,62],"right_children":[2,4,6,8,10,12,14,16,18,20,22,24,26,28,30,32,34,36,38,40,42,44,46,48,50,52,54,56,58,60,62,64,66,68,70,-1,72,74,76,78,80,82,84,86,-1,88,90,92,94,96,98,100,-1,102,-1,104,106,108,110,-1,-1,112,114,-1,-1,-1,-1,-1,-1,-1,-1,-1,-1,-1,-1,-1,-1,-1,-1,-1,-1,-1,-1,-1,-1,-1,-1,-1,-1,-1,-1,-1,-1,-1,-1,-1,-1,-1,-1,-1,-1,-1,-1,-1,-1,-1,-1,-1,-1,-1,-1,-1,-1,-1,-1],"split_conditions":[8.982818E-2,1.2944465E-2,1.01869576E-1,2.7159654E-2,5.6213073E-2,4.6949863E-1,1.5326913E-1,8.186215E-3,7.625036E-2,3.1113299E-2,1.4687308E-2,7.480039E-2,9.448773E-2,4.5445713E-1,9.325166E-2,8.14E-1,1.1108162E-2,1.0086993E-2,9.6568905E-2,1.4687308E-2,1.3761528E-2,1.2708744E-1,6.933442E-1,4.3100592E-1,7.433636E-2,7.417475E-2,1.9362716E-1,1.3582705E-2,4.5683727E-1,1.6852383E-1,1.0264281E-1,4.9407753E-1,5.5767126E-2,1.4849712E-1,1.2106706E-2,-6.1925123E-3,7.430514E-1,1.2496731E-2,2.9189257E-2,8.427767E-2,1.1666778E-1,9.5533335E-1,1.2252653E-1,6.566667E-1,1.2630314E-2,3.137734E-1,2.5733334E-1,6.222549E-2,5.5767126E-2,1.6770776E-1,7.4E-1,2.590924E-1,1.06542045E-2,3.3958092E-1,8.365789E-3,6.7123604E-1,3.8907078E-1,1.1621692E-1,1.0269278E-1,7.4716755E-3,-7.900758E-4,1.07819445E-1,5.5767126E-2,1.2699025E-3,3.1918578E-3,9.209371E-3,4.1737645E-3,-2.7240696E-3,-3.6291636E-3,4.0885857E-3,7.699794E-4,-1.9283275E-3,5.503538E-3,8.191617E-3,5.7690064E-3,1.2590602E-4,5.906621E-3,-4.902884E-4,3.9925748E-3,2.128951E-3,5.922509E-3,3.7022275E-3,1.0388933E-2,2.749892E-4,1.913018E-3,1.6071203E-3,-4.0721428E-4,-3.1558266E-5,-5.480599E-3,3.3090988E-4,-2.6211995E-3,7.81472E-3,1.9699892E-3,1.2389072E-3,1.2499467E-2,-4.311759E-4,8.33306E-3,-2.380911E-3,-7.133291E-5,5.159623E-3,-2.8700286E-3,-1.5937015E-3,2.5617515E-3,-1.2553085E-4,7.6249563E-3,-3.4168125E-3,5.7151704E-3,-1.7723928E-3,5.115858E-3,-8.9174864E-4,1.0389044E-2,-2.6427952E-3,-4.657414E-3,1.2130052E-3,-3.45931E-3],"split_indices":[3,1,5,3,3,1,5,2,2,3,1,7,5,2,3,11,1,1,2,1,1,2,12,2,5,5,6,1,11,2,1,10,12,10,1,0,10,1,3,7,2,9,2,9,0,5,9,5,12,1,10,3,0,3,0,11,3,5,5,0,0,3,12,0,0,0,0,0,0,0,0,0,0,0,0,0,0,0,0,0,0,0,0,0,0,0,0,0,0,0,0,0,0,0,0,0,0,0,0,0,0,0,0,0,0,0,0,0,0,0,0,0,0,0,0],"split_type":[0,0,0,0,0,0,0,0,0,0,0,0,0,0,0,0,0,0,0,0,0,0,0,0,0,0,0,0,0,0,0,0,0,0,0,0,0,0,0,0,0,0,0,0,0,0,0,0,0,0,0,0,0,0,0,0,0,0,0,0,0,0,0,0,0,0,0,0,0,0,0,0,0,0,0,0,0,0,0,0,0,0,0,0,0,0,0,0,0,0,0,0,0,0,0,0,0,0,0,0,0,0,0,0,0,0,0,0,0,0,0,0,0,0,0],"sum_hessian":[2.5439E4,1.8192E4,7.247E3,6.233E3,1.1959E4,8.38E2,6.409E3,3.753E3,2.48E3,8.736E3,3.223E3,7.9E2,4.8E1,2.603E3,3.806E3,9.62E2,2.791E3,6.4E1,2.416E3,2.244E3,6.492E3,7.07E2,2.516E3,1.31E2,6.59E2,3.6E1,1.2E1,2.541E3,6.2E1,4E0,3.802E3,8.13E2,1.49E2,8.81E2,1.91E3,4.9E1,1.5E1,1.3E3,1.116E3,1.993E3,2.51E2,1.164E3,5.328E3,6.97E2,1E1,1.873E3,6.43E2,1.15E2,1.6E1,6.7E1,5.92E2,3E0,3.3E1,7E0,5E0,4.4E1,2.497E3,4.4E1,1.8E1,3E0,1E0,3.74E3,6.2E1,4.47E2,3.66E2,3.8E1,1.11E2,1.45E2,7.36E2,4.25E2,1.485E3,1.1E1,4E0,9.07E2,3.93E2,2.67E2,8.49E2,1.942E3,5.1E1,1.88E2,6.3E1,1.128E3,3.6E1,3.054E3,2.274E3,4.15E2,2.82E2,1.837E3,3.6E1,1.16E2,5.27E2,1.8E1,9.7E1,3E0,1.3E1,4.4E1,2.3E1,4.56E2,1.36E2,2E0,1E0,4E0,3E0,2.6E1,1.8E1,2.49E3,7E0,3.4E1,1E1,1E0,1.7E1,1.6E1,3.724E3,8E0,5.4E1],"tree_param":{"num_deleted":"0","num_feature":"13","num_nodes":"115","size_leaf_vector":"1"}},{"base_weights":[-2.571005E-4,1.4836796E-1,-3.0144246E-2,1.6862974E-1,-1.6415851E-2,1.4065865E-4,-6.253639E-2,1.9358967E-1,1.2527499E-1,9.734313E-2,-5.1723715E-2,2.7503243E-2,-7.581044E-2,-5.537357E-2,-8.666281E-2,1.9616273E-1,1.2523308E-1,1.4837462E-1,9.6066654E-2,1.593276E-1,4.7771294E-2,-6.690333E-2,1.0233745E-2,6.033311E-2,-3.5054758E-3,-3.9838344E-2,-8.494058E-2,-4.0523186E-2,-6.784933E-2,-7.3403046E-2,-4.4063623E-3,1.8997754E-1,1.0753009E-2,1.8587735E-1,1.8301623E-2,1.8785667E-1,1.1186428E-1,4.0225837E-2,1.5420151E-1,9.694E-2,2.0884658E-1,9.339694E-2,-5.041614E-3,1.4706653E-2,-8.617317E-2,2.7525386E-2,1.4017992E-1,-8.806618E-2,2.0409377E-2,-4.358921E-2,1.5417023E-1,1.3800494E-1,-8.542735E-2,-7.7065825E-2,-2.8904032E-2,-7.117781E-2,4.935628E-2,-4.1727712E-3,-5.705549E-2,3.5590634E-3,9.702525E-3,2.2685449E-3,9.964703E-3,7.0876465E-3,-1.3018703E-3,9.523861E-3,-3.7598896E-3,7.77744E-3,1.7107184E-3,6.606909E-4,7.769551E-3,5.5649634E-3,8.576931E-3,-2.5786434E-3,8.350421E-3,-0E0,1.1080064E-2,6.494507E-3,-2.7782458E-3,-2.0687752E-3,4.693217E-3,1.8006852E-3,-4.4230837E-3,-3.6339075E-3,1.7804984E-3,8.84568E-3,1.3058739E-3,-6.347087E-3,-3.133475E-3,1.6329192E-3,-2.3321183E-3,6.156931E-4,-2.809736E-3,-4.4111517E-4,9.067586E-3,9.723468E-3,-0E0,-3.4674716E-3,-4.3540467E-3,-4.695685E-3,-3.0175047E-3,-1.5088514E-3,9.986936E-3,-4.519985E-3,-2.4979378E-3,1.3993787E-2,-2.248384E-3,-0E0,-2.9079465E-3],"categories":[],"categories_nodes":[],"categories_segments":[],"categories_sizes":[],"default_left":[0,0,0,0,0,0,0,0,0,0,0,0,0,0,0,0,0,0,0,0,0,0,0,0,0,0,0,0,0,0,0,0,0,0,0,0,0,0,0,0,0,0,0,0,0,0,0,0,0,0,0,0,0,0,0,0,0,0,0,0,0,0,0,0,0,0,0,0,0,0,0,0,0,0,0,0,0,0,0,0,0,0,0,0,0,0,0,0,0,0,0,0,0,0,0,0,0,0,0,0,0,0,0,0,0,0,0,0,0],"id":12,"left_children":[1,3,5,7,9,11,13,15,17,19,21,23,25,27,29,31,33,35,37,39,41,43,-1,45,47,49,51,53,55,57,-1,59,-1,61,63,65,67,69,71,73,75,77,-1,79,81,83,85,87,89,91,93,95,97,99,101,103,105,-1,107,-1,-1,-1,-1,-1,-1,-1,-1,-1,-1,-1,-1,-1,-1,-1,-1,-1,-1,-1,-1,-1,-1,-1,-1,-1,-1,-1,-1,-1,-1,-1,-1,-1,-1,-1,-1,-1,-1,-1,-1,-1,-1,-1,-1,-1,-1,-1,-1,-1,-1],"loss_changes":[1.13796135E2,1.4338165E1,2.093279E1,4.0775986E0,1.8882688E0,2.2907536E1,1.7625313E0,3.6911774E-1,9.058857E-1,3.1274664E-1,1.401048E0,8.2579E0,9.428253E-1,1.4602337E0,2.3107529E-2,1.90979E-1,5.7278025E-1,1.0705013E0,1.996798E0,9.7465634E-2,4.426025E-1,5.4467416E-1,0E0,1.0297943E1,8.43733E0,4.2864352E-1,2.5884628E-1,1.5318503E0,1.6902199E0,2.1777272E-2,0E0,8.151169E-1,0E0,7.582879E-2,2.0684232E-1,2.816E-1,1.3596783E0,9.7655636E-1,1.7873955E-1,2.6990214E-1,8.8148594E-2,2.8645468E-1,0E0,2.9768926E-1,8.5886955E-2,2.2623105E0,4.776741E0,8.8140917E-1,2.6685843E0,4.173218E-1,6.758705E-2,5.604648E-2,4.0023804E-2,2.2532749E-1,7.935643E-1,1.6945019E0,2.6235538E0,0E0,6.075412E-3,0E0,0E0,0E0,0E0,0E0,0E0,0E0,0E0,0E0,0E0,0E0,0E0,0E0,0E0,0E0,0E0,0E0,0E0,0E0,0E0,0E0,0E0,0E0,0E0,0E0,0E0,0E0,0E0,0E0,0E0,0E0,0E0,0E0,0E0,0E0,0E0,0E0,0E0,0E0,0E0,0E0,0E0,0E0,0E0,0E0,0E0,0E0,0E0,0E0,0E0],"parents":[2147483647,0,0,1,1,2,2,3,3,4,4,5,5,6,6,7,7,8,8,9,9,10,10,11,11,12,12,13,13,14,14,15,15,16,16,17,17,18,18,19,19,20,20,21,21,23,23,24,24,25,25,26,26,27,27,28,28,29,29,31,31,33,33,34,34,35,35,36,36,37,37,38,38,39,39,40,40,41,41,43,43,44,44,45,45,46,46,47,47,48,48,49,49,50,50,51,51,52,52,53,53,54,54,55,55,56,56,58,58],"right_children":[2,4,6,8,10,12,14,16,18,20,22,24,26,28,30,32,34,36,38,40,42,44,-1,46,48,50,52,54,56,58,-1,60,-1,62,64,66,68,70,72,74,76,78,-1,80,82,84,86,88,90,92,94,96,98,100,102,104,106,-1,108,-1,-1,-1,-1,-1,-1,-1,-1,-1,-1,-1,-1,-1,-1,-1,-1,-1,-1,-1,-1,-1,-1,-1,-1,-1,-1,-1,-1,-1,-1,-1,-1,-1,-1,-1,-1,-1,-1,-1,-1,-1,-1,-1,-1,-1,-1,-1,-1,-1,-1],"split_conditions":[1.4367187E-3,1.2275226E-1,3.906752E-3,9.484375E-4,9.827635E-2,1.0200402E-1,1.4692871E-1,1.11578695E-1,1.24375E-3,1.901611E-1,8.252738E-2,2.8273438E-3,1.198377E-1,4.560283E-3,1.5701218E-1,1.1289492E-1,7.859375E-4,1.3132313E-2,5.669454E-1,1.2565185E-2,4.9466667E-1,1.4069948E-1,1.0233745E-2,5.697689E-1,8.1360094E-2,4.6949863E-1,4.4055057E-1,1.3041574E-2,5.996533E-3,5.3530955E-3,-4.4063623E-3,5.6271005E-1,1.0753009E-2,5.612449E-1,9.345194E-2,1.1469996E-1,5.6896317E-1,9.033768E-2,5.6877106E-1,5.682056E-1,1.2418309E-1,8.95E-1,-5.041614E-3,4.275E-1,1.3154176E-2,1.1530026E-2,2.572942E-3,8.186215E-3,2.250394E-2,1.6312911E-3,4.4055057E-1,2.651601E-1,1.3067101E-1,1.2565185E-2,6.163632E-1,8.9796655E-2,2.8718686E-1,-4.1727712E-3,9.315037E-2,3.5590634E-3,9.702525E-3,2.2685449E-3,9.964703E-3,7.0876465E-3,-1.3018703E-3,9.523861E-3,-3.7598896E-3,7.77744E-3,1.7107184E-3,6.606909E-4,7.769551E-3,5.5649634E-3,8.576931E-3,-2.5786434E-3,8.350421E-3,-0E0,1.1080064E-2,6.494507E-3,-2.7782458E-3,-2.0687752E-3,4.693217E-3,1.8006852E-3,-4.4230837E-3,-3.6339075E-3,1.7804984E-3,8.84568E-3,1.3058739E-3,-6.347087E-3,-3.133475E-3,1.6329192E-3,-2.3321183E-3,6.156931E-4,-2.809736E-3,-4.4111517E-4,9.067586E-3,9.723468E-3,-0E0,-3.4674716E-3,-4.3540467E-3,-4.695685E-3,-3.0175047E-3,-1.5088514E-3,9.986936E-3,-4.519985E-3,-2.4979378E-3,1.3993787E-2,-2.248384E-3,-0E0,-2.9079465E-3],"split_indices":[8,7,8,8,2,7,7,7,8,6,1,8,7,8,7,2,8,1,4,1,9,7,0,4,2,1,4,1,8,8,0,4,0,4,2,7,4,7,4,4,7,10,0,10,1,1,8,2,1,8,4,6,7,1,4,7,6,0,6,0,0,0,0,0,0,0,0,0,0,0,0,0,0,0,0,0,0,0,0,0,0,0,0,0,0,0,0,0,0,0,0,0,0,0,0,0,0,0,0,0,0,0,0,0,0,0,0,0,0],"split_type":[0,0,0,0,0,0,0,0,0,0,0,0,0,0,0,0,0,0,0,0,0,0,0,0,0,0,0,0,0,0,0,0,0,0,0,0,0,0,0,0,0,0,0,0,0,0,0,0,0,0,0,0,0,0,0,0,0,0,0,0,0,0,0,0,0,0,0,0,0,0,0,0,0,0,0,0,0,0,0,0,0,0,0,0,0,0,0,0,0,0,0,0,0,0,0,0,0,0,0,0,0,0,0,0,0,0,0,0,0],"sum_hessian":[2.5619E4,4.288E3,2.1331E4,3.819E3,4.69E2,1.1023E4,1.0308E4,2.42E3,1.399E3,1.1E2,3.59E2,8.105E3,2.918E3,7.954E3,2.354E3,2.329E3,9.1E1,7.77E2,6.22E2,4.7E1,6.3E1,3.4E2,1.9E1,3.938E3,4.167E3,5.94E2,2.324E3,3.637E3,4.317E3,2.46E2,2.108E3,1.767E3,5.62E2,5.7E1,3.4E1,3.7E2,4.07E2,3.19E2,3.03E2,2.3E1,2.4E1,4.9E1,1.4E1,6.4E1,2.76E2,2.793E3,1.145E3,9.19E2,3.248E3,5.84E2,1E1,4E0,2.32E3,8.74E2,2.763E3,4.199E3,1.18E2,1.46E2,1E2,6E1,1.707E3,6E0,5.1E1,9E0,2.5E1,3.67E2,3E0,2.59E2,1.48E2,2.6E2,5.9E1,9.1E1,2.12E2,7E0,1.6E1,1E0,2.3E1,4E1,9E0,3.7E1,2.7E1,4E0,2.72E2,2.07E2,2.586E3,8.65E2,2.8E2,3.6E2,5.59E2,2.748E3,5E2,1.06E2,4.78E2,1E0,9E0,3E0,1E0,2.26E2,2.094E3,4.3E2,4.44E2,2.749E3,1.4E1,2.199E3,2E3,3.4E1,8.4E1,2E0,9.8E1],"tree_param":{"num_deleted":"0","num_feature":"13","num_nodes":"109","size_leaf_vector":"1"}},{"base_weights":[-4.185909E-4,1.4127205E-1,-2.8941046E-2,1.608585E-1,-2.9636692E-2,-9.628995E-3,-7.587787E-2,1.8402565E-1,1.2151875E-1,9.134169E-2,-5.9483122E-2,4.70363E-2,-3.554639E-2,-6.070262E-2,-8.2491E-2,1.0549264E-2,1.715203E-1,9.1498315E-2,1.4996305E-1,-0E0,1.3755094E-1,-6.991392E-2,1.7494248E-1,7.057263E-2,-3.865786E-2,-8.389713E-3,-5.5973694E-2,-7.6176494E-2,-4.942558E-2,-7.64886E-2,-8.444526E-2,1.627918E-1,2.0561641E-1,1.2809062E-1,3.342871E-2,1.7750004E-1,1.0664228E-1,1.622971E-1,-5.780889E-2,1.6594146E-1,-3.9357245E-3,-4.4066883E-3,-4.204843E-3,9.7146E-3,-0E0,3.342895E-2,1.1585124E-1,-4.7129065E-2,1.2813133E-1,-5.5687148E-2,3.4799725E-2,-6.5563776E-2,-1.8600135E-3,-7.730986E-2,1.990538E-2,-4.448558E-2,-9.396646E-2,-4.0485566E-3,-5.7977736E-2,-2.8980162E-2,-4.228867E-3,9.1196215E-3,7.0445403E-3,2.5228227E-3,1.040053E-2,8.851656E-3,2.7875348E-3,8.048418E-3,-2.9591043E-4,9.109064E-3,6.3641206E-3,-3.139223E-4,6.540584E-3,9.588992E-3,-0E0,-4.2875707E-3,6.186253E-3,-0E0,8.790544E-3,1.8547556E-3,-4.399128E-3,7.0287124E-4,6.201665E-3,8.48361E-3,1.0197962E-3,-2.4630045E-4,-2.9631958E-3,2.5307164E-3,9.0445E-3,-5.8546993E-3,-2.3803075E-3,3.0577953E-3,-2.6230288E-3,-3.4051228E-3,2.2164138E-3,1.4755232E-3,-4.8846523E-3,-3.6127304E-3,-4.3502925E-3,5.9582586E-3,-3.1667748E-3,-1.7643992E-3,-3.287427E-3,-6.507364E-4,-4.8413347E-3,-2.983151E-3,-4.5703E-5,-3.1547532E-3,5.304222E-3],"categories":[],"categories_nodes":[],"categories_segments":[],"categories_sizes":[],"default_left":[0,0,0,0,0,0,0,0,0,0,0,0,0,0,0,0,0,0,0,0,0,0,0,0,0,0,0,0,0,0,0,0,0,0,0,0,0,0,0,0,0,0,0,0,0,0,0,0,0,0,0,0,0,0,0,0,0,0,0,0,0,0,0,0,0,0,0,0,0,0,0,0,0,0,0,0,0,0,0,0,0,0,0,0,0,0,0,0,0,0,0,0,0,0,0,0,0,0,0,0,0,0,0,0,0,0,0,0,0],"id":13,"left_children":[1,3,5,7,9,11,13,15,17,19,21,23,25,27,29,-1,31,33,35,37,39,41,43,45,47,49,51,53,55,57,59,61,63,65,67,69,71,73,75,77,-1,79,-1,-1,-1,81,83,85,87,89,91,93,95,97,99,101,103,-1,105,107,-1,-1,-1,-1,-1,-1,-1,-1,-1,-1,-1,-1,-1,-1,-1,-1,-1,-1,-1,-1,-1,-1,-1,-1,-1,-1,-1,-1,-1,-1,-1,-1,-1,-1,-1,-1,-1,-1,-1,-1,-1,-1,-1,-1,-1,-1,-1,-1,-1],"loss_changes":[1.0337098E2,1.4365257E1,1.9293495E1,3.4522858E0,1.5945983E0,2.2161951E1,6.034813E-1,7.4043274E-1,1.1832218E0,3.715077E-1,8.697901E-1,9.556066E0,5.737957E0,3.138275E-1,2.806282E-2,0E0,4.2341614E-1,1.4669967E0,8.2468605E-1,2.8758577E-1,3.7789834E-1,3.0759704E-1,6.941825E-2,6.2308216E0,1.4391018E0,9.092219E0,3.0591183E0,9.352493E-2,2.2422981E-1,7.127285E-2,9.878159E-3,5.120468E-1,8.699036E-2,1.4821849E0,1.3864515E0,5.024147E-2,7.992916E-1,4.6733767E-2,1.234801E-1,8.2662225E-2,0E0,2.2687104E-1,0E0,0E0,0E0,3.571962E0,8.572563E0,4.9107742E-1,1.6808891E-1,1.0324416E0,5.351225E0,1.4050426E0,2.691346E0,1.6215801E-2,8.749259E-2,1.8216646E-1,1.2530625E-2,0E0,1.4948726E-2,5.3079337E-2,0E0,0E0,0E0,0E0,0E0,0E0,0E0,0E0,0E0,0E0,0E0,0E0,0E0,0E0,0E0,0E0,0E0,0E0,0E0,0E0,0E0,0E0,0E0,0E0,0E0,0E0,0E0,0E0,0E0,0E0,0E0,0E0,0E0,0E0,0E0,0E0,0E0,0E0,0E0,0E0,0E0,0E0,0E0,0E0,0E0,0E0,0E0,0E0,0E0],"parents":[2147483647,0,0,1,1,2,2,3,3,4,4,5,5,6,6,7,7,8,8,9,9,10,10,11,11,12,12,13,13,14,14,16,16,17,17,18,18,19,19,20,20,21,21,22,22,23,23,24,24,25,25,26,26,27,27,28,28,29,29,30,30,31,31,32,32,33,33,34,34,35,35,36,36,37,37,38,38,39,39,41,41,45,45,46,46,47,47,48,48,49,49,50,50,51,51,52,52,53,53,54,54,55,55,56,56,58,58,59,59],"right_children":[2,4,6,8,10,12,14,16,18,20,22,24,26,28,30,-1,32,34,36,38,40,42,44,46,48,50,52,54,56,58,60,62,64,66,68,70,72,74,76,78,-1,80,-1,-1,-1,82,84,86,88,90,92,94,96,98,100,102,104,-1,106,108,-1,-1,-1,-1,-1,-1,-1,-1,-1,-1,-1,-1,-1,-1,-1,-1,-1,-1,-1,-1,-1,-1,-1,-1,-1,-1,-1,-1,-1,-1,-1,-1,-1,-1,-1,-1,-1,-1,-1,-1,-1,-1,-1,-1,-1,-1,-1,-1,-1],"split_conditions":[1.4367187E-3,9.029303E-2,7.6086186E-2,9.2421874E-4,9.827635E-2,2.9640626E-3,1.0858019E-1,3.229954E-2,3.2205433E-2,9.5894136E-2,8.252738E-2,4.694095E-2,4.060156E-3,4.560283E-3,1.357096E-1,1.0549264E-2,1.4605395E-2,1.278125E-3,4.3679256E-2,8.546875E-4,1.1195312E-3,1.1265595E-1,1.3313287E-1,3.229954E-2,2.1384968E-1,3.122918E-2,5.64017E-2,3.190127E-1,3.781602E-2,5.3015626E-3,8.63517E-3,4.1875E-4,6.058459E-2,1.366407E-2,2.614795E-2,9.072745E-1,8.6184725E-2,9.5404856E-2,7.94E-1,3.177457E-2,-3.9357245E-3,1.4765644E-2,-4.204843E-3,9.7146E-3,-0E0,1.4989006E-2,1.5982285E-2,1.6125E-3,4.6949863E-1,8.186215E-3,2.2051562E-2,5.4034856E-3,2.3320312E-2,2.6538992E-2,1.6397256E-1,5.524908E-3,4.6703126E-3,-4.0485566E-3,4.413916E-2,3.0521262E-2,-4.228867E-3,9.1196215E-3,7.0445403E-3,2.5228227E-3,1.040053E-2,8.851656E-3,2.7875348E-3,8.048418E-3,-2.9591043E-4,9.109064E-3,6.3641206E-3,-3.139223E-4,6.540584E-3,9.588992E-3,-0E0,-4.2875707E-3,6.186253E-3,-0E0,8.790544E-3,1.8547556E-3,-4.399128E-3,7.0287124E-4,6.201665E-3,8.48361E-3,1.0197962E-3,-2.4630045E-4,-2.9631958E-3,2.5307164E-3,9.0445E-3,-5.8546993E-3,-2.3803075E-3,3.0577953E-3,-2.6230288E-3,-3.4051228E-3,2.2164138E-3,1.4755232E-3,-4.8846523E-3,-3.6127304E-3,-4.3502925E-3,5.9582586E-3,-3.1667748E-3,-1.7643992E-3,-3.287427E-3,-6.507364E-4,-4.8413347E-3,-2.983151E-3,-4.5703E-5,-3.1547532E-3,5.304222E-3],"split_indices":[8,0,0,8,2,8,0,0,0,0,1,0,8,8,0,0,1,8,0,8,8,0,0,0,1,0,0,1,1,8,11,8,6,1,0,11,7,2,11,10,0,1,0,0,0,1,1,8,1,2,1,8,1,1,6,8,8,0,1,1,0,0,0,0,0,0,0,0,0,0,0,0,0,0,0,0,0,0,0,0,0,0,0,0,0,0,0,0,0,0,0,0,0,0,0,0,0,0,0,0,0,0,0,0,0,0,0,0,0],"split_type":[0,0,0,0,0,0,0,0,0,0,0,0,0,0,0,0,0,0,0,0,0,0,0,0,0,0,0,0,0,0,0,0,0,0,0,0,0,0,0,0,0,0,0,0,0,0,0,0,0,0,0,0,0,0,0,0,0,0,0,0,0,0,0,0,0,0,0,0,0,0,0,0,0,0,0,0,0,0,0,0,0,0,0,0,0,0,0,0,0,0,0,0,0,0,0,0,0,0,0,0,0,0,0,0,0,0,0,0,0],"sum_hessian":[2.5579E4,4.285E3,2.1294E4,3.845E3,4.4E2,1.5089E4,6.205E3,2.416E3,1.429E3,8.6E1,3.54E2,4.734E3,1.0355E4,1.891E3,4.314E3,7.58E2,1.658E3,6.99E2,7.3E2,2.9E1,5.7E1,3.4E2,1.4E1,3.715E3,1.019E3,4.448E3,5.907E3,7.91E2,1.1E3,1.082E3,3.232E3,1.327E3,3.31E2,4.27E2,2.72E2,4.43E2,2.87E2,7E0,2.2E1,5.1E1,6E0,6.2E1,2.78E2,1.3E1,1E0,2.043E3,1.672E3,9.71E2,4.8E1,2.124E3,2.324E3,5.016E3,8.91E2,7.83E2,8E0,9.94E2,1.06E2,8.64E2,2.18E2,1E1,3.222E3,6.94E2,6.33E2,6E0,3.25E2,2.53E2,1.74E2,6.4E1,2.08E2,4.01E2,4.2E1,5E1,2.37E2,6E0,1E0,2E1,2E0,3E0,4.8E1,4.1E1,2.1E1,1.685E3,3.58E2,1.068E3,6.04E2,2.19E2,7.52E2,2.1E1,2.7E1,2.44E2,1.88E3,1.786E3,5.38E2,4.904E3,1.12E2,6.71E2,2.2E2,5.27E2,2.56E2,4E0,4E0,6.99E2,2.95E2,5E0,1.01E2,2.1E2,8E0,9E0,1E0],"tree_param":{"num_deleted":"0","num_feature":"13","num_nodes":"109","size_leaf_vector":"1"}},{"base_weights":[-2.2957189E-4,2.2277048E-2,-6.714756E-2,1.0768501E-2,4.7426783E-2,2.5296733E-2,-7.086255E-2,-6.8574846E-2,1.5677465E-2,2.2723323E-2,7.0865706E-2,-7.4511245E-3,1.0891039E-1,-4.4521168E-2,-7.6572925E-2,-6.479912E-2,-1.032133E-1,5.9703983E-2,3.9510215E-3,5.7639245E-2,7.7603175E-3,1.3494152E-1,3.7369855E-2,-4.1935932E-2,7.3436074E-2,9.371715E-3,9.778799E-3,1.0320132E-2,-4.7372688E-2,-6.8781726E-2,-8.0380134E-2,-6.716283E-2,-4.7675703E-2,-1.0604667E-1,-4.2428374E-3,-5.711849E-3,1.1943809E-1,6.8430424E-2,1.3375191E-3,4.2089567E-2,1.0213636E-1,-5.6232195E-2,1.7973227E-2,1.3924189E-1,3.734775E-2,5.6983925E-2,-4.0820246E-3,-5.685625E-2,5.206943E-2,1.5840036E-1,-6.967502E-2,1.3896927E-1,-6.5900005E-2,-3.501825E-2,6.4339094E-2,4.633136E-2,-4.8496924E-2,-6.947153E-2,7.226062E-2,8.864555E-3,-8.059583E-2,-2.399328E-3,-3.5427758E-3,-2.788862E-4,-2.8881563E-3,-1.6370876E-3,-5.4878755E-3,-0E0,-5.951971E-4,1.5003843E-3,-1.2136906E-3,6.4745806E-3,2.646985E-3,2.8404465E-3,8.034787E-3,2.917341E-4,-1.2106352E-3,2.8577764E-3,-9.713169E-5,7.781581E-3,3.96417E-3,-2.9118808E-3,-0E0,4.738214E-3,5.2291545E-4,7.728815E-3,6.1127287E-3,-2.1133665E-3,5.079552E-3,1.9699414E-3,4.3713814E-3,-5.598445E-4,6.5385527E-3,-3.3976466E-3,2.6007786E-3,6.344959E-3,-1.773822E-3,-8.159455E-4,8.647764E-3,-4.45572E-3,4.9918303E-3,-8.797255E-5,7.958831E-3,3.0139405E-3,-4.7917096E-3,-3.3936338E-3,-0E0,2.8183835E-4,1.2120369E-2,-1.3362926E-3,4.935035E-3,-2.551988E-3,-4.5244567E-4,-3.5367315E-3,-0E0,7.6919678E-3,-1.1388967E-3,-2.7890585E-3,8.426725E-3,-0E0,-4.03039E-3],"categories":[],"categories_nodes":[],"categories_segments":[],"categories_sizes":[],"default_left":[0,0,0,0,0,0,0,0,0,0,0,0,0,0,0,0,0,0,0,0,0,0,0,0,0,0,0,0,0,0,0,0,0,0,0,0,0,0,0,0,0,0,0,0,0,0,0,0,0,0,0,0,0,0,0,0,0,0,0,0,0,0,0,0,0,0,0,0,0,0,0,0,0,0,0,0,0,0,0,0,0,0,0,0,0,0,0,0,0,0,0,0,0,0,0,0,0,0,0,0,0,0,0,0,0,0,0,0,0,0,0,0,0,0,0,0,0,0,0,0,0],"id":14,"left_children":[1,3,5,7,9,11,13,15,17,19,21,23,25,27,29,31,33,35,37,39,41,43,45,47,49,-1,51,53,55,57,59,61,63,65,67,69,71,73,75,77,79,81,83,85,87,89,91,93,95,97,99,101,103,105,107,109,111,113,115,117,119,-1,-1,-1,-1,-1,-1,-1,-1,-1,-1,-1,-1,-1,-1,-1,-1,-1,-1,-1,-1,-1,-1,-1,-1,-1,-1,-1,-1,-1,-1,-1,-1,-1,-1,-1,-1,-1,-1,-1,-1,-1,-1,-1,-1,-1,-1,-1,-1,-1,-1,-1,-1,-1,-1,-1,-1,-1,-1,-1,-1],"loss_changes":[3.8613293E1,5.5456476E0,2.222498E0,5.1230783E0,3.4741688E0,6.927613E-1,9.178333E-1,7.669234E-2,6.3946853E0,1.5258727E0,6.6011286E0,4.9922848E-1,5.3112394E-1,1.779337E-1,1.3068771E-1,1.3484478E-2,8.430839E-3,1.0195147E1,1.6433878E0,5.887809E-1,1.3415368E0,4.2116928E-1,1.6551812E0,1.8156807E-1,6.643537E-1,0E0,3.391054E-1,1.3743827E-1,1.1391902E-1,1.6896915E-1,7.349205E-2,2.7486086E-2,3.2837108E-2,6.5398216E-4,3.5310478E-4,8.2495767E-1,8.861275E-1,3.7657976E-1,1.08012E0,4.394877E-1,2.3923755E-1,3.4211278E-2,1.013378E0,2.170353E-1,2.5061888E-1,7.221279E-1,6.141162E-1,1.3922927E-1,1.2501182E-1,1.0494894E-1,7.372868E-2,5.2990586E-2,8.865056E-2,3.353844E-2,2.4560778E-1,5.574684E-2,9.8553896E-2,1.4258957E-1,7.8635275E-2,1.032522E-1,6.2942505E-5,0E0,0E0,0E0,0E0,0E0,0E0,0E0,0E0,0E0,0E0,0E0,0E0,0E0,0E0,0E0,0E0,0E0,0E0,0E0,0E0,0E0,0E0,0E0,0E0,0E0,0E0,0E0,0E0,0E0,0E0,0E0,0E0,0E0,0E0,0E0,0E0,0E0,0E0,0E0,0E0,0E0,0E0,0E0,0E0,0E0,0E0,0E0,0E0,0E0,0E0,0E0,0E0,0E0,0E0,0E0,0E0,0E0,0E0,0E0,0E0],"parents":[2147483647,0,0,1,1,2,2,3,3,4,4,5,5,6,6,7,7,8,8,9,9,10,10,11,11,12,12,13,13,14,14,15,15,16,16,17,17,18,18,19,19,20,20,21,21,22,22,23,23,24,24,26,26,27,27,28,28,29,29,30,30,31,31,32,32,33,33,34,34,35,35,36,36,37,37,38,38,39,39,40,40,41,41,42,42,43,43,44,44,45,45,46,46,47,47,48,48,49,49,50,50,51,51,52,52,53,53,54,54,55,55,56,56,57,57,58,58,59,59,60,60],"right_children":[2,4,6,8,10,12,14,16,18,20,22,24,26,28,30,32,34,36,38,40,42,44,46,48,50,-1,52,54,56,58,60,62,64,66,68,70,72,74,76,78,80,82,84,86,88,90,92,94,96,98,100,102,104,106,108,110,112,114,116,118,120,-1,-1,-1,-1,-1,-1,-1,-1,-1,-1,-1,-1,-1,-1,-1,-1,-1,-1,-1,-1,-1,-1,-1,-1,-1,-1,-1,-1,-1,-1,-1,-1,-1,-1,-1,-1,-1,-1,-1,-1,-1,-1,-1,-1,-1,-1,-1,-1,-1,-1,-1,-1,-1,-1,-1,-1,-1,-1,-1,-1],"split_conditions":[8.1892915E-2,5.697689E-1,1.3609056E-2,1.1108162E-2,3.201402E-2,5.6868076E-1,1.0009429E-1,2.4916973E-2,1.2944465E-2,5.6979644E-1,1.3301855E-2,9.851731E-2,9.294665E-2,1.4060017E-2,1.357096E-1,8.22E-1,8.980084E-1,3.1088147E-2,5.228813E-2,7.04E-1,1.1530026E-2,5.5338744E-2,6.097228E-2,1.3468021E-2,1.0521677E-1,9.371715E-3,6.25E-1,4.94E-1,7.7860326E-2,6.163632E-1,4.4055057E-1,1.575E-1,8.84762E-2,6.0049802E-2,2.5898768E-2,2.7363846E-2,4.5738064E-2,1.4396183E-1,2.2051562E-2,5.6E-1,5.5767126E-2,2.6735391E-2,2.6337044E-2,1.2496731E-2,6.832335E-2,5.7268196E-1,4.6949863E-1,5.682538E-1,9.827635E-2,5.625966E-1,6.04E-1,9.323522E-2,1.2944465E-2,1.9572043E-1,9.5894136E-2,1.4724652E-2,2.590924E-1,3.716727E-1,2.5607628E-1,1.866166E-1,1.2945525E-1,-2.399328E-3,-3.5427758E-3,-2.788862E-4,-2.8881563E-3,-1.6370876E-3,-5.4878755E-3,-0E0,-5.951971E-4,1.5003843E-3,-1.2136906E-3,6.4745806E-3,2.646985E-3,2.8404465E-3,8.034787E-3,2.917341E-4,-1.2106352E-3,2.8577764E-3,-9.713169E-5,7.781581E-3,3.96417E-3,-2.9118808E-3,-0E0,4.738214E-3,5.2291545E-4,7.728815E-3,6.1127287E-3,-2.1133665E-3,5.079552E-3,1.9699414E-3,4.3713814E-3,-5.598445E-4,6.5385527E-3,-3.3976466E-3,2.6007786E-3,6.344959E-3,-1.773822E-3,-8.159455E-4,8.647764E-3,-4.45572E-3,4.9918303E-3,-8.797255E-5,7.958831E-3,3.0139405E-3,-4.7917096E-3,-3.3936338E-3,-0E0,2.8183835E-4,1.2120369E-2,-1.3362926E-3,4.935035E-3,-2.551988E-3,-4.5244567E-4,-3.5367315E-3,-0E0,7.6919678E-3,-1.1388967E-3,-2.7890585E-3,8.426725E-3,-0E0,-4.03039E-3],"split_indices":[0,4,1,1,0,4,0,3,1,4,1,0,2,1,0,11,10,0,5,11,1,3,3,1,3,0,10,11,3,4,4,10,6,11,0,0,3,2,1,11,12,0,0,1,0,4,1,4,2,4,11,2,1,6,0,1,3,3,6,5,3,0,0,0,0,0,0,0,0,0,0,0,0,0,0,0,0,0,0,0,0,0,0,0,0,0,0,0,0,0,0,0,0,0,0,0,0,0,0,0,0,0,0,0,0,0,0,0,0,0,0,0,0,0,0,0,0,0,0,0,0],"split_type":[0,0,0,0,0,0,0,0,0,0,0,0,0,0,0,0,0,0,0,0,0,0,0,0,0,0,0,0,0,0,0,0,0,0,0,0,0,0,0,0,0,0,0,0,0,0,0,0,0,0,0,0,0,0,0,0,0,0,0,0,0,0,0,0,0,0,0,0,0,0,0,0,0,0,0,0,0,0,0,0,0,0,0,0,0,0,0,0,0,0,0,0,0,0,0,0,0,0,0,0,0,0,0,0,0,0,0,0,0,0,0,0,0,0,0,0,0,0,0,0,0],"sum_hessian":[2.5633E4,1.9181E4,6.452E3,1.3163E4,6.018E3,2.48E2,6.204E3,7.65E2,1.2398E4,2.933E3,3.085E3,1.78E2,7E1,1.11E3,5.094E3,6.95E2,7E1,2.605E3,9.793E3,8.77E2,2.056E3,1.057E3,2.028E3,1.26E2,5.2E1,3.8E1,3.2E1,5.3E1,1.057E3,1.687E3,3.407E3,6.03E2,9.2E1,6.7E1,3E0,1.243E3,1.362E3,3.79E2,9.414E3,6.53E2,2.24E2,2.81E2,1.775E3,1.011E3,4.6E1,1.378E3,6.5E2,1.1E2,1.6E1,3.3E1,1.9E1,1.2E1,2E1,2.8E1,2.5E1,1.1E1,1.046E3,1.68E3,7E0,7E0,3.4E3,1.04E2,4.99E2,2E1,7.2E1,5E0,6.2E1,1E0,2E0,4.23E2,8.2E2,1.181E3,1.81E2,3.39E2,4E1,8.009E3,1.405E3,4.88E2,1.65E2,6.4E1,1.6E2,2.72E2,9E0,1.56E2,1.619E3,5.24E2,4.87E2,2E1,2.6E1,8.77E2,5.01E2,6.19E2,3.1E1,1.01E2,9E0,9E0,7E0,2E0,3.1E1,1.8E1,1E0,1E0,1.1E1,3E0,1.7E1,1.4E1,1.4E1,2E1,5E0,4E0,7E0,9.8E2,6.6E1,1.649E3,3.1E1,4E0,3E0,5E0,2E0,1E0,3.399E3],"tree_param":{"num_deleted":"0","num_feature":"13","num_nodes":"121","size_leaf_vector":"1"}},{"base_weights":[3.0964974E-4,1.3144644E-1,-2.612722E-2,1.5030882E-1,-2.2945674E-2,7.4390997E-3,-4.9319465E-2,1.722435E-1,1.1468873E-1,4.8624787E-2,-6.16821E-2,4.7376424E-2,-6.193231E-2,-3.285763E-2,-6.344921E-2,1.9979076E-1,1.603945E-1,8.598263E-2,1.4259934E-1,1.761783E-1,2.2591673E-2,8.499253E-3,-7.126824E-2,3.7686299E-3,9.845137E-2,-6.404232E-2,1.660913E-1,-7.472068E-2,-1.4929195E-2,-7.8759156E-2,-5.433278E-2,1.7808573E-1,1.0282631E-2,1.5239224E-1,1.9461672E-1,1.5762725E-1,5.9001543E-2,1.6510037E-1,1.0897625E-1,-4.251687E-4,9.372733E-3,-1.7904533E-2,8.048134E-2,-7.499372E-2,1.0338752E-1,4.982057E-2,-3.5473067E-2,9.543845E-3,1.4299792E-1,-4.6297736E-2,-7.324684E-2,8.803985E-3,-3.396066E-4,-5.6247972E-2,-8.83266E-2,5.8622994E-3,-7.377851E-2,-8.113848E-2,3.1455497E-3,-2.2276742E-2,-7.273071E-2,9.532045E-3,